<?xml version="1.0"?>
<MethodSetup Method="BDT::BDT-0.3_fold10">
  <GeneralInfo>
    <Info name="TMVA Release" value="4.2.1 [262657]"/>
    <Info name="ROOT Release" value="6.32/00 [401408]"/>
    <Info name="Creator" value="htan"/>
    <Info name="Date" value="Thu Aug 15 09:50:19 2024"/>
    <Info name="Host" value="Linux 6772f6b99311 6.5.0-1022-azure #23~22.04.1-Ubuntu SMP Thu May 9 17:59:24 UTC 2024 x86_64 x86_64 x86_64 GNU/Linux"/>
    <Info name="Dir" value="/gluster/home/htan/ZTTBDT"/>
    <Info name="Training events" value="105014"/>
    <Info name="TrainingTime" value="7.94037700e+00"/>
    <Info name="AnalysisType" value="Classification"/>
  </GeneralInfo>
  <Options>
    <Option name="V" modified="Yes">False</Option>
    <Option name="VerbosityLevel" modified="No">Default</Option>
    <Option name="VarTransform" modified="No">None</Option>
    <Option name="H" modified="Yes">False</Option>
    <Option name="CreateMVAPdfs" modified="No">False</Option>
    <Option name="IgnoreNegWeightsInTraining" modified="No">False</Option>
    <Option name="NTrees" modified="Yes">125</Option>
    <Option name="MaxDepth" modified="Yes">2</Option>
    <Option name="MinNodeSize" modified="Yes">3%</Option>
    <Option name="nCuts" modified="Yes">80</Option>
    <Option name="BoostType" modified="Yes">Grad</Option>
    <Option name="AdaBoostR2Loss" modified="No">quadratic</Option>
    <Option name="UseBaggedBoost" modified="Yes">True</Option>
    <Option name="Shrinkage" modified="Yes">1.000000e-01</Option>
    <Option name="AdaBoostBeta" modified="No">5.000000e-01</Option>
    <Option name="UseRandomisedTrees" modified="No">False</Option>
    <Option name="UseNvars" modified="Yes">2</Option>
    <Option name="UsePoissonNvars" modified="No">True</Option>
    <Option name="BaggedSampleFraction" modified="Yes">5.000000e-01</Option>
    <Option name="UseYesNoLeaf" modified="No">True</Option>
    <Option name="NegWeightTreatment" modified="No">pray</Option>
    <Option name="Css" modified="No">1.000000e+00</Option>
    <Option name="Cts_sb" modified="No">1.000000e+00</Option>
    <Option name="Ctb_ss" modified="No">1.000000e+00</Option>
    <Option name="Cbb" modified="No">1.000000e+00</Option>
    <Option name="NodePurityLimit" modified="No">5.000000e-01</Option>
    <Option name="SeparationType" modified="Yes">sdivsqrtsplusb</Option>
    <Option name="RegressionLossFunctionBDTG" modified="No">huber</Option>
    <Option name="HuberQuantile" modified="No">7.000000e-01</Option>
    <Option name="DoBoostMonitor" modified="No">False</Option>
    <Option name="UseFisherCuts" modified="No">False</Option>
    <Option name="MinLinCorrForFisher" modified="No">8.000000e-01</Option>
    <Option name="UseExclusiveVars" modified="No">False</Option>
    <Option name="DoPreselection" modified="No">False</Option>
    <Option name="SigToBkgFraction" modified="No">1.000000e+00</Option>
    <Option name="PruneMethod" modified="No">nopruning</Option>
    <Option name="PruneStrength" modified="No">0.000000e+00</Option>
    <Option name="PruningValFraction" modified="No">5.000000e-01</Option>
    <Option name="SkipNormalization" modified="No">False</Option>
    <Option name="nEventsMin" modified="No">0</Option>
    <Option name="UseBaggedGrad" modified="No">False</Option>
    <Option name="GradBaggingFraction" modified="No">5.000000e-01</Option>
    <Option name="UseNTrainEvents" modified="No">0</Option>
    <Option name="NNodesMax" modified="No">0</Option>
  </Options>
  <Variables NVar="9">
    <Variable VarIndex="0" Expression="m_d_zeta" Label="m_d_zeta" Title="m_d_zeta" Unit="" Internal="m_d_zeta" Type="F" Min="-1.85973010e+03" Max="1.22364221e+03"/>
    <Variable VarIndex="1" Expression="m_pT_asymm" Label="m_pT_asymm" Title="m_pT_asymm" Unit="" Internal="m_pT_asymm" Type="F" Min="1.16390038e-05" Max="9.46852446e-01"/>
    <Variable VarIndex="2" Expression="m_sigmaCosDelPhi" Label="m_sigmaCosDelPhi" Title="m_sigmaCosDelPhi" Unit="" Internal="m_sigmaCosDelPhi" Type="F" Min="-4.99867573e-02" Max="1.97457731e+00"/>
    <Variable VarIndex="3" Expression="m_ratioMetTauPT" Label="m_ratioMetTauPT" Title="m_ratioMetTauPT" Unit="" Internal="m_ratioMetTauPT" Type="F" Min="1.13642181e-03" Max="1.19963303e+01"/>
    <Variable VarIndex="4" Expression="m_ratioMuonTauPT" Label="m_ratioMuonTauPT" Title="m_ratioMuonTauPT" Unit="" Internal="m_ratioMuonTauPT" Type="F" Min="2.72991937e-02" Max="9.99976695e-01"/>
    <Variable VarIndex="5" Expression="m_ratioMetMuonPT" Label="m_ratioMetMuonPT" Title="m_ratioMetMuonPT" Unit="" Internal="m_ratioMetMuonPT" Type="F" Min="1.52266631e-03" Max="2.49829426e+01"/>
    <Variable VarIndex="6" Expression="m_ratioMuonTauM3" Label="m_ratioMuonTauM3" Title="m_ratioMuonTauM3" Unit="" Internal="m_ratioMuonTauM3" Type="F" Min="1.83517556e-03" Max="9.96654034e-01"/>
    <Variable VarIndex="7" Expression="m_ratioMuonMetM3" Label="m_ratioMuonMetM3" Title="m_ratioMuonMetM3" Unit="" Internal="m_ratioMuonMetM3" Type="F" Min="1.27644239e-06" Max="2.49402225e-01"/>
    <Variable VarIndex="8" Expression="m_ratioMetTauM3" Label="m_ratioMetTauM3" Title="m_ratioMetTauM3" Unit="" Internal="m_ratioMetTauM3" Type="F" Min="5.56223167e-05" Max="9.77119267e-01"/>
  </Variables>
  <Spectators NSpec="1">
    <Spectator SpecIndex="0" Expression="m_event_number" Label="m_event_number" Title="I" Unit="" Internal="m_event_number" Type="F" Min="1.13000000e+02" Max="1.21478618e+09"/>
  </Spectators>
  <Classes NClass="2">
    <Class Name="Signal" Index="0"/>
    <Class Name="Background" Index="1"/>
  </Classes>
  <Transformations NTransformations="0"/>
  <MVAPdfs/>
  <Weights NTrees="125" AnalysisType="1">
    <BinaryTree type="DecisionTree" boostWeight="1.0000000000000000e+00" itree="0">
      <Node pos="s" depth="0" NCoef="0" IVar="7" Cut="4.2954493314027786e-02" cType="1" res="2.9705500230193138e-02" rms="4.9911680817604065e-01" purity="5.2970552444458008e-01" nType="0">
        <Node pos="l" depth="1" NCoef="0" IVar="8" Cut="5.6725347042083740e-01" cType="1" res="1.6746468842029572e-01" rms="4.7112160921096802e-01" purity="6.6746467351913452e-01" nType="0">
          <Node pos="l" depth="2" NCoef="0" IVar="-1" Cut="0.0000000000000000e+00" cType="1" res="-6.9086947478353977e-03" rms="4.9880531430244446e-01" purity="4.6545651555061340e-01" nType="-99"/>
          <Node pos="r" depth="2" NCoef="0" IVar="-1" Cut="0.0000000000000000e+00" cType="1" res="5.7880256325006485e-02" rms="4.0773385763168335e-01" purity="7.8940129280090332e-01" nType="-99"/>
        </Node>
        <Node pos="r" depth="1" NCoef="0" IVar="1" Cut="2.7322027087211609e-01" cType="1" res="-8.7690994143486023e-02" rms="4.9225023388862610e-01" purity="4.1230899095535278e-01" nType="0">
          <Node pos="l" depth="2" NCoef="0" IVar="-1" Cut="0.0000000000000000e+00" cType="1" res="-3.1976532191038132e-02" rms="4.7374838590621948e-01" purity="3.4011733531951904e-01" nType="-99"/>
          <Node pos="r" depth="2" NCoef="0" IVar="-1" Cut="0.0000000000000000e+00" cType="1" res="-6.2037422321736813e-04" rms="4.9999037384986877e-01" purity="4.9689811468124390e-01" nType="-99"/>
        </Node>
      </Node>
    </BinaryTree>
    <BinaryTree type="DecisionTree" boostWeight="1.0000000000000000e+00" itree="1">
      <Node pos="s" depth="0" NCoef="0" IVar="2" Cut="2.4055130779743195e-02" cType="1" res="-8.9690238237380981e-03" rms="4.9607715010643005e-01" purity="4.9429568648338318e-01" nType="0">
        <Node pos="l" depth="1" NCoef="0" IVar="2" Cut="-1.4339350163936615e-02" cType="1" res="8.8356390595436096e-02" rms="4.8676842451095581e-01" purity="5.9332144260406494e-01" nType="0">
          <Node pos="l" depth="2" NCoef="0" IVar="-1" Cut="0.0000000000000000e+00" cType="1" res="-1.4297737739980221e-02" rms="4.9311080574989319e-01" purity="4.1966718435287476e-01" nType="-99"/>
          <Node pos="r" depth="2" NCoef="0" IVar="-1" Cut="0.0000000000000000e+00" cType="1" res="3.1521212309598923e-02" rms="4.6741884946823120e-01" purity="6.6827458143234253e-01" nType="-99"/>
        </Node>
        <Node pos="r" depth="1" NCoef="0" IVar="8" Cut="5.5177825689315796e-01" cType="1" res="-1.6686271131038666e-01" rms="4.6972095966339111e-01" purity="3.3364352583885193e-01" nType="0">
          <Node pos="l" depth="2" NCoef="0" IVar="-1" Cut="0.0000000000000000e+00" cType="1" res="-5.4894916713237762e-02" rms="4.1302016377449036e-01" purity="2.1765643358230591e-01" nType="-99"/>
          <Node pos="r" depth="2" NCoef="0" IVar="-1" Cut="0.0000000000000000e+00" cType="1" res="-1.3133647851645947e-02" rms="4.9664503335952759e-01" purity="4.4294816255569458e-01" nType="-99"/>
        </Node>
      </Node>
    </BinaryTree>
    <BinaryTree type="DecisionTree" boostWeight="1.0000000000000000e+00" itree="2">
      <Node pos="s" depth="0" NCoef="0" IVar="2" Cut="7.3932088911533356e-02" cType="1" res="9.7574712708592415e-03" rms="4.9153876304626465e-01" purity="5.1313257217407227e-01" nType="0">
        <Node pos="l" depth="1" NCoef="0" IVar="2" Cut="-1.6330251470208168e-02" cType="1" res="6.4191043376922607e-02" rms="4.8728194832801819e-01" purity="5.7442915439605713e-01" nType="0">
          <Node pos="l" depth="2" NCoef="0" IVar="-1" Cut="0.0000000000000000e+00" cType="1" res="-2.1968318149447441e-02" rms="4.8437353968620300e-01" purity="3.7559276819229126e-01" nType="-99"/>
          <Node pos="r" depth="2" NCoef="0" IVar="-1" Cut="0.0000000000000000e+00" cType="1" res="2.4257101118564606e-02" rms="4.7466382384300232e-01" purity="6.3918536901473999e-01" nType="-99"/>
        </Node>
        <Node pos="r" depth="1" NCoef="0" IVar="7" Cut="5.2092649042606354e-02" cType="1" res="-1.5193022787570953e-01" rms="4.6801999211311340e-01" purity="3.3105915784835815e-01" nType="0">
          <Node pos="l" depth="2" NCoef="0" IVar="-1" Cut="0.0000000000000000e+00" cType="1" res="-4.9341108649969101e-02" rms="4.2272928357124329e-01" purity="2.4556629359722137e-01" nType="-99"/>
          <Node pos="r" depth="2" NCoef="0" IVar="-1" Cut="0.0000000000000000e+00" cType="1" res="-1.2844360433518887e-02" rms="4.9067041277885437e-01" purity="4.1098472476005554e-01" nType="-99"/>
        </Node>
      </Node>
    </BinaryTree>
    <BinaryTree type="DecisionTree" boostWeight="1.0000000000000000e+00" itree="3">
      <Node pos="s" depth="0" NCoef="0" IVar="2" Cut="9.8625689744949341e-02" cType="1" res="3.5544563434086740e-04" rms="4.8938915133476257e-01" purity="5.0459742546081543e-01" nType="0">
        <Node pos="l" depth="1" NCoef="0" IVar="8" Cut="5.3302031755447388e-01" cType="1" res="5.7552341371774673e-02" rms="4.8833507299423218e-01" purity="5.7363098859786987e-01" nType="0">
          <Node pos="l" depth="2" NCoef="0" IVar="-1" Cut="0.0000000000000000e+00" cType="1" res="-1.1250737123191357e-02" rms="4.9676024913787842e-01" purity="4.4236943125724792e-01" nType="-99"/>
          <Node pos="r" depth="2" NCoef="0" IVar="-1" Cut="0.0000000000000000e+00" cType="1" res="2.4211665615439415e-02" rms="4.7205340862274170e-01" purity="6.4605450630187988e-01" nType="-99"/>
        </Node>
        <Node pos="r" depth="1" NCoef="0" IVar="1" Cut="2.7993997931480408e-01" cType="1" res="-1.8172080814838409e-01" rms="4.4633671641349792e-01" purity="2.8484109044075012e-01" nType="0">
          <Node pos="l" depth="2" NCoef="0" IVar="-1" Cut="0.0000000000000000e+00" cType="1" res="-5.5608794093132019e-02" rms="3.8405731320381165e-01" purity="1.8117618560791016e-01" nType="-99"/>
          <Node pos="r" depth="2" NCoef="0" IVar="-1" Cut="0.0000000000000000e+00" cType="1" res="-1.6269842162728310e-02" rms="4.8475769162178040e-01" purity="3.9582008123397827e-01" nType="-99"/>
        </Node>
      </Node>
    </BinaryTree>
    <BinaryTree type="DecisionTree" boostWeight="1.0000000000000000e+00" itree="4">
      <Node pos="s" depth="0" NCoef="0" IVar="2" Cut="2.4997096508741379e-02" cType="1" res="-2.3491602391004562e-02" rms="4.8754182457923889e-01" purity="4.8325186967849731e-01" nType="0">
        <Node pos="l" depth="1" NCoef="0" IVar="8" Cut="4.9809783697128296e-01" cType="1" res="5.3731132298707962e-02" rms="4.8551461100578308e-01" purity="5.8001154661178589e-01" nType="0">
          <Node pos="l" depth="2" NCoef="0" IVar="-1" Cut="0.0000000000000000e+00" cType="1" res="-1.9545244053006172e-02" rms="4.8841929435729980e-01" purity="4.0278705954551697e-01" nType="-99"/>
          <Node pos="r" depth="2" NCoef="0" IVar="-1" Cut="0.0000000000000000e+00" cType="1" res="2.3798190057277679e-02" rms="4.6983236074447632e-01" purity="6.5505373477935791e-01" nType="-99"/>
        </Node>
        <Node pos="r" depth="1" NCoef="0" IVar="6" Cut="6.9752466678619385e-01" cType="1" res="-1.5465876460075378e-01" rms="4.6229177713394165e-01" purity="3.1890013813972473e-01" nType="0">
          <Node pos="l" depth="2" NCoef="0" IVar="-1" Cut="0.0000000000000000e+00" cType="1" res="-4.0003873407840729e-02" rms="4.4586557149887085e-01" purity="2.7989703416824341e-01" nType="-99"/>
          <Node pos="r" depth="2" NCoef="0" IVar="-1" Cut="0.0000000000000000e+00" cType="1" res="-7.7324807643890381e-03" rms="4.8439234495162964e-01" purity="4.2237678170204163e-01" nType="-99"/>
        </Node>
      </Node>
    </BinaryTree>
    <BinaryTree type="DecisionTree" boostWeight="1.0000000000000000e+00" itree="5">
      <Node pos="s" depth="0" NCoef="0" IVar="1" Cut="2.5430560111999512e-01" cType="1" res="-1.8955742940306664e-02" rms="4.8149228096008301e-01" purity="4.8334839940071106e-01" nType="0">
        <Node pos="l" depth="1" NCoef="0" IVar="4" Cut="8.1971913576126099e-01" cType="1" res="-1.3359901309013367e-01" rms="4.6743264794349670e-01" purity="3.4832307696342468e-01" nType="0">
          <Node pos="l" depth="2" NCoef="0" IVar="-1" Cut="0.0000000000000000e+00" cType="1" res="-1.3270353898406029e-02" rms="4.7950056195259094e-01" purity="4.1755431890487671e-01" nType="-99"/>
          <Node pos="r" depth="2" NCoef="0" IVar="-1" Cut="0.0000000000000000e+00" cType="1" res="-5.0614297389984131e-02" rms="4.2077168822288513e-01" purity="2.2892373800277710e-01" nType="-99"/>
        </Node>
        <Node pos="r" depth="1" NCoef="0" IVar="7" Cut="3.9765331894159317e-02" cType="1" res="9.5739223062992096e-02" rms="4.6784445643424988e-01" purity="6.1843472719192505e-01" nType="0">
          <Node pos="l" depth="2" NCoef="0" IVar="-1" Cut="0.0000000000000000e+00" cType="1" res="5.0249807536602020e-02" rms="3.8524308800697327e-01" purity="7.9583013057708740e-01" nType="-99"/>
          <Node pos="r" depth="2" NCoef="0" IVar="-1" Cut="0.0000000000000000e+00" cType="1" res="-8.0709690228104591e-03" rms="4.9336278438568115e-01" purity="4.5868930220603943e-01" nType="-99"/>
        </Node>
      </Node>
    </BinaryTree>
    <BinaryTree type="DecisionTree" boostWeight="1.0000000000000000e+00" itree="6">
      <Node pos="s" depth="0" NCoef="0" IVar="8" Cut="4.7059714794158936e-01" cType="1" res="4.0318379178643227e-03" rms="4.8097842931747437e-01" purity="5.0937658548355103e-01" nType="0">
        <Node pos="l" depth="1" NCoef="0" IVar="6" Cut="6.9234389066696167e-01" cType="1" res="-1.2583316862583160e-01" rms="4.6814599633216858e-01" purity="3.3496299386024475e-01" nType="0">
          <Node pos="l" depth="2" NCoef="0" IVar="-1" Cut="0.0000000000000000e+00" cType="1" res="-4.3826542794704437e-02" rms="4.3205413222312927e-01" purity="2.4771586060523987e-01" nType="-99"/>
          <Node pos="r" depth="2" NCoef="0" IVar="-1" Cut="0.0000000000000000e+00" cType="1" res="-2.1545772906392813e-03" rms="4.8672801256179810e-01" purity="4.4620341062545776e-01" nType="-99"/>
        </Node>
        <Node pos="r" depth="1" NCoef="0" IVar="7" Cut="6.1531584709882736e-02" cType="1" res="5.2246842533349991e-02" rms="4.7673478722572327e-01" purity="5.7413119077682495e-01" nType="0">
          <Node pos="l" depth="2" NCoef="0" IVar="-1" Cut="0.0000000000000000e+00" cType="1" res="2.3972030729055405e-02" rms="4.5736938714981079e-01" purity="6.6297119855880737e-01" nType="-99"/>
          <Node pos="r" depth="2" NCoef="0" IVar="-1" Cut="0.0000000000000000e+00" cType="1" res="-1.3356536626815796e-02" rms="4.8822337388992310e-01" purity="4.1279941797256470e-01" nType="-99"/>
        </Node>
      </Node>
    </BinaryTree>
    <BinaryTree type="DecisionTree" boostWeight="1.0000000000000000e+00" itree="7">
      <Node pos="s" depth="0" NCoef="0" IVar="4" Cut="5.6824046373367310e-01" cType="1" res="1.2539002113044262e-02" rms="4.7435429692268372e-01" purity="5.1409339904785156e-01" nType="0">
        <Node pos="l" depth="1" NCoef="0" IVar="8" Cut="5.1883733272552490e-01" cType="1" res="1.0059455782175064e-01" rms="4.5827063918113708e-01" purity="6.3940817117691040e-01" nType="0">
          <Node pos="l" depth="2" NCoef="0" IVar="-1" Cut="0.0000000000000000e+00" cType="1" res="-2.4281809106469154e-02" rms="4.7871991991996765e-01" purity="3.4469246864318848e-01" nType="-99"/>
          <Node pos="r" depth="2" NCoef="0" IVar="-1" Cut="0.0000000000000000e+00" cType="1" res="2.8678970411419868e-02" rms="4.4325107336044312e-01" purity="6.9163990020751953e-01" nType="-99"/>
        </Node>
        <Node pos="r" depth="1" NCoef="0" IVar="6" Cut="7.0403754711151123e-01" cType="1" res="-7.0040531456470490e-02" rms="4.7432923316955566e-01" purity="3.9657175540924072e-01" nType="0">
          <Node pos="l" depth="2" NCoef="0" IVar="-1" Cut="0.0000000000000000e+00" cType="1" res="-3.2200403511524200e-02" rms="4.4356289505958557e-01" purity="2.9993230104446411e-01" nType="-99"/>
          <Node pos="r" depth="2" NCoef="0" IVar="-1" Cut="0.0000000000000000e+00" cType="1" res="7.9689156264066696e-03" rms="4.8871839046478271e-01" purity="5.1762926578521729e-01" nType="-99"/>
        </Node>
      </Node>
    </BinaryTree>
    <BinaryTree type="DecisionTree" boostWeight="1.0000000000000000e+00" itree="8">
      <Node pos="s" depth="0" NCoef="0" IVar="6" Cut="5.0101417303085327e-01" cType="1" res="-1.4609577134251595e-02" rms="4.7766327857971191e-01" purity="4.9304938316345215e-01" nType="0">
        <Node pos="l" depth="1" NCoef="0" IVar="3" Cut="6.0293835401535034e-01" cType="1" res="-1.7615041136741638e-01" rms="4.4586920738220215e-01" purity="3.2280692458152771e-01" nType="0">
          <Node pos="l" depth="2" NCoef="0" IVar="-1" Cut="0.0000000000000000e+00" cType="1" res="-6.7769095301628113e-02" rms="3.5286572575569153e-01" purity="1.4702787995338440e-01" nType="-99"/>
          <Node pos="r" depth="2" NCoef="0" IVar="-1" Cut="0.0000000000000000e+00" cType="1" res="-1.4221819117665291e-02" rms="4.7222244739532471e-01" purity="4.4578137993812561e-01" nType="-99"/>
        </Node>
        <Node pos="r" depth="1" NCoef="0" IVar="4" Cut="5.5968123674392700e-01" cType="1" res="1.6791826114058495e-02" rms="4.7729584574699402e-01" purity="5.2614229917526245e-01" nType="0">
          <Node pos="l" depth="2" NCoef="0" IVar="-1" Cut="0.0000000000000000e+00" cType="1" res="2.2660616785287857e-02" rms="4.5088294148445129e-01" purity="6.6736185550689697e-01" nType="-99"/>
          <Node pos="r" depth="2" NCoef="0" IVar="-1" Cut="0.0000000000000000e+00" cType="1" res="-1.0246790014207363e-02" rms="4.8454591631889343e-01" purity="4.2408943176269531e-01" nType="-99"/>
        </Node>
      </Node>
    </BinaryTree>
    <BinaryTree type="DecisionTree" boostWeight="1.0000000000000000e+00" itree="9">
      <Node pos="s" depth="0" NCoef="0" IVar="7" Cut="9.5112286508083344e-02" cType="1" res="1.5147902071475983e-02" rms="4.7490701079368591e-01" purity="5.2332216501235962e-01" nType="0">
        <Node pos="l" depth="1" NCoef="0" IVar="8" Cut="3.3607715368270874e-01" cType="1" res="5.5919352918863297e-02" rms="4.6939292550086975e-01" purity="5.8214122056961060e-01" nType="0">
          <Node pos="l" depth="2" NCoef="0" IVar="-1" Cut="0.0000000000000000e+00" cType="1" res="-3.5412859171628952e-02" rms="4.2347773909568787e-01" purity="2.5298452377319336e-01" nType="-99"/>
          <Node pos="r" depth="2" NCoef="0" IVar="-1" Cut="0.0000000000000000e+00" cType="1" res="1.6926448792219162e-02" rms="4.6739029884338379e-01" purity="6.2001675367355347e-01" nType="-99"/>
        </Node>
        <Node pos="r" depth="1" NCoef="0" IVar="6" Cut="7.0268112421035767e-01" cType="1" res="-1.2207444012165070e-01" rms="4.6758601069450378e-01" purity="3.2535800337791443e-01" nType="0">
          <Node pos="l" depth="2" NCoef="0" IVar="-1" Cut="0.0000000000000000e+00" cType="1" res="-4.0062796324491501e-02" rms="4.3494009971618652e-01" purity="2.5019094347953796e-01" nType="-99"/>
          <Node pos="r" depth="2" NCoef="0" IVar="-1" Cut="0.0000000000000000e+00" cType="1" res="7.8779095783829689e-03" rms="4.9633580446243286e-01" purity="4.9190488457679749e-01" nType="-99"/>
        </Node>
      </Node>
    </BinaryTree>
    <BinaryTree type="DecisionTree" boostWeight="1.0000000000000000e+00" itree="10">
      <Node pos="s" depth="0" NCoef="0" IVar="7" Cut="4.0029574185609818e-02" cType="1" res="-1.3276543468236923e-02" rms="4.7160857915878296e-01" purity="4.9555221199989319e-01" nType="0">
        <Node pos="l" depth="1" NCoef="0" IVar="2" Cut="2.4470673874020576e-02" cType="1" res="7.8100875020027161e-02" rms="4.4856417179107666e-01" purity="6.3442754745483398e-01" nType="0">
          <Node pos="l" depth="2" NCoef="0" IVar="-1" Cut="0.0000000000000000e+00" cType="1" res="3.4371264278888702e-02" rms="4.1442030668258667e-01" purity="7.4558067321777344e-01" nType="-99"/>
          <Node pos="r" depth="2" NCoef="0" IVar="-1" Cut="0.0000000000000000e+00" cType="1" res="-2.7327746152877808e-02" rms="4.5986407995223999e-01" purity="3.5908305644989014e-01" nType="-99"/>
        </Node>
        <Node pos="r" depth="1" NCoef="0" IVar="6" Cut="5.8213871717453003e-01" cType="1" res="-8.1108145415782928e-02" rms="4.7681871056556702e-01" purity="3.9246168732643127e-01" nType="0">
          <Node pos="l" depth="2" NCoef="0" IVar="-1" Cut="0.0000000000000000e+00" cType="1" res="-3.9213623851537704e-02" rms="4.4051495194435120e-01" purity="2.7989131212234497e-01" nType="-99"/>
          <Node pos="r" depth="2" NCoef="0" IVar="-1" Cut="0.0000000000000000e+00" cType="1" res="-2.8298411052674055e-03" rms="4.8565834760665894e-01" purity="4.6144050359725952e-01" nType="-99"/>
        </Node>
      </Node>
    </BinaryTree>
    <BinaryTree type="DecisionTree" boostWeight="1.0000000000000000e+00" itree="11">
      <Node pos="s" depth="0" NCoef="0" IVar="7" Cut="3.0682014301419258e-02" cType="1" res="-3.1156117096543312e-02" rms="4.6620553731918335e-01" purity="4.7015309333801270e-01" nType="0">
        <Node pos="l" depth="1" NCoef="0" IVar="2" Cut="2.5549005717039108e-02" cType="1" res="7.0073567330837250e-02" rms="4.4383078813552856e-01" purity="6.3436990976333618e-01" nType="0">
          <Node pos="l" depth="2" NCoef="0" IVar="-1" Cut="0.0000000000000000e+00" cType="1" res="2.8657656162977219e-02" rms="4.1543382406234741e-01" purity="7.2968643903732300e-01" nType="-99"/>
          <Node pos="r" depth="2" NCoef="0" IVar="-1" Cut="0.0000000000000000e+00" cType="1" res="-2.1675793454051018e-02" rms="4.7039702534675598e-01" purity="3.7456879019737244e-01" nType="-99"/>
        </Node>
        <Node pos="r" depth="1" NCoef="0" IVar="6" Cut="5.5625420808792114e-01" cType="1" res="-8.0389752984046936e-02" rms="4.6887403726577759e-01" purity="3.9028528332710266e-01" nType="0">
          <Node pos="l" depth="2" NCoef="0" IVar="-1" Cut="0.0000000000000000e+00" cType="1" res="-3.7056148052215576e-02" rms="4.3280562758445740e-01" purity="2.7795481681823730e-01" nType="-99"/>
          <Node pos="r" depth="2" NCoef="0" IVar="-1" Cut="0.0000000000000000e+00" cType="1" res="-8.0335969105362892e-03" rms="4.7728368639945984e-01" purity="4.3754309415817261e-01" nType="-99"/>
        </Node>
      </Node>
    </BinaryTree>
    <BinaryTree type="DecisionTree" boostWeight="1.0000000000000000e+00" itree="12">
      <Node pos="s" depth="0" NCoef="0" IVar="4" Cut="4.1551747918128967e-01" cType="1" res="1.8298188224434853e-03" rms="4.6992659568786621e-01" purity="5.0505429506301880e-01" nType="0">
        <Node pos="l" depth="1" NCoef="0" IVar="2" Cut="2.4230895563960075e-02" cType="1" res="1.4752112329006195e-01" rms="4.2452234029769897e-01" purity="7.0547491312026978e-01" nType="0">
          <Node pos="l" depth="2" NCoef="0" IVar="-1" Cut="0.0000000000000000e+00" cType="1" res="4.7708742320537567e-02" rms="3.5597020387649536e-01" purity="8.3136039972305298e-01" nType="-99"/>
          <Node pos="r" depth="2" NCoef="0" IVar="-1" Cut="0.0000000000000000e+00" cType="1" res="4.0856068953871727e-03" rms="4.9581861495971680e-01" purity="4.9045184254646301e-01" nType="-99"/>
        </Node>
        <Node pos="r" depth="1" NCoef="0" IVar="0" Cut="-9.7801752090454102e+00" cType="1" res="-3.4365408122539520e-02" rms="4.7364234924316406e-01" purity="4.5526224374771118e-01" nType="0">
          <Node pos="l" depth="2" NCoef="0" IVar="-1" Cut="0.0000000000000000e+00" cType="1" res="-2.7305804193019867e-02" rms="4.4737157225608826e-01" purity="3.0359682440757751e-01" nType="-99"/>
          <Node pos="r" depth="2" NCoef="0" IVar="-1" Cut="0.0000000000000000e+00" cType="1" res="-9.4463356072083116e-04" rms="4.7762513160705566e-01" purity="5.0246989727020264e-01" nType="-99"/>
        </Node>
      </Node>
    </BinaryTree>
    <BinaryTree type="DecisionTree" boostWeight="1.0000000000000000e+00" itree="13">
      <Node pos="s" depth="0" NCoef="0" IVar="6" Cut="4.6854031085968018e-01" cType="1" res="1.2672348879277706e-02" rms="4.7306576371192932e-01" purity="5.1496893167495728e-01" nType="0">
        <Node pos="l" depth="1" NCoef="0" IVar="6" Cut="4.4548276066780090e-01" cType="1" res="-1.7198877036571503e-01" rms="4.2960354685783386e-01" purity="2.8056249022483826e-01" nType="0">
          <Node pos="l" depth="2" NCoef="0" IVar="-1" Cut="0.0000000000000000e+00" cType="1" res="-2.8635941445827484e-02" rms="4.2994225025177002e-01" purity="2.8991648554801941e-01" nType="-99"/>
          <Node pos="r" depth="2" NCoef="0" IVar="-1" Cut="0.0000000000000000e+00" cType="1" res="-5.7629324495792389e-02" rms="4.1101816296577454e-01" purity="2.5399202108383179e-01" nType="-99"/>
        </Node>
        <Node pos="r" depth="1" NCoef="0" IVar="4" Cut="9.2792648077011108e-01" cType="1" res="4.1107825934886932e-02" rms="4.7304645180702209e-01" purity="5.5106455087661743e-01" nType="0">
          <Node pos="l" depth="2" NCoef="0" IVar="-1" Cut="0.0000000000000000e+00" cType="1" res="1.3198322616517544e-02" rms="4.6948844194412231e-01" purity="5.7703214883804321e-01" nType="-99"/>
          <Node pos="r" depth="2" NCoef="0" IVar="-1" Cut="0.0000000000000000e+00" cType="1" res="-5.0749562680721283e-02" rms="4.2282637953758240e-01" purity="2.1250163018703461e-01" nType="-99"/>
        </Node>
      </Node>
    </BinaryTree>
    <BinaryTree type="DecisionTree" boostWeight="1.0000000000000000e+00" itree="14">
      <Node pos="s" depth="0" NCoef="0" IVar="3" Cut="7.4364608526229858e-01" cType="1" res="-1.4694390818476677e-02" rms="4.6803519129753113e-01" purity="4.9773058295249939e-01" nType="0">
        <Node pos="l" depth="1" NCoef="0" IVar="8" Cut="6.7489457130432129e-01" cType="1" res="2.0209603011608124e-02" rms="4.6709343791007996e-01" purity="5.3897708654403687e-01" nType="0">
          <Node pos="l" depth="2" NCoef="0" IVar="-1" Cut="0.0000000000000000e+00" cType="1" res="-4.2465557344257832e-03" rms="4.7585976123809814e-01" purity="4.7112008929252625e-01" nType="-99"/>
          <Node pos="r" depth="2" NCoef="0" IVar="-1" Cut="0.0000000000000000e+00" cType="1" res="3.3572532236576080e-02" rms="4.0876889228820801e-01" purity="7.6445943117141724e-01" nType="-99"/>
        </Node>
        <Node pos="r" depth="1" NCoef="0" IVar="4" Cut="6.1319839954376221e-01" cType="1" res="-1.4236044883728027e-01" rms="4.4891360402107239e-01" purity="3.4686580300331116e-01" nType="0">
          <Node pos="l" depth="2" NCoef="0" IVar="-1" Cut="0.0000000000000000e+00" cType="1" res="-1.8447376787662506e-02" rms="4.5904347300529480e-01" purity="4.3000364303588867e-01" nType="-99"/>
          <Node pos="r" depth="2" NCoef="0" IVar="-1" Cut="0.0000000000000000e+00" cType="1" res="-4.9917995929718018e-02" rms="4.1205456852912903e-01" purity="1.9508901238441467e-01" nType="-99"/>
        </Node>
      </Node>
    </BinaryTree>
    <BinaryTree type="DecisionTree" boostWeight="1.0000000000000000e+00" itree="15">
      <Node pos="s" depth="0" NCoef="0" IVar="3" Cut="7.4158048629760742e-01" cType="1" res="-7.2284066118299961e-03" rms="4.6727469563484192e-01" purity="4.9723139405250549e-01" nType="0">
        <Node pos="l" depth="1" NCoef="0" IVar="8" Cut="2.8493705391883850e-01" cType="1" res="2.3951387032866478e-02" rms="4.6812823414802551e-01" purity="5.3773820400238037e-01" nType="0">
          <Node pos="l" depth="2" NCoef="0" IVar="-1" Cut="0.0000000000000000e+00" cType="1" res="-3.8967866450548172e-02" rms="4.0495303273200989e-01" purity="2.1418346464633942e-01" nType="-99"/>
          <Node pos="r" depth="2" NCoef="0" IVar="-1" Cut="0.0000000000000000e+00" cType="1" res="1.1521246284246445e-02" rms="4.6907287836074829e-01" purity="5.8569055795669556e-01" nType="-99"/>
        </Node>
        <Node pos="r" depth="1" NCoef="0" IVar="7" Cut="3.9896555244922638e-02" cType="1" res="-1.3826967775821686e-01" rms="4.4015052914619446e-01" purity="3.2699093222618103e-01" nType="0">
          <Node pos="l" depth="2" NCoef="0" IVar="-1" Cut="0.0000000000000000e+00" cType="1" res="-6.6406307741999626e-03" rms="4.5421311259269714e-01" purity="5.1413100957870483e-01" nType="-99"/>
          <Node pos="r" depth="2" NCoef="0" IVar="-1" Cut="0.0000000000000000e+00" cType="1" res="-3.9977669715881348e-02" rms="4.2321994900703430e-01" purity="2.3455423116683960e-01" nType="-99"/>
        </Node>
      </Node>
    </BinaryTree>
    <BinaryTree type="DecisionTree" boostWeight="1.0000000000000000e+00" itree="16">
      <Node pos="s" depth="0" NCoef="0" IVar="2" Cut="2.4383921176195145e-02" cType="1" res="1.7660155892372131e-02" rms="4.6061849594116211e-01" purity="5.2684634923934937e-01" nType="0">
        <Node pos="l" depth="1" NCoef="0" IVar="6" Cut="4.6840524673461914e-01" cType="1" res="7.5800821185112000e-02" rms="4.5288315415382385e-01" purity="6.3719892501831055e-01" nType="0">
          <Node pos="l" depth="2" NCoef="0" IVar="-1" Cut="0.0000000000000000e+00" cType="1" res="-3.3757556229829788e-02" rms="4.3605077266693115e-01" purity="3.3029997348785400e-01" nType="-99"/>
          <Node pos="r" depth="2" NCoef="0" IVar="-1" Cut="0.0000000000000000e+00" cType="1" res="2.0444678142666817e-02" rms="4.4849473237991333e-01" purity="6.6364526748657227e-01" nType="-99"/>
        </Node>
        <Node pos="r" depth="1" NCoef="0" IVar="7" Cut="4.6148806810379028e-02" cType="1" res="-8.1687323749065399e-02" rms="4.5672503113746643e-01" purity="3.3828210830688477e-01" nType="0">
          <Node pos="l" depth="2" NCoef="0" IVar="-1" Cut="0.0000000000000000e+00" cType="1" res="-3.6085981875658035e-02" rms="4.2244333028793335e-01" purity="2.7538755536079407e-01" nType="-99"/>
          <Node pos="r" depth="2" NCoef="0" IVar="-1" Cut="0.0000000000000000e+00" cType="1" res="-2.8349719941616058e-03" rms="4.6920835971832275e-01" purity="3.8522312045097351e-01" nType="-99"/>
        </Node>
      </Node>
    </BinaryTree>
    <BinaryTree type="DecisionTree" boostWeight="1.0000000000000000e+00" itree="17">
      <Node pos="s" depth="0" NCoef="0" IVar="4" Cut="6.8775922060012817e-01" cType="1" res="-4.9961652606725693e-02" rms="4.7071698307991028e-01" purity="4.6535456180572510e-01" nType="0">
        <Node pos="l" depth="1" NCoef="0" IVar="6" Cut="5.0349819660186768e-01" cType="1" res="-1.5969738364219666e-02" rms="4.7087529301643372e-01" purity="5.3059178590774536e-01" nType="0">
          <Node pos="l" depth="2" NCoef="0" IVar="-1" Cut="0.0000000000000000e+00" cType="1" res="-2.8923317790031433e-02" rms="4.6253055334091187e-01" purity="3.3785521984100342e-01" nType="-99"/>
          <Node pos="r" depth="2" NCoef="0" IVar="-1" Cut="0.0000000000000000e+00" cType="1" res="5.0704968161880970e-03" rms="4.6688088774681091e-01" purity="5.9408450126647949e-01" nType="-99"/>
        </Node>
        <Node pos="r" depth="1" NCoef="0" IVar="4" Cut="7.2246789932250977e-01" cType="1" res="-1.2271130084991455e-01" rms="4.6204981207847595e-01" purity="3.2573366165161133e-01" nType="0">
          <Node pos="l" depth="2" NCoef="0" IVar="-1" Cut="0.0000000000000000e+00" cType="1" res="-6.8041697144508362e-02" rms="4.3178272247314453e-01" purity="2.0982256531715393e-01" nType="-99"/>
          <Node pos="r" depth="2" NCoef="0" IVar="-1" Cut="0.0000000000000000e+00" cType="1" res="-1.6045564785599709e-02" rms="4.5625820755958557e-01" purity="3.5257527232170105e-01" nType="-99"/>
        </Node>
      </Node>
    </BinaryTree>
    <BinaryTree type="DecisionTree" boostWeight="1.0000000000000000e+00" itree="18">
      <Node pos="s" depth="0" NCoef="0" IVar="2" Cut="2.4997096508741379e-02" cType="1" res="5.1965909078717232e-03" rms="4.7018188238143921e-01" purity="5.1570308208465576e-01" nType="0">
        <Node pos="l" depth="1" NCoef="0" IVar="0" Cut="1.2492442131042480e+01" cType="1" res="4.2612291872501373e-02" rms="4.6931159496307373e-01" purity="6.0783207416534424e-01" nType="0">
          <Node pos="l" depth="2" NCoef="0" IVar="-1" Cut="0.0000000000000000e+00" cType="1" res="1.5535242855548859e-02" rms="4.5893943309783936e-01" purity="6.3882607221603394e-01" nType="-99"/>
          <Node pos="r" depth="2" NCoef="0" IVar="-1" Cut="0.0000000000000000e+00" cType="1" res="-4.5753970742225647e-02" rms="4.7720095515251160e-01" purity="3.4230530261993408e-01" nType="-99"/>
        </Node>
        <Node pos="r" depth="1" NCoef="0" IVar="8" Cut="7.8274542093276978e-01" cType="1" res="-6.3265115022659302e-02" rms="4.6402427554130554e-01" purity="3.4712928533554077e-01" nType="0">
          <Node pos="l" depth="2" NCoef="0" IVar="-1" Cut="0.0000000000000000e+00" cType="1" res="-1.7101245000958443e-02" rms="4.5988810062408447e-01" purity="3.2907006144523621e-01" nType="-99"/>
          <Node pos="r" depth="2" NCoef="0" IVar="-1" Cut="0.0000000000000000e+00" cType="1" res="2.2061819210648537e-02" rms="4.7089505195617676e-01" purity="5.2441227436065674e-01" nType="-99"/>
        </Node>
      </Node>
    </BinaryTree>
    <BinaryTree type="DecisionTree" boostWeight="1.0000000000000000e+00" itree="19">
      <Node pos="s" depth="0" NCoef="0" IVar="7" Cut="1.4779442548751831e-01" cType="1" res="-8.0886716023087502e-03" rms="4.5774033665657043e-01" purity="4.9327054619789124e-01" nType="0">
        <Node pos="l" depth="1" NCoef="0" IVar="0" Cut="5.5108146667480469e+00" cType="1" res="1.3787933625280857e-02" rms="4.5956435799598694e-01" purity="5.2594232559204102e-01" nType="0">
          <Node pos="l" depth="2" NCoef="0" IVar="-1" Cut="0.0000000000000000e+00" cType="1" res="1.0874781757593155e-02" rms="4.5141980051994324e-01" purity="5.7128340005874634e-01" nType="-99"/>
          <Node pos="r" depth="2" NCoef="0" IVar="-1" Cut="0.0000000000000000e+00" cType="1" res="-1.7239954322576523e-02" rms="4.6673104166984558e-01" purity="4.0829348564147949e-01" nType="-99"/>
        </Node>
        <Node pos="r" depth="1" NCoef="0" IVar="7" Cut="1.6159696877002716e-01" cType="1" res="-2.0841030776500702e-01" rms="3.8690289855003357e-01" purity="1.9409854710102081e-01" nType="0">
          <Node pos="l" depth="2" NCoef="0" IVar="-1" Cut="0.0000000000000000e+00" cType="1" res="-5.7182181626558304e-02" rms="3.7484714388847351e-01" purity="1.5584211051464081e-01" nType="-99"/>
          <Node pos="r" depth="2" NCoef="0" IVar="-1" Cut="0.0000000000000000e+00" cType="1" res="-3.7249762564897537e-02" rms="3.8840460777282715e-01" purity="2.1385160088539124e-01" nType="-99"/>
        </Node>
      </Node>
    </BinaryTree>
    <BinaryTree type="DecisionTree" boostWeight="1.0000000000000000e+00" itree="20">
      <Node pos="s" depth="0" NCoef="0" IVar="4" Cut="9.1617339849472046e-01" cType="1" res="-3.3809106796979904e-02" rms="4.6297222375869751e-01" purity="4.6986603736877441e-01" nType="0">
        <Node pos="l" depth="1" NCoef="0" IVar="6" Cut="7.6215922832489014e-01" cType="1" res="-1.6353726387023926e-02" rms="4.6669238805770874e-01" purity="4.9680668115615845e-01" nType="0">
          <Node pos="l" depth="2" NCoef="0" IVar="-1" Cut="0.0000000000000000e+00" cType="1" res="-8.2772970199584961e-03" rms="4.6499663591384888e-01" purity="4.7927901148796082e-01" nType="-99"/>
          <Node pos="r" depth="2" NCoef="0" IVar="-1" Cut="0.0000000000000000e+00" cType="1" res="2.5166787207126617e-02" rms="4.5329862833023071e-01" purity="6.0668462514877319e-01" nType="-99"/>
        </Node>
        <Node pos="r" depth="1" NCoef="0" IVar="-1" Cut="0.0000000000000000e+00" cType="1" res="-5.2272498607635498e-02" rms="3.5585612058639526e-01" purity="1.4980962872505188e-01" nType="-99"/>
      </Node>
    </BinaryTree>
    <BinaryTree type="DecisionTree" boostWeight="1.0000000000000000e+00" itree="21">
      <Node pos="s" depth="0" NCoef="0" IVar="1" Cut="4.6824216842651367e-02" cType="1" res="7.1741528809070587e-03" rms="4.5794522762298584e-01" purity="5.1159226894378662e-01" nType="0">
        <Node pos="l" depth="1" NCoef="0" IVar="-1" Cut="0.0000000000000000e+00" cType="1" res="-3.8916837424039841e-02" rms="3.8648846745491028e-01" purity="1.8935915827751160e-01" nType="-99"/>
        <Node pos="r" depth="1" NCoef="0" IVar="6" Cut="5.0773513317108154e-01" cType="1" res="2.2774800658226013e-02" rms="4.6011751890182495e-01" purity="5.3888642787933350e-01" nType="0">
          <Node pos="l" depth="2" NCoef="0" IVar="-1" Cut="0.0000000000000000e+00" cType="1" res="-1.9229212775826454e-02" rms="4.4587954878807068e-01" purity="3.5705935955047607e-01" nType="-99"/>
          <Node pos="r" depth="2" NCoef="0" IVar="-1" Cut="0.0000000000000000e+00" cType="1" res="1.0737233795225620e-02" rms="4.5939642190933228e-01" purity="5.8377724885940552e-01" nType="-99"/>
        </Node>
      </Node>
    </BinaryTree>
    <BinaryTree type="DecisionTree" boostWeight="1.0000000000000000e+00" itree="22">
      <Node pos="s" depth="0" NCoef="0" IVar="1" Cut="2.9030802845954895e-01" cType="1" res="6.2080202624201775e-03" rms="4.6054702997207642e-01" purity="5.1293122768402100e-01" nType="0">
        <Node pos="l" depth="1" NCoef="0" IVar="6" Cut="7.2013330459594727e-01" cType="1" res="-3.7933148443698883e-02" rms="4.6545270085334778e-01" purity="4.1292688250541687e-01" nType="0">
          <Node pos="l" depth="2" NCoef="0" IVar="-1" Cut="0.0000000000000000e+00" cType="1" res="-2.2234341129660606e-02" rms="4.5848205685615540e-01" purity="3.2239958643913269e-01" nType="-99"/>
          <Node pos="r" depth="2" NCoef="0" IVar="-1" Cut="0.0000000000000000e+00" cType="1" res="1.2408096343278885e-02" rms="4.5899131894111633e-01" purity="5.4981809854507446e-01" nType="-99"/>
        </Node>
        <Node pos="r" depth="1" NCoef="0" IVar="8" Cut="4.1984456777572632e-01" cType="1" res="5.7056490331888199e-02" rms="4.4948920607566833e-01" purity="6.2813133001327515e-01" nType="0">
          <Node pos="l" depth="2" NCoef="0" IVar="-1" Cut="0.0000000000000000e+00" cType="1" res="-3.2392375171184540e-02" rms="3.9998698234558105e-01" purity="2.1500244736671448e-01" nType="-99"/>
          <Node pos="r" depth="2" NCoef="0" IVar="-1" Cut="0.0000000000000000e+00" cType="1" res="1.6204982995986938e-02" rms="4.4928684830665588e-01" purity="6.6214859485626221e-01" nType="-99"/>
        </Node>
      </Node>
    </BinaryTree>
    <BinaryTree type="DecisionTree" boostWeight="1.0000000000000000e+00" itree="23">
      <Node pos="s" depth="0" NCoef="0" IVar="0" Cut="4.3932697296142578e+01" cType="1" res="-4.2656613513827324e-03" rms="4.6034154295921326e-01" purity="5.0757575035095215e-01" nType="0">
        <Node pos="l" depth="1" NCoef="0" IVar="7" Cut="9.1934856027364731e-03" cType="1" res="8.3428025245666504e-03" rms="4.6060478687286377e-01" purity="5.2524268627166748e-01" nType="0">
          <Node pos="l" depth="2" NCoef="0" IVar="-1" Cut="0.0000000000000000e+00" cType="1" res="3.4560218453407288e-02" rms="3.8282147049903870e-01" purity="7.4711966514587402e-01" nType="-99"/>
          <Node pos="r" depth="2" NCoef="0" IVar="-1" Cut="0.0000000000000000e+00" cType="1" res="-2.0875004120171070e-03" rms="4.6595713496208191e-01" purity="4.9833402037620544e-01" nType="-99"/>
        </Node>
        <Node pos="r" depth="1" NCoef="0" IVar="-1" Cut="0.0000000000000000e+00" cType="1" res="-4.8970554023981094e-02" rms="3.9141723513603210e-01" purity="1.8964388966560364e-01" nType="-99"/>
      </Node>
    </BinaryTree>
    <BinaryTree type="DecisionTree" boostWeight="1.0000000000000000e+00" itree="24">
      <Node pos="s" depth="0" NCoef="0" IVar="7" Cut="1.3482034206390381e-01" cType="1" res="-8.8765528053045273e-03" rms="4.5995247364044189e-01" purity="5.0301861763000488e-01" nType="0">
        <Node pos="l" depth="1" NCoef="0" IVar="6" Cut="6.0713708400726318e-01" cType="1" res="6.6366512328386307e-03" rms="4.6200734376907349e-01" purity="5.3457963466644287e-01" nType="0">
          <Node pos="l" depth="2" NCoef="0" IVar="-1" Cut="0.0000000000000000e+00" cType="1" res="-9.0773887932300568e-03" rms="4.5652899146080017e-01" purity="4.7041624784469604e-01" nType="-99"/>
          <Node pos="r" depth="2" NCoef="0" IVar="-1" Cut="0.0000000000000000e+00" cType="1" res="1.1612098664045334e-02" rms="4.6244248747825623e-01" purity="5.9768342971801758e-01" nType="-99"/>
        </Node>
        <Node pos="r" depth="1" NCoef="0" IVar="5" Cut="8.3560585975646973e-01" cType="1" res="-1.4046572148799896e-01" rms="4.1967743635177612e-01" purity="2.3530504107475281e-01" nType="0">
          <Node pos="l" depth="2" NCoef="0" IVar="-1" Cut="0.0000000000000000e+00" cType="1" res="-1.2766522355377674e-02" rms="4.5326223969459534e-01" purity="3.0773666501045227e-01" nType="-99"/>
          <Node pos="r" depth="2" NCoef="0" IVar="-1" Cut="0.0000000000000000e+00" cType="1" res="-4.6715665608644485e-02" rms="3.7110853195190430e-01" purity="1.6968441009521484e-01" nType="-99"/>
        </Node>
      </Node>
    </BinaryTree>
    <BinaryTree type="DecisionTree" boostWeight="1.0000000000000000e+00" itree="25">
      <Node pos="s" depth="0" NCoef="0" IVar="8" Cut="2.7795001864433289e-01" cType="1" res="1.2109054252505302e-02" rms="4.5891606807708740e-01" purity="5.2041232585906982e-01" nType="0">
        <Node pos="l" depth="1" NCoef="0" IVar="-1" Cut="0.0000000000000000e+00" cType="1" res="-4.1011892259120941e-02" rms="3.8317847251892090e-01" purity="1.8255338072776794e-01" nType="-99"/>
        <Node pos="r" depth="1" NCoef="0" IVar="2" Cut="-2.5084115564823151e-02" cType="1" res="3.0203016474843025e-02" rms="4.6111485362052917e-01" purity="5.5163198709487915e-01" nType="0">
          <Node pos="l" depth="2" NCoef="0" IVar="-1" Cut="0.0000000000000000e+00" cType="1" res="-2.1942181512713432e-02" rms="4.8838335275650024e-01" purity="3.8418054580688477e-01" nType="-99"/>
          <Node pos="r" depth="2" NCoef="0" IVar="-1" Cut="0.0000000000000000e+00" cType="1" res="1.0368859395384789e-02" rms="4.5460617542266846e-01" purity="5.7287472486495972e-01" nType="-99"/>
        </Node>
      </Node>
    </BinaryTree>
    <BinaryTree type="DecisionTree" boostWeight="1.0000000000000000e+00" itree="26">
      <Node pos="s" depth="0" NCoef="0" IVar="7" Cut="9.2307822778820992e-03" cType="1" res="1.2173435243312269e-04" rms="4.6460330486297607e-01" purity="5.1441508531570435e-01" nType="0">
        <Node pos="l" depth="1" NCoef="0" IVar="7" Cut="4.7854953445494175e-03" cType="1" res="1.8943625688552856e-01" rms="3.4253302216529846e-01" purity="8.1322431564331055e-01" nType="0">
          <Node pos="l" depth="2" NCoef="0" IVar="-1" Cut="0.0000000000000000e+00" cType="1" res="3.1992860138416290e-02" rms="3.6946424841880798e-01" purity="7.4897623062133789e-01" nType="-99"/>
          <Node pos="r" depth="2" NCoef="0" IVar="-1" Cut="0.0000000000000000e+00" cType="1" res="5.6386392563581467e-02" rms="3.0094739794731140e-01" purity="8.8256001472473145e-01" nType="-99"/>
        </Node>
        <Node pos="r" depth="1" NCoef="0" IVar="3" Cut="4.4702586531639099e-01" cType="1" res="-2.0092902705073357e-02" rms="4.7131863236427307e-01" purity="4.8250877857208252e-01" nType="0">
          <Node pos="l" depth="2" NCoef="0" IVar="-1" Cut="0.0000000000000000e+00" cType="1" res="7.7021871693432331e-03" rms="4.7174394130706787e-01" purity="5.0334930419921875e-01" nType="-99"/>
          <Node pos="r" depth="2" NCoef="0" IVar="-1" Cut="0.0000000000000000e+00" cType="1" res="-1.2446176260709763e-02" rms="4.6738407015800476e-01" purity="4.6885818243026733e-01" nType="-99"/>
        </Node>
      </Node>
    </BinaryTree>
    <BinaryTree type="DecisionTree" boostWeight="1.0000000000000000e+00" itree="27">
      <Node pos="s" depth="0" NCoef="0" IVar="2" Cut="2.4997096508741379e-02" cType="1" res="8.9144986122846603e-03" rms="4.6851474046707153e-01" purity="5.2909034490585327e-01" nType="0">
        <Node pos="l" depth="1" NCoef="0" IVar="0" Cut="1.5712367057800293e+01" cType="1" res="4.0166452527046204e-02" rms="4.6322798728942871e-01" purity="6.1825245618820190e-01" nType="0">
          <Node pos="l" depth="2" NCoef="0" IVar="-1" Cut="0.0000000000000000e+00" cType="1" res="1.4154961332678795e-02" rms="4.5617270469665527e-01" purity="6.4795792102813721e-01" nType="-99"/>
          <Node pos="r" depth="2" NCoef="0" IVar="-1" Cut="0.0000000000000000e+00" cType="1" res="-4.3813552707433701e-02" rms="4.6122139692306519e-01" purity="3.2102933526039124e-01" nType="-99"/>
        </Node>
        <Node pos="r" depth="1" NCoef="0" IVar="2" Cut="2.6568728685379028e-01" cType="1" res="-5.0445381551980972e-02" rms="4.7274050116539001e-01" purity="3.5973599553108215e-01" nType="0">
          <Node pos="l" depth="2" NCoef="0" IVar="-1" Cut="0.0000000000000000e+00" cType="1" res="-1.9202211871743202e-02" rms="4.6479707956314087e-01" purity="3.4013283252716064e-01" nType="-99"/>
          <Node pos="r" depth="2" NCoef="0" IVar="-1" Cut="0.0000000000000000e+00" cType="1" res="1.7000829800963402e-02" rms="4.7511455416679382e-01" purity="4.1973379254341125e-01" nType="-99"/>
        </Node>
      </Node>
    </BinaryTree>
    <BinaryTree type="DecisionTree" boostWeight="1.0000000000000000e+00" itree="28">
      <Node pos="s" depth="0" NCoef="0" IVar="7" Cut="1.2318981811404228e-02" cType="1" res="-9.6286134794354439e-03" rms="4.5489090681076050e-01" purity="4.9531233310699463e-01" nType="0">
        <Node pos="l" depth="1" NCoef="0" IVar="7" Cut="3.3477921970188618e-03" cType="1" res="1.1492633074522018e-01" rms="3.9128875732421875e-01" purity="7.4453812837600708e-01" nType="0">
          <Node pos="l" depth="2" NCoef="0" IVar="-1" Cut="0.0000000000000000e+00" cType="1" res="-1.1934799142181873e-02" rms="4.4343292713165283e-01" purity="5.4453331232070923e-01" nType="-99"/>
          <Node pos="r" depth="2" NCoef="0" IVar="-1" Cut="0.0000000000000000e+00" cType="1" res="5.3547292947769165e-02" rms="3.0681228637695312e-01" purity="8.7565445899963379e-01" nType="-99"/>
        </Node>
        <Node pos="r" depth="1" NCoef="0" IVar="8" Cut="5.0574451684951782e-01" cType="1" res="-2.8484417125582695e-02" rms="4.6083512902259827e-01" purity="4.5758318901062012e-01" nType="0">
          <Node pos="l" depth="2" NCoef="0" IVar="-1" Cut="0.0000000000000000e+00" cType="1" res="-1.8588690087199211e-02" rms="4.6350648999214172e-01" purity="3.3533596992492676e-01" nType="-99"/>
          <Node pos="r" depth="2" NCoef="0" IVar="-1" Cut="0.0000000000000000e+00" cType="1" res="3.2249325886368752e-04" rms="4.5657572150230408e-01" purity="5.2167892456054688e-01" nType="-99"/>
        </Node>
      </Node>
    </BinaryTree>
    <BinaryTree type="DecisionTree" boostWeight="1.0000000000000000e+00" itree="29">
      <Node pos="s" depth="0" NCoef="0" IVar="8" Cut="6.8634766340255737e-01" cType="1" res="-9.6151325851678848e-03" rms="4.5205983519554138e-01" purity="4.9830266833305359e-01" nType="0">
        <Node pos="l" depth="1" NCoef="0" IVar="3" Cut="5.7133132219314575e-01" cType="1" res="-4.8578877002000809e-02" rms="4.6077540516853333e-01" purity="4.3497118353843689e-01" nType="0">
          <Node pos="l" depth="2" NCoef="0" IVar="-1" Cut="0.0000000000000000e+00" cType="1" res="-1.4629116049036384e-04" rms="4.6134158968925476e-01" purity="4.9067136645317078e-01" nType="-99"/>
          <Node pos="r" depth="2" NCoef="0" IVar="-1" Cut="0.0000000000000000e+00" cType="1" res="-3.8586314767599106e-02" rms="4.3389964103698730e-01" purity="2.8563699126243591e-01" nType="-99"/>
        </Node>
        <Node pos="r" depth="1" NCoef="0" IVar="0" Cut="5.8775515556335449e+00" cType="1" res="9.0100288391113281e-02" rms="4.1251552104949951e-01" purity="6.6037970781326294e-01" nType="0">
          <Node pos="l" depth="2" NCoef="0" IVar="-1" Cut="0.0000000000000000e+00" cType="1" res="3.4297809004783630e-02" rms="3.7223389744758606e-01" purity="7.5009787082672119e-01" nType="-99"/>
          <Node pos="r" depth="2" NCoef="0" IVar="-1" Cut="0.0000000000000000e+00" cType="1" res="-5.9244795702397823e-03" rms="4.6268633008003235e-01" purity="4.7741758823394775e-01" nType="-99"/>
        </Node>
      </Node>
    </BinaryTree>
    <BinaryTree type="DecisionTree" boostWeight="1.0000000000000000e+00" itree="30">
      <Node pos="s" depth="0" NCoef="0" IVar="8" Cut="5.1787835359573364e-01" cType="1" res="-1.9498594105243683e-02" rms="4.5653665065765381e-01" purity="4.8916554450988770e-01" nType="0">
        <Node pos="l" depth="1" NCoef="0" IVar="7" Cut="4.5932751148939133e-02" cType="1" res="-8.8509544730186462e-02" rms="4.4652014970779419e-01" purity="3.2331997156143188e-01" nType="0">
          <Node pos="l" depth="2" NCoef="0" IVar="-1" Cut="0.0000000000000000e+00" cType="1" res="-2.9427345842123032e-02" rms="4.4294050335884094e-01" purity="3.2086393237113953e-01" nType="-99"/>
          <Node pos="r" depth="2" NCoef="0" IVar="-1" Cut="0.0000000000000000e+00" cType="1" res="-9.6517419442534447e-03" rms="4.4491189718246460e-01" purity="3.2555368542671204e-01" nType="-99"/>
        </Node>
        <Node pos="r" depth="1" NCoef="0" IVar="3" Cut="1.4821045398712158e+00" cType="1" res="1.6091898083686829e-02" rms="4.5756730437278748e-01" purity="5.7469582557678223e-01" nType="0">
          <Node pos="l" depth="2" NCoef="0" IVar="-1" Cut="0.0000000000000000e+00" cType="1" res="6.7755528725683689e-03" rms="4.5804360508918762e-01" purity="6.0258108377456665e-01" nType="-99"/>
          <Node pos="r" depth="2" NCoef="0" IVar="-1" Cut="0.0000000000000000e+00" cType="1" res="-3.9462000131607056e-02" rms="4.0394100546836853e-01" purity="2.0236207544803619e-01" nType="-99"/>
        </Node>
      </Node>
    </BinaryTree>
    <BinaryTree type="DecisionTree" boostWeight="1.0000000000000000e+00" itree="31">
      <Node pos="s" depth="0" NCoef="0" IVar="7" Cut="6.4660780131816864e-02" cType="1" res="1.0405038483440876e-02" rms="4.4804689288139343e-01" purity="5.1868283748626709e-01" nType="0">
        <Node pos="l" depth="1" NCoef="0" IVar="0" Cut="-1.8287248611450195e+01" cType="1" res="5.2580345422029495e-02" rms="4.3913239240646362e-01" purity="6.2175655364990234e-01" nType="0">
          <Node pos="l" depth="2" NCoef="0" IVar="-1" Cut="0.0000000000000000e+00" cType="1" res="-2.1778455004096031e-02" rms="4.5295113325119019e-01" purity="3.6691576242446899e-01" nType="-99"/>
          <Node pos="r" depth="2" NCoef="0" IVar="-1" Cut="0.0000000000000000e+00" cType="1" res="1.9140142947435379e-02" rms="4.2942139506340027e-01" purity="6.7498648166656494e-01" nType="-99"/>
        </Node>
        <Node pos="r" depth="1" NCoef="0" IVar="6" Cut="7.1276509761810303e-01" cType="1" res="-6.1872351914644241e-02" rms="4.5390221476554871e-01" purity="3.4204170107841492e-01" nType="0">
          <Node pos="l" depth="2" NCoef="0" IVar="-1" Cut="0.0000000000000000e+00" cType="1" res="-2.3491989821195602e-02" rms="4.3617019057273865e-01" purity="2.8256216645240784e-01" nType="-99"/>
          <Node pos="r" depth="2" NCoef="0" IVar="-1" Cut="0.0000000000000000e+00" cType="1" res="1.0562230832874775e-02" rms="4.7826498746871948e-01" purity="4.9398529529571533e-01" nType="-99"/>
        </Node>
      </Node>
    </BinaryTree>
    <BinaryTree type="DecisionTree" boostWeight="1.0000000000000000e+00" itree="32">
      <Node pos="s" depth="0" NCoef="0" IVar="4" Cut="4.1233569383621216e-01" cType="1" res="-2.0881159231066704e-02" rms="4.6927252411842346e-01" purity="5.0208038091659546e-01" nType="0">
        <Node pos="l" depth="1" NCoef="0" IVar="7" Cut="1.2182124890387058e-02" cType="1" res="1.1508741229772568e-01" rms="4.1825440526008606e-01" purity="7.1348011493682861e-01" nType="0">
          <Node pos="l" depth="2" NCoef="0" IVar="-1" Cut="0.0000000000000000e+00" cType="1" res="-3.6831265315413475e-03" rms="4.0206593275070190e-01" purity="6.5624707937240601e-01" nType="-99"/>
          <Node pos="r" depth="2" NCoef="0" IVar="-1" Cut="0.0000000000000000e+00" cType="1" res="3.4586645662784576e-02" rms="4.1489413380622864e-01" purity="7.3145902156829834e-01" nType="-99"/>
        </Node>
        <Node pos="r" depth="1" NCoef="0" IVar="7" Cut="3.3842992037534714e-02" cType="1" res="-5.0198309123516083e-02" rms="4.7448298335075378e-01" purity="4.5649904012680054e-01" nType="0">
          <Node pos="l" depth="2" NCoef="0" IVar="-1" Cut="0.0000000000000000e+00" cType="1" res="-2.9448477551341057e-02" rms="4.8378536105155945e-01" purity="4.7098398208618164e-01" nType="-99"/>
          <Node pos="r" depth="2" NCoef="0" IVar="-1" Cut="0.0000000000000000e+00" cType="1" res="1.8180022016167641e-03" rms="4.5879709720611572e-01" purity="4.4584733247756958e-01" nType="-99"/>
        </Node>
      </Node>
    </BinaryTree>
    <BinaryTree type="DecisionTree" boostWeight="1.0000000000000000e+00" itree="33">
      <Node pos="s" depth="0" NCoef="0" IVar="6" Cut="6.9186335802078247e-01" cType="1" res="-1.9720634445548058e-03" rms="4.6436354517936707e-01" purity="5.1051568984985352e-01" nType="0">
        <Node pos="l" depth="1" NCoef="0" IVar="6" Cut="6.7499142885208130e-01" cType="1" res="-4.6602610498666763e-02" rms="4.6474727988243103e-01" purity="4.6930697560310364e-01" nType="0">
          <Node pos="l" depth="2" NCoef="0" IVar="-1" Cut="0.0000000000000000e+00" cType="1" res="-7.7202594839036465e-03" rms="4.6386444568634033e-01" purity="4.8027801513671875e-01" nType="-99"/>
          <Node pos="r" depth="2" NCoef="0" IVar="-1" Cut="0.0000000000000000e+00" cType="1" res="-4.2878728359937668e-02" rms="4.4924542307853699e-01" purity="3.4077796339988708e-01" nType="-99"/>
        </Node>
        <Node pos="r" depth="1" NCoef="0" IVar="3" Cut="2.4722026288509369e-01" cType="1" res="9.3205600976943970e-02" rms="4.4896164536476135e-01" purity="5.9839612245559692e-01" nType="0">
          <Node pos="l" depth="2" NCoef="0" IVar="-1" Cut="0.0000000000000000e+00" cType="1" res="1.5992877888493240e-04" rms="4.6724435687065125e-01" purity="4.3973624706268311e-01" nType="-99"/>
          <Node pos="r" depth="2" NCoef="0" IVar="-1" Cut="0.0000000000000000e+00" cType="1" res="3.3564560115337372e-02" rms="4.2454221844673157e-01" purity="7.0703297853469849e-01" nType="-99"/>
        </Node>
      </Node>
    </BinaryTree>
    <BinaryTree type="DecisionTree" boostWeight="1.0000000000000000e+00" itree="34">
      <Node pos="s" depth="0" NCoef="0" IVar="1" Cut="4.6769209206104279e-02" cType="1" res="-2.7815951034426689e-02" rms="4.4952365756034851e-01" purity="4.7904986143112183e-01" nType="0">
        <Node pos="l" depth="1" NCoef="0" IVar="-1" Cut="0.0000000000000000e+00" cType="1" res="-4.5330535620450974e-02" rms="3.6791694164276123e-01" purity="1.5815576910972595e-01" nType="-99"/>
        <Node pos="r" depth="1" NCoef="0" IVar="6" Cut="6.1677873134613037e-01" cType="1" res="-1.2290390208363533e-02" rms="4.5329609513282776e-01" purity="5.0901126861572266e-01" nType="0">
          <Node pos="l" depth="2" NCoef="0" IVar="-1" Cut="0.0000000000000000e+00" cType="1" res="-1.5025936067104340e-02" rms="4.4943788647651672e-01" purity="4.2984572052955627e-01" nType="-99"/>
          <Node pos="r" depth="2" NCoef="0" IVar="-1" Cut="0.0000000000000000e+00" cType="1" res="1.1417780071496964e-02" rms="4.4918552041053772e-01" purity="6.0201269388198853e-01" nType="-99"/>
        </Node>
      </Node>
    </BinaryTree>
    <BinaryTree type="DecisionTree" boostWeight="1.0000000000000000e+00" itree="35">
      <Node pos="s" depth="0" NCoef="0" IVar="6" Cut="6.8961119651794434e-01" cType="1" res="-7.6524079777300358e-03" rms="4.5175451040267944e-01" purity="4.9799737334251404e-01" nType="0">
        <Node pos="l" depth="1" NCoef="0" IVar="1" Cut="2.5720158219337463e-01" cType="1" res="-3.7621434777975082e-02" rms="4.5067694783210754e-01" purity="4.6112895011901855e-01" nType="0">
          <Node pos="l" depth="2" NCoef="0" IVar="-1" Cut="0.0000000000000000e+00" cType="1" res="-2.6569897308945656e-02" rms="4.3890288472175598e-01" purity="2.6403629779815674e-01" nType="-99"/>
          <Node pos="r" depth="2" NCoef="0" IVar="-1" Cut="0.0000000000000000e+00" cType="1" res="5.1851227181032300e-04" rms="4.5124581456184387e-01" purity="5.6036150455474854e-01" nType="-99"/>
        </Node>
        <Node pos="r" depth="1" NCoef="0" IVar="1" Cut="7.4905186891555786e-02" cType="1" res="6.3572138547897339e-02" rms="4.4630235433578491e-01" purity="5.8561903238296509e-01" nType="0">
          <Node pos="l" depth="2" NCoef="0" IVar="-1" Cut="0.0000000000000000e+00" cType="1" res="-2.0177878439426422e-02" rms="4.5108112692832947e-01" purity="3.2739064097404480e-01" nType="-99"/>
          <Node pos="r" depth="2" NCoef="0" IVar="-1" Cut="0.0000000000000000e+00" cType="1" res="2.4724736809730530e-02" rms="4.3249967694282532e-01" purity="6.6970545053482056e-01" nType="-99"/>
        </Node>
      </Node>
    </BinaryTree>
    <BinaryTree type="DecisionTree" boostWeight="1.0000000000000000e+00" itree="36">
      <Node pos="s" depth="0" NCoef="0" IVar="4" Cut="5.5624777078628540e-01" cType="1" res="-3.3318633213639259e-03" rms="4.5489019155502319e-01" purity="5.0002610683441162e-01" nType="0">
        <Node pos="l" depth="1" NCoef="0" IVar="3" Cut="1.0234590768814087e+00" cType="1" res="6.3980437815189362e-02" rms="4.2674574255943298e-01" purity="6.3252198696136475e-01" nType="0">
          <Node pos="l" depth="2" NCoef="0" IVar="-1" Cut="0.0000000000000000e+00" cType="1" res="2.2965304553508759e-02" rms="4.1404178738594055e-01" purity="6.9047951698303223e-01" nType="-99"/>
          <Node pos="r" depth="2" NCoef="0" IVar="-1" Cut="0.0000000000000000e+00" cType="1" res="-3.7922095507383347e-02" rms="4.2936748266220093e-01" purity="2.5106787681579590e-01" nType="-99"/>
        </Node>
        <Node pos="r" depth="1" NCoef="0" IVar="1" Cut="2.6400333642959595e-01" cType="1" res="-5.8780040591955185e-02" rms="4.6963596343994141e-01" purity="3.9088320732116699e-01" nType="0">
          <Node pos="l" depth="2" NCoef="0" IVar="-1" Cut="0.0000000000000000e+00" cType="1" res="-8.3047486841678619e-03" rms="4.6416696906089783e-01" purity="3.9888259768486023e-01" nType="-99"/>
          <Node pos="r" depth="2" NCoef="0" IVar="-1" Cut="0.0000000000000000e+00" cType="1" res="-5.1377017050981522e-02" rms="4.7846320271492004e-01" purity="3.2592436671257019e-01" nType="-99"/>
        </Node>
      </Node>
    </BinaryTree>
    <BinaryTree type="DecisionTree" boostWeight="1.0000000000000000e+00" itree="37">
      <Node pos="s" depth="0" NCoef="0" IVar="4" Cut="5.5566722154617310e-01" cType="1" res="-2.6726828888058662e-02" rms="4.4313555955886841e-01" purity="4.7753784060478210e-01" nType="0">
        <Node pos="l" depth="1" NCoef="0" IVar="6" Cut="5.9264343976974487e-01" cType="1" res="1.4065725728869438e-02" rms="4.3801963329315186e-01" purity="5.9675437211990356e-01" nType="0">
          <Node pos="l" depth="2" NCoef="0" IVar="-1" Cut="0.0000000000000000e+00" cType="1" res="-1.2005139142274857e-02" rms="4.5742845535278320e-01" purity="4.9613937735557556e-01" nType="-99"/>
          <Node pos="r" depth="2" NCoef="0" IVar="-1" Cut="0.0000000000000000e+00" cType="1" res="3.0375756323337555e-02" rms="3.7525123357772827e-01" purity="7.6919716596603394e-01" nType="-99"/>
        </Node>
        <Node pos="r" depth="1" NCoef="0" IVar="8" Cut="6.0803502798080444e-01" cType="1" res="-6.3319191336631775e-02" rms="4.4450107216835022e-01" purity="3.7059637904167175e-01" nType="0">
          <Node pos="l" depth="2" NCoef="0" IVar="-1" Cut="0.0000000000000000e+00" cType="1" res="-5.0357379950582981e-03" rms="4.4634664058685303e-01" purity="4.0868857502937317e-01" nType="-99"/>
          <Node pos="r" depth="2" NCoef="0" IVar="-1" Cut="0.0000000000000000e+00" cType="1" res="-3.7663146853446960e-02" rms="4.2113155126571655e-01" purity="2.6980397105216980e-01" nType="-99"/>
        </Node>
      </Node>
    </BinaryTree>
    <BinaryTree type="DecisionTree" boostWeight="1.0000000000000000e+00" itree="38">
      <Node pos="s" depth="0" NCoef="0" IVar="1" Cut="5.1304721832275391e-01" cType="1" res="-8.4298528963699937e-04" rms="4.5459046959877014e-01" purity="5.0052857398986816e-01" nType="0">
        <Node pos="l" depth="1" NCoef="0" IVar="6" Cut="8.0383765697479248e-01" cType="1" res="-1.1905566789209843e-02" rms="4.5667177438735962e-01" purity="4.8110312223434448e-01" nType="0">
          <Node pos="l" depth="2" NCoef="0" IVar="-1" Cut="0.0000000000000000e+00" cType="1" res="-6.2446999363601208e-03" rms="4.5626530051231384e-01" purity="4.6905842423439026e-01" nType="-99"/>
          <Node pos="r" depth="2" NCoef="0" IVar="-1" Cut="0.0000000000000000e+00" cType="1" res="2.1110249683260918e-02" rms="4.4417154788970947e-01" purity="5.6595772504806519e-01" nType="-99"/>
        </Node>
        <Node pos="r" depth="1" NCoef="0" IVar="4" Cut="2.7476522326469421e-01" cType="1" res="1.4481849968433380e-01" rms="3.9856114983558655e-01" purity="7.5630402565002441e-01" nType="0">
          <Node pos="l" depth="2" NCoef="0" IVar="-1" Cut="0.0000000000000000e+00" cType="1" res="5.6093572638928890e-03" rms="4.6464842557907104e-01" purity="6.0891383886337280e-01" nType="-99"/>
          <Node pos="r" depth="2" NCoef="0" IVar="-1" Cut="0.0000000000000000e+00" cType="1" res="5.6753806769847870e-02" rms="3.0240079760551453e-01" purity="8.7619465589523315e-01" nType="-99"/>
        </Node>
      </Node>
    </BinaryTree>
    <BinaryTree type="DecisionTree" boostWeight="1.0000000000000000e+00" itree="39">
      <Node pos="s" depth="0" NCoef="0" IVar="7" Cut="1.3143017888069153e-01" cType="1" res="-1.4316487126052380e-02" rms="4.5609772205352783e-01" purity="4.9296656250953674e-01" nType="0">
        <Node pos="l" depth="1" NCoef="0" IVar="5" Cut="9.2943805456161499e-01" cType="1" res="5.0613149069249630e-03" rms="4.5900061726570129e-01" purity="5.2899295091629028e-01" nType="0">
          <Node pos="l" depth="2" NCoef="0" IVar="-1" Cut="0.0000000000000000e+00" cType="1" res="1.6947928816080093e-02" rms="4.5588254928588867e-01" purity="5.6247454881668091e-01" nType="-99"/>
          <Node pos="r" depth="2" NCoef="0" IVar="-1" Cut="0.0000000000000000e+00" cType="1" res="-1.2924695387482643e-02" rms="4.5276069641113281e-01" purity="5.0074052810668945e-01" nType="-99"/>
        </Node>
        <Node pos="r" depth="1" NCoef="0" IVar="7" Cut="1.4435227215290070e-01" cType="1" res="-1.7154312133789062e-01" rms="3.9837718009948730e-01" purity="2.0065762102603912e-01" nType="0">
          <Node pos="l" depth="2" NCoef="0" IVar="-1" Cut="0.0000000000000000e+00" cType="1" res="-6.6055513918399811e-02" rms="3.1859010457992554e-01" purity="1.0114791244268417e-01" nType="-99"/>
          <Node pos="r" depth="2" NCoef="0" IVar="-1" Cut="0.0000000000000000e+00" cType="1" res="-2.7587253600358963e-02" rms="4.1679704189300537e-01" purity="2.4144397675991058e-01" nType="-99"/>
        </Node>
      </Node>
    </BinaryTree>
    <BinaryTree type="DecisionTree" boostWeight="1.0000000000000000e+00" itree="40">
      <Node pos="s" depth="0" NCoef="0" IVar="6" Cut="4.9554544687271118e-01" cType="1" res="4.2470078915357590e-03" rms="4.4624248147010803e-01" purity="5.1513463258743286e-01" nType="0">
        <Node pos="l" depth="1" NCoef="0" IVar="4" Cut="4.1932597756385803e-01" cType="1" res="-8.9572787284851074e-02" rms="4.2337340116500854e-01" purity="3.1673628091812134e-01" nType="0">
          <Node pos="l" depth="2" NCoef="0" IVar="-1" Cut="0.0000000000000000e+00" cType="1" res="7.5398678891360760e-03" rms="4.7411841154098511e-01" purity="5.5438637733459473e-01" nType="-99"/>
          <Node pos="r" depth="2" NCoef="0" IVar="-1" Cut="0.0000000000000000e+00" cType="1" res="-3.9527617394924164e-02" rms="3.6869010329246521e-01" purity="1.7074225842952728e-01" nType="-99"/>
        </Node>
        <Node pos="r" depth="1" NCoef="0" IVar="2" Cut="2.3761576041579247e-02" cType="1" res="2.5285411626100540e-02" rms="4.4852593541145325e-01" purity="5.5962401628494263e-01" nType="0">
          <Node pos="l" depth="2" NCoef="0" IVar="-1" Cut="0.0000000000000000e+00" cType="1" res="1.4754095114767551e-02" rms="4.3188461661338806e-01" purity="6.6099923849105835e-01" nType="-99"/>
          <Node pos="r" depth="2" NCoef="0" IVar="-1" Cut="0.0000000000000000e+00" cType="1" res="-1.2274554930627346e-02" rms="4.7008138895034790e-01" purity="3.5462918877601624e-01" nType="-99"/>
        </Node>
      </Node>
    </BinaryTree>
    <BinaryTree type="DecisionTree" boostWeight="1.0000000000000000e+00" itree="41">
      <Node pos="s" depth="0" NCoef="0" IVar="4" Cut="5.5716443061828613e-01" cType="1" res="8.7041221559047699e-03" rms="4.4026196002960205e-01" purity="5.1373046636581421e-01" nType="0">
        <Node pos="l" depth="1" NCoef="0" IVar="8" Cut="5.4310065507888794e-01" cType="1" res="5.9106878936290741e-02" rms="4.1612869501113892e-01" purity="6.4134079217910767e-01" nType="0">
          <Node pos="l" depth="2" NCoef="0" IVar="-1" Cut="0.0000000000000000e+00" cType="1" res="-1.8252259120345116e-02" rms="4.5109075307846069e-01" purity="3.2734742760658264e-01" nType="-99"/>
          <Node pos="r" depth="2" NCoef="0" IVar="-1" Cut="0.0000000000000000e+00" cType="1" res="1.9370343536138535e-02" rms="4.0491226315498352e-01" purity="6.9477045536041260e-01" nType="-99"/>
        </Node>
        <Node pos="r" depth="1" NCoef="0" IVar="7" Cut="4.0028776973485947e-02" cType="1" res="-3.6718454211950302e-02" rms="4.5618349313735962e-01" purity="3.9872899651527405e-01" nType="0">
          <Node pos="l" depth="2" NCoef="0" IVar="-1" Cut="0.0000000000000000e+00" cType="1" res="-2.0880453288555145e-02" rms="4.5523577928543091e-01" purity="4.0858778357505798e-01" nType="-99"/>
          <Node pos="r" depth="2" NCoef="0" IVar="-1" Cut="0.0000000000000000e+00" cType="1" res="1.5556365251541138e-03" rms="4.5202022790908813e-01" purity="3.9131787419319153e-01" nType="-99"/>
        </Node>
      </Node>
    </BinaryTree>
    <BinaryTree type="DecisionTree" boostWeight="1.0000000000000000e+00" itree="42">
      <Node pos="s" depth="0" NCoef="0" IVar="4" Cut="8.4434616565704346e-01" cType="1" res="-2.9114054515957832e-02" rms="4.5574876666069031e-01" purity="4.7551971673965454e-01" nType="0">
        <Node pos="l" depth="1" NCoef="0" IVar="7" Cut="5.4862447082996368e-02" cType="1" res="-1.6638049855828285e-02" rms="4.5959684252738953e-01" purity="5.1045763492584229e-01" nType="0">
          <Node pos="l" depth="2" NCoef="0" IVar="-1" Cut="0.0000000000000000e+00" cType="1" res="-1.0804011486470699e-02" rms="4.4647303223609924e-01" purity="5.3020727634429932e-01" nType="-99"/>
          <Node pos="r" depth="2" NCoef="0" IVar="-1" Cut="0.0000000000000000e+00" cType="1" res="8.3311712369322777e-03" rms="4.7733783721923828e-01" purity="4.7513443231582642e-01" nType="-99"/>
        </Node>
        <Node pos="r" depth="1" NCoef="0" IVar="6" Cut="7.5025856494903564e-01" cType="1" res="-1.0645439475774765e-01" rms="4.2299544811248779e-01" purity="2.5893506407737732e-01" nType="0">
          <Node pos="l" depth="2" NCoef="0" IVar="-1" Cut="0.0000000000000000e+00" cType="1" res="-1.0318434797227383e-02" rms="3.9104640483856201e-01" purity="2.3448149859905243e-01" nType="-99"/>
          <Node pos="r" depth="2" NCoef="0" IVar="-1" Cut="0.0000000000000000e+00" cType="1" res="-3.2297790050506592e-02" rms="4.3674656748771667e-01" purity="2.7448919415473938e-01" nType="-99"/>
        </Node>
      </Node>
    </BinaryTree>
    <BinaryTree type="DecisionTree" boostWeight="1.0000000000000000e+00" itree="43">
      <Node pos="s" depth="0" NCoef="0" IVar="8" Cut="6.7555642127990723e-01" cType="1" res="-8.1345969811081886e-03" rms="4.5808973908424377e-01" purity="4.9674448370933533e-01" nType="0">
        <Node pos="l" depth="1" NCoef="0" IVar="7" Cut="9.1937007382512093e-03" cType="1" res="-3.0531907454133034e-02" rms="4.6233215928077698e-01" purity="4.3533581495285034e-01" nType="0">
          <Node pos="l" depth="2" NCoef="0" IVar="-1" Cut="0.0000000000000000e+00" cType="1" res="4.5657295733690262e-02" rms="3.6762654781341553e-01" purity="8.1296348571777344e-01" nType="-99"/>
          <Node pos="r" depth="2" NCoef="0" IVar="-1" Cut="0.0000000000000000e+00" cType="1" res="-1.0778745636343956e-02" rms="4.6423214673995972e-01" purity="4.0579679608345032e-01" nType="-99"/>
        </Node>
        <Node pos="r" depth="1" NCoef="0" IVar="8" Cut="7.7609562873840332e-01" cType="1" res="3.7002917379140854e-02" rms="4.4601389765739441e-01" purity="6.2050193548202515e-01" nType="0">
          <Node pos="l" depth="2" NCoef="0" IVar="-1" Cut="0.0000000000000000e+00" cType="1" res="2.1631287410855293e-02" rms="4.2774862051010132e-01" purity="6.9658124446868896e-01" nType="-99"/>
          <Node pos="r" depth="2" NCoef="0" IVar="-1" Cut="0.0000000000000000e+00" cType="1" res="-1.1395330540835857e-02" rms="4.6070528030395508e-01" purity="5.0116050243377686e-01" nType="-99"/>
        </Node>
      </Node>
    </BinaryTree>
    <BinaryTree type="DecisionTree" boostWeight="1.0000000000000000e+00" itree="44">
      <Node pos="s" depth="0" NCoef="0" IVar="6" Cut="4.9744659662246704e-01" cType="1" res="5.9872386045753956e-03" rms="4.4541016221046448e-01" purity="5.0745624303817749e-01" nType="0">
        <Node pos="l" depth="1" NCoef="0" IVar="7" Cut="3.9590451866388321e-02" cType="1" res="-8.1268966197967529e-02" rms="4.2097076773643494e-01" purity="3.0500230193138123e-01" nType="0">
          <Node pos="l" depth="2" NCoef="0" IVar="-1" Cut="0.0000000000000000e+00" cType="1" res="4.6550738625228405e-03" rms="4.4262185692787170e-01" purity="4.5786786079406738e-01" nType="-99"/>
          <Node pos="r" depth="2" NCoef="0" IVar="-1" Cut="0.0000000000000000e+00" cType="1" res="-4.1881404817104340e-02" rms="3.7612059712409973e-01" purity="1.6340059041976929e-01" nType="-99"/>
        </Node>
        <Node pos="r" depth="1" NCoef="0" IVar="4" Cut="6.9976758956909180e-01" cType="1" res="2.5045890361070633e-02" rms="4.4831776618957520e-01" purity="5.5167663097381592e-01" nType="0">
          <Node pos="l" depth="2" NCoef="0" IVar="-1" Cut="0.0000000000000000e+00" cType="1" res="1.2687260285019875e-02" rms="4.3743896484375000e-01" purity="6.3994795083999634e-01" nType="-99"/>
          <Node pos="r" depth="2" NCoef="0" IVar="-1" Cut="0.0000000000000000e+00" cType="1" res="-7.5402162037789822e-03" rms="4.6307319402694702e-01" purity="3.8058802485466003e-01" nType="-99"/>
        </Node>
      </Node>
    </BinaryTree>
    <BinaryTree type="DecisionTree" boostWeight="1.0000000000000000e+00" itree="45">
      <Node pos="s" depth="0" NCoef="0" IVar="0" Cut="5.5108146667480469e+00" cType="1" res="1.2308643199503422e-02" rms="4.4436776638031006e-01" purity="5.1979863643646240e-01" nType="0">
        <Node pos="l" depth="1" NCoef="0" IVar="2" Cut="1.4920240640640259e-01" cType="1" res="4.8068821430206299e-02" rms="4.3670007586479187e-01" purity="5.6808638572692871e-01" nType="0">
          <Node pos="l" depth="2" NCoef="0" IVar="-1" Cut="0.0000000000000000e+00" cType="1" res="1.5163509175181389e-02" rms="4.3703091144561768e-01" purity="6.2279111146926880e-01" nType="-99"/>
          <Node pos="r" depth="2" NCoef="0" IVar="-1" Cut="0.0000000000000000e+00" cType="1" res="-1.0476275347173214e-02" rms="4.2349153757095337e-01" purity="2.8438043594360352e-01" nType="-99"/>
        </Node>
        <Node pos="r" depth="1" NCoef="0" IVar="8" Cut="5.1305490732192993e-01" cType="1" res="-7.9412393271923065e-02" rms="4.5066374540328979e-01" purity="3.9594593644142151e-01" nType="0">
          <Node pos="l" depth="2" NCoef="0" IVar="-1" Cut="0.0000000000000000e+00" cType="1" res="-4.1467800736427307e-02" rms="4.0307265520095825e-01" purity="1.9071528315544128e-01" nType="-99"/>
          <Node pos="r" depth="2" NCoef="0" IVar="-1" Cut="0.0000000000000000e+00" cType="1" res="-4.9745514988899231e-03" rms="4.6509081125259399e-01" purity="5.0988060235977173e-01" nType="-99"/>
        </Node>
      </Node>
    </BinaryTree>
    <BinaryTree type="DecisionTree" boostWeight="1.0000000000000000e+00" itree="46">
      <Node pos="s" depth="0" NCoef="0" IVar="1" Cut="5.4227715730667114e-01" cType="1" res="-2.3400986101478338e-03" rms="4.4655978679656982e-01" purity="4.9856048822402954e-01" nType="0">
        <Node pos="l" depth="1" NCoef="0" IVar="6" Cut="4.6640896797180176e-01" cType="1" res="-9.3876086175441742e-03" rms="4.4786059856414795e-01" purity="4.8749649524688721e-01" nType="0">
          <Node pos="l" depth="2" NCoef="0" IVar="-1" Cut="0.0000000000000000e+00" cType="1" res="-2.7858365327119827e-02" rms="3.8161787390708923e-01" purity="1.9809727370738983e-01" nType="-99"/>
          <Node pos="r" depth="2" NCoef="0" IVar="-1" Cut="0.0000000000000000e+00" cType="1" res="7.8525941353291273e-04" rms="4.5418322086334229e-01" purity="5.2507823705673218e-01" nType="-99"/>
        </Node>
        <Node pos="r" depth="1" NCoef="0" IVar="-1" Cut="0.0000000000000000e+00" cType="1" res="3.6707565188407898e-02" rms="3.8144361972808838e-01" purity="7.5220865011215210e-01" nType="-99"/>
      </Node>
    </BinaryTree>
    <BinaryTree type="DecisionTree" boostWeight="1.0000000000000000e+00" itree="47">
      <Node pos="s" depth="0" NCoef="0" IVar="6" Cut="7.0189291238784790e-01" cType="1" res="-1.3190136291086674e-02" rms="4.5400008559226990e-01" purity="4.9936917424201965e-01" nType="0">
        <Node pos="l" depth="1" NCoef="0" IVar="8" Cut="7.3596084117889404e-01" cType="1" res="-4.3940734118223190e-02" rms="4.5384684205055237e-01" purity="4.6360704302787781e-01" nType="0">
          <Node pos="l" depth="2" NCoef="0" IVar="-1" Cut="0.0000000000000000e+00" cType="1" res="-1.6054389998316765e-02" rms="4.5809581875801086e-01" purity="4.1159290075302124e-01" nType="-99"/>
          <Node pos="r" depth="2" NCoef="0" IVar="-1" Cut="0.0000000000000000e+00" cType="1" res="5.7793962769210339e-03" rms="4.3485152721405029e-01" purity="6.0559916496276855e-01" nType="-99"/>
        </Node>
        <Node pos="r" depth="1" NCoef="0" IVar="5" Cut="4.5250654220581055e-01" cType="1" res="7.8980930149555206e-02" rms="4.4181820750236511e-01" purity="6.0656172037124634e-01" nType="0">
          <Node pos="l" depth="2" NCoef="0" IVar="-1" Cut="0.0000000000000000e+00" cType="1" res="-3.6719355266541243e-03" rms="4.7028121352195740e-01" purity="4.4198822975158691e-01" nType="-99"/>
          <Node pos="r" depth="2" NCoef="0" IVar="-1" Cut="0.0000000000000000e+00" cType="1" res="4.7398898750543594e-02" rms="3.6316469311714172e-01" purity="8.2567495107650757e-01" nType="-99"/>
        </Node>
      </Node>
    </BinaryTree>
    <BinaryTree type="DecisionTree" boostWeight="1.0000000000000000e+00" itree="48">
      <Node pos="s" depth="0" NCoef="0" IVar="6" Cut="6.2820261716842651e-01" cType="1" res="1.3332354836165905e-02" rms="4.4157922267913818e-01" purity="5.1210439205169678e-01" nType="0">
        <Node pos="l" depth="1" NCoef="0" IVar="8" Cut="3.5010740160942078e-01" cType="1" res="-3.1118443235754967e-02" rms="4.4710621237754822e-01" purity="4.4510555267333984e-01" nType="0">
          <Node pos="l" depth="2" NCoef="0" IVar="-1" Cut="0.0000000000000000e+00" cType="1" res="6.1010021716356277e-02" rms="4.7767466306686401e-01" purity="4.4890436530113220e-01" nType="-99"/>
          <Node pos="r" depth="2" NCoef="0" IVar="-1" Cut="0.0000000000000000e+00" cType="1" res="-1.1367003433406353e-02" rms="4.3994459509849548e-01" purity="4.4484016299247742e-01" nType="-99"/>
        </Node>
        <Node pos="r" depth="1" NCoef="0" IVar="8" Cut="4.0317645668983459e-01" cType="1" res="5.8606043457984924e-02" rms="4.3119296431541443e-01" purity="5.8034348487854004e-01" nType="0">
          <Node pos="l" depth="2" NCoef="0" IVar="-1" Cut="0.0000000000000000e+00" cType="1" res="-1.4948124065995216e-02" rms="4.3762585520744324e-01" purity="3.3197799324989319e-01" nType="-99"/>
          <Node pos="r" depth="2" NCoef="0" IVar="-1" Cut="0.0000000000000000e+00" cType="1" res="2.4554880335927010e-02" rms="4.1844397783279419e-01" purity="6.7746955156326294e-01" nType="-99"/>
        </Node>
      </Node>
    </BinaryTree>
    <BinaryTree type="DecisionTree" boostWeight="1.0000000000000000e+00" itree="49">
      <Node pos="s" depth="0" NCoef="0" IVar="2" Cut="-2.5199752300977707e-02" cType="1" res="4.8807580024003983e-03" rms="4.4430309534072876e-01" purity="5.0551998615264893e-01" nType="0">
        <Node pos="l" depth="1" NCoef="0" IVar="7" Cut="7.6412402093410492e-02" cType="1" res="-1.0055816173553467e-01" rms="4.3296122550964355e-01" purity="3.1961989402770996e-01" nType="0">
          <Node pos="l" depth="2" NCoef="0" IVar="-1" Cut="0.0000000000000000e+00" cType="1" res="7.8020091168582439e-03" rms="4.2989000678062439e-01" purity="4.6239516139030457e-01" nType="-99"/>
          <Node pos="r" depth="2" NCoef="0" IVar="-1" Cut="0.0000000000000000e+00" cType="1" res="-4.4306349009275436e-02" rms="4.0787470340728760e-01" purity="2.1549025177955627e-01" nType="-99"/>
        </Node>
        <Node pos="r" depth="1" NCoef="0" IVar="6" Cut="7.7361148595809937e-01" cType="1" res="1.9820962101221085e-02" rms="4.4386553764343262e-01" purity="5.3186124563217163e-01" nType="0">
          <Node pos="l" depth="2" NCoef="0" IVar="-1" Cut="0.0000000000000000e+00" cType="1" res="3.6522201844491065e-04" rms="4.4462439417839050e-01" purity="5.1204824447631836e-01" nType="-99"/>
          <Node pos="r" depth="2" NCoef="0" IVar="-1" Cut="0.0000000000000000e+00" cType="1" res="2.6581039652228355e-02" rms="4.2570379376411438e-01" purity="6.4138549566268921e-01" nType="-99"/>
        </Node>
      </Node>
    </BinaryTree>
    <BinaryTree type="DecisionTree" boostWeight="1.0000000000000000e+00" itree="50">
      <Node pos="s" depth="0" NCoef="0" IVar="7" Cut="1.2307284399867058e-02" cType="1" res="1.9875466823577881e-02" rms="4.4565442204475403e-01" purity="5.3626370429992676e-01" nType="0">
        <Node pos="l" depth="1" NCoef="0" IVar="2" Cut="1.3193291611969471e-02" cType="1" res="1.6037899255752563e-01" rms="3.5389512777328491e-01" purity="8.2854193449020386e-01" nType="0">
          <Node pos="l" depth="2" NCoef="0" IVar="-1" Cut="0.0000000000000000e+00" cType="1" res="5.5502343922853470e-02" rms="2.5490537285804749e-01" purity="9.3395477533340454e-01" nType="-99"/>
          <Node pos="r" depth="2" NCoef="0" IVar="-1" Cut="0.0000000000000000e+00" cType="1" res="8.9193359017372131e-03" rms="5.1085120439529419e-01" purity="5.5599570274353027e-01" nType="-99"/>
        </Node>
        <Node pos="r" depth="1" NCoef="0" IVar="6" Cut="8.0158799886703491e-01" cType="1" res="-2.4365077479160391e-05" rms="4.5365941524505615e-01" purity="4.9486765265464783e-01" nType="0">
          <Node pos="l" depth="2" NCoef="0" IVar="-1" Cut="0.0000000000000000e+00" cType="1" res="-3.8479303475469351e-03" rms="4.5490303635597229e-01" purity="4.8115921020507812e-01" nType="-99"/>
          <Node pos="r" depth="2" NCoef="0" IVar="-1" Cut="0.0000000000000000e+00" cType="1" res="2.7569450438022614e-02" rms="4.2302486300468445e-01" purity="6.0034012794494629e-01" nType="-99"/>
        </Node>
      </Node>
    </BinaryTree>
    <BinaryTree type="DecisionTree" boostWeight="1.0000000000000000e+00" itree="51">
      <Node pos="s" depth="0" NCoef="0" IVar="6" Cut="8.4750807285308838e-01" cType="1" res="-1.2723222374916077e-02" rms="4.4492244720458984e-01" purity="4.9589145183563232e-01" nType="0">
        <Node pos="l" depth="1" NCoef="0" IVar="6" Cut="6.3071751594543457e-01" cType="1" res="-2.3590775206685066e-02" rms="4.4438937306404114e-01" purity="4.8664945363998413e-01" nType="0">
          <Node pos="l" depth="2" NCoef="0" IVar="-1" Cut="0.0000000000000000e+00" cType="1" res="2.9424079693853855e-03" rms="4.3508017063140869e-01" purity="4.8897525668144226e-01" nType="-99"/>
          <Node pos="r" depth="2" NCoef="0" IVar="-1" Cut="0.0000000000000000e+00" cType="1" res="-1.4772518537938595e-02" rms="4.5137286186218262e-01" purity="4.8397487401962280e-01" nType="-99"/>
        </Node>
        <Node pos="r" depth="1" NCoef="0" IVar="-1" Cut="0.0000000000000000e+00" cType="1" res="3.7326235324144363e-02" rms="4.1133159399032593e-01" purity="6.5471613407135010e-01" nType="-99"/>
      </Node>
    </BinaryTree>
    <BinaryTree type="DecisionTree" boostWeight="1.0000000000000000e+00" itree="52">
      <Node pos="s" depth="0" NCoef="0" IVar="6" Cut="6.1592090129852295e-01" cType="1" res="-3.3411946147680283e-02" rms="4.4267514348030090e-01" purity="4.7546979784965515e-01" nType="0">
        <Node pos="l" depth="1" NCoef="0" IVar="5" Cut="2.7878754138946533e+00" cType="1" res="-6.7571431398391724e-02" rms="4.4400441646575928e-01" purity="4.1294500231742859e-01" nType="0">
          <Node pos="l" depth="2" NCoef="0" IVar="-1" Cut="0.0000000000000000e+00" cType="1" res="-1.9315121695399284e-02" rms="4.4181558489799500e-01" purity="4.0665853023529053e-01" nType="-99"/>
          <Node pos="r" depth="2" NCoef="0" IVar="-1" Cut="0.0000000000000000e+00" cType="1" res="2.1904544904828072e-02" rms="4.3859800696372986e-01" purity="4.8754933476448059e-01" nType="-99"/>
        </Node>
        <Node pos="r" depth="1" NCoef="0" IVar="7" Cut="8.5738241672515869e-02" cType="1" res="1.3094346504658461e-03" rms="4.3860191106796265e-01" purity="5.3902304172515869e-01" nType="0">
          <Node pos="l" depth="2" NCoef="0" IVar="-1" Cut="0.0000000000000000e+00" cType="1" res="1.2029824778437614e-02" rms="4.1917046904563904e-01" purity="6.3025850057601929e-01" nType="-99"/>
          <Node pos="r" depth="2" NCoef="0" IVar="-1" Cut="0.0000000000000000e+00" cType="1" res="-2.7323679998517036e-02" rms="4.6034812927246094e-01" purity="3.0904790759086609e-01" nType="-99"/>
        </Node>
      </Node>
    </BinaryTree>
    <BinaryTree type="DecisionTree" boostWeight="1.0000000000000000e+00" itree="53">
      <Node pos="s" depth="0" NCoef="0" IVar="7" Cut="9.2054978013038635e-03" cType="1" res="-2.6092401240020990e-03" rms="4.5819887518882751e-01" purity="5.1913213729858398e-01" nType="0">
        <Node pos="l" depth="1" NCoef="0" IVar="8" Cut="6.4495623111724854e-01" cType="1" res="-1.1376926302909851e-01" rms="4.8925563693046570e-01" purity="5.7746130228042603e-01" nType="0">
          <Node pos="l" depth="2" NCoef="0" IVar="-1" Cut="0.0000000000000000e+00" cType="1" res="1.5143478289246559e-02" rms="4.1741764545440674e-01" purity="6.7860507965087891e-01" nType="-99"/>
          <Node pos="r" depth="2" NCoef="0" IVar="-1" Cut="0.0000000000000000e+00" cType="1" res="-6.5303809940814972e-02" rms="4.9790251255035400e-01" purity="5.1184123754501343e-01" nType="-99"/>
        </Node>
        <Node pos="r" depth="1" NCoef="0" IVar="7" Cut="3.2843075692653656e-02" cType="1" res="1.3634613715112209e-02" rms="4.5119485259056091e-01" purity="5.1060843467712402e-01" nType="0">
          <Node pos="l" depth="2" NCoef="0" IVar="-1" Cut="0.0000000000000000e+00" cType="1" res="-7.1475305594503880e-03" rms="4.3240475654602051e-01" purity="5.3852570056915283e-01" nType="-99"/>
          <Node pos="r" depth="2" NCoef="0" IVar="-1" Cut="0.0000000000000000e+00" cType="1" res="8.1948945298790932e-03" rms="4.5891925692558289e-01" purity="4.9630680680274963e-01" nType="-99"/>
        </Node>
      </Node>
    </BinaryTree>
    <BinaryTree type="DecisionTree" boostWeight="1.0000000000000000e+00" itree="54">
      <Node pos="s" depth="0" NCoef="0" IVar="6" Cut="8.0158799886703491e-01" cType="1" res="-9.6528204157948494e-03" rms="4.5090171694755554e-01" purity="4.9676716327667236e-01" nType="0">
        <Node pos="l" depth="1" NCoef="0" IVar="5" Cut="3.0993527173995972e-01" cType="1" res="-2.1197378635406494e-02" rms="4.4807729125022888e-01" purity="4.7981175780296326e-01" nType="0">
          <Node pos="l" depth="2" NCoef="0" IVar="-1" Cut="0.0000000000000000e+00" cType="1" res="-3.4394510090351105e-02" rms="4.4524168968200684e-01" purity="2.4844063818454742e-01" nType="-99"/>
          <Node pos="r" depth="2" NCoef="0" IVar="-1" Cut="0.0000000000000000e+00" cType="1" res="-2.6861475780606270e-03" rms="4.4672763347625732e-01" purity="4.9701783061027527e-01" nType="-99"/>
        </Node>
        <Node pos="r" depth="1" NCoef="0" IVar="0" Cut="-3.5805740356445312e+00" cType="1" res="8.9114114642143250e-02" rms="4.6275258064270020e-01" purity="6.4182531833648682e-01" nType="0">
          <Node pos="l" depth="2" NCoef="0" IVar="-1" Cut="0.0000000000000000e+00" cType="1" res="-8.0717522650957108e-03" rms="4.8307776451110840e-01" purity="5.2338367700576782e-01" nType="-99"/>
          <Node pos="r" depth="2" NCoef="0" IVar="-1" Cut="0.0000000000000000e+00" cType="1" res="3.3388193696737289e-02" rms="4.3842256069183350e-01" purity="7.0197409391403198e-01" nType="-99"/>
        </Node>
      </Node>
    </BinaryTree>
    <BinaryTree type="DecisionTree" boostWeight="1.0000000000000000e+00" itree="55">
      <Node pos="s" depth="0" NCoef="0" IVar="5" Cut="3.0993527173995972e-01" cType="1" res="-1.3855076394975185e-02" rms="4.4233319163322449e-01" purity="4.9105891585350037e-01" nType="0">
        <Node pos="l" depth="1" NCoef="0" IVar="6" Cut="7.7595108747482300e-01" cType="1" res="-1.0038770735263824e-01" rms="4.4160544872283936e-01" purity="3.2885751128196716e-01" nType="0">
          <Node pos="l" depth="2" NCoef="0" IVar="-1" Cut="0.0000000000000000e+00" cType="1" res="-4.1876737028360367e-02" rms="4.0275725722312927e-01" purity="1.8549109995365143e-01" nType="-99"/>
          <Node pos="r" depth="2" NCoef="0" IVar="-1" Cut="0.0000000000000000e+00" cType="1" res="-9.2778634279966354e-03" rms="4.5906624197959900e-01" purity="4.3210279941558838e-01" nType="-99"/>
        </Node>
        <Node pos="r" depth="1" NCoef="0" IVar="6" Cut="5.0784695148468018e-01" cType="1" res="2.5494755245745182e-03" rms="4.4055870175361633e-01" purity="5.2180844545364380e-01" nType="0">
          <Node pos="l" depth="2" NCoef="0" IVar="-1" Cut="0.0000000000000000e+00" cType="1" res="-1.7393335700035095e-02" rms="4.2431721091270447e-01" purity="3.1471851468086243e-01" nType="-99"/>
          <Node pos="r" depth="2" NCoef="0" IVar="-1" Cut="0.0000000000000000e+00" cType="1" res="5.9567145071923733e-03" rms="4.4281017780303955e-01" purity="5.8479458093643188e-01" nType="-99"/>
        </Node>
      </Node>
    </BinaryTree>
    <BinaryTree type="DecisionTree" boostWeight="1.0000000000000000e+00" itree="56">
      <Node pos="s" depth="0" NCoef="0" IVar="5" Cut="2.3776504993438721e+00" cType="1" res="-4.9382322467863560e-03" rms="4.5450067520141602e-01" purity="5.0081098079681396e-01" nType="0">
        <Node pos="l" depth="1" NCoef="0" IVar="1" Cut="3.5368767380714417e-01" cType="1" res="-1.8038954585790634e-02" rms="4.5456162095069885e-01" purity="4.9150100350379944e-01" nType="0">
          <Node pos="l" depth="2" NCoef="0" IVar="-1" Cut="0.0000000000000000e+00" cType="1" res="3.9309603162109852e-03" rms="4.5431706309318542e-01" purity="4.8455271124839783e-01" nType="-99"/>
          <Node pos="r" depth="2" NCoef="0" IVar="-1" Cut="0.0000000000000000e+00" cType="1" res="-1.9724288955330849e-02" rms="4.4786641001701355e-01" purity="5.0443673133850098e-01" nType="-99"/>
        </Node>
        <Node pos="r" depth="1" NCoef="0" IVar="6" Cut="4.6940377354621887e-01" cType="1" res="1.7765969038009644e-01" rms="4.1238871216773987e-01" purity="6.3057339191436768e-01" nType="0">
          <Node pos="l" depth="2" NCoef="0" IVar="-1" Cut="0.0000000000000000e+00" cType="1" res="2.5638084858655930e-02" rms="4.2492595314979553e-01" purity="4.8489931225776672e-01" nType="-99"/>
          <Node pos="r" depth="2" NCoef="0" IVar="-1" Cut="0.0000000000000000e+00" cType="1" res="5.8680471032857895e-02" rms="3.8298973441123962e-01" purity="7.8970891237258911e-01" nType="-99"/>
        </Node>
      </Node>
    </BinaryTree>
    <BinaryTree type="DecisionTree" boostWeight="1.0000000000000000e+00" itree="57">
      <Node pos="s" depth="0" NCoef="0" IVar="1" Cut="2.3320552706718445e-01" cType="1" res="-3.1707953661680222e-02" rms="4.4618174433708191e-01" purity="4.6190431714057922e-01" nType="0">
        <Node pos="l" depth="1" NCoef="0" IVar="7" Cut="3.3673737198114395e-02" cType="1" res="-7.9706348478794098e-02" rms="4.4477012753486633e-01" purity="3.4138202667236328e-01" nType="0">
          <Node pos="l" depth="2" NCoef="0" IVar="-1" Cut="0.0000000000000000e+00" cType="1" res="-3.8620468229055405e-02" rms="4.3882614374160767e-01" purity="3.2359215617179871e-01" nType="-99"/>
          <Node pos="r" depth="2" NCoef="0" IVar="-1" Cut="0.0000000000000000e+00" cType="1" res="-7.1408520452678204e-03" rms="4.3968179821968079e-01" purity="3.5038721561431885e-01" nType="-99"/>
        </Node>
        <Node pos="r" depth="1" NCoef="0" IVar="3" Cut="4.8077166080474854e-01" cType="1" res="9.4023523852229118e-03" rms="4.4327425956726074e-01" purity="5.6513082981109619e-01" nType="0">
          <Node pos="l" depth="2" NCoef="0" IVar="-1" Cut="0.0000000000000000e+00" cType="1" res="2.5210343301296234e-02" rms="4.2645341157913208e-01" purity="6.7010045051574707e-01" nType="-99"/>
          <Node pos="r" depth="2" NCoef="0" IVar="-1" Cut="0.0000000000000000e+00" cType="1" res="-7.1154888719320297e-03" rms="4.4393846392631531e-01" purity="5.2142256498336792e-01" nType="-99"/>
        </Node>
      </Node>
    </BinaryTree>
    <BinaryTree type="DecisionTree" boostWeight="1.0000000000000000e+00" itree="58">
      <Node pos="s" depth="0" NCoef="0" IVar="4" Cut="3.0585354566574097e-01" cType="1" res="-3.8191122002899647e-03" rms="4.5310235023498535e-01" purity="5.0314533710479736e-01" nType="0">
        <Node pos="l" depth="1" NCoef="0" IVar="3" Cut="5.8348113298416138e-01" cType="1" res="-1.5028627216815948e-01" rms="4.8005825281143188e-01" purity="4.9623420834541321e-01" nType="0">
          <Node pos="l" depth="2" NCoef="0" IVar="-1" Cut="0.0000000000000000e+00" cType="1" res="-7.8119345009326935e-02" rms="4.6690717339515686e-01" purity="2.9934963583946228e-01" nType="-99"/>
          <Node pos="r" depth="2" NCoef="0" IVar="-1" Cut="0.0000000000000000e+00" cType="1" res="3.1581550836563110e-02" rms="3.4051284193992615e-01" purity="7.8445935249328613e-01" nType="-99"/>
        </Node>
        <Node pos="r" depth="1" NCoef="0" IVar="0" Cut="-1.1058952331542969e+01" cType="1" res="7.9598873853683472e-03" rms="4.4879263639450073e-01" purity="5.0370109081268311e-01" nType="0">
          <Node pos="l" depth="2" NCoef="0" IVar="-1" Cut="0.0000000000000000e+00" cType="1" res="-1.7028113827109337e-02" rms="4.6304497122764587e-01" purity="3.5160291194915771e-01" nType="-99"/>
          <Node pos="r" depth="2" NCoef="0" IVar="-1" Cut="0.0000000000000000e+00" cType="1" res="7.5364708900451660e-03" rms="4.4150999188423157e-01" purity="5.4920691251754761e-01" nType="-99"/>
        </Node>
      </Node>
    </BinaryTree>
    <BinaryTree type="DecisionTree" boostWeight="1.0000000000000000e+00" itree="59">
      <Node pos="s" depth="0" NCoef="0" IVar="6" Cut="6.9225925207138062e-01" cType="1" res="-6.9081655237823725e-04" rms="4.4221368432044983e-01" purity="4.9272379279136658e-01" nType="0">
        <Node pos="l" depth="1" NCoef="0" IVar="2" Cut="-4.1679191053844988e-04" cType="1" res="-2.3160157725214958e-02" rms="4.4413417577743530e-01" purity="4.4990387558937073e-01" nType="0">
          <Node pos="l" depth="2" NCoef="0" IVar="-1" Cut="0.0000000000000000e+00" cType="1" res="-1.7829732969403267e-02" rms="4.4444042444229126e-01" purity="4.4344118237495422e-01" nType="-99"/>
          <Node pos="r" depth="2" NCoef="0" IVar="-1" Cut="0.0000000000000000e+00" cType="1" res="5.1433737389743328e-03" rms="4.3899670243263245e-01" purity="4.5513886213302612e-01" nType="-99"/>
        </Node>
        <Node pos="r" depth="1" NCoef="0" IVar="3" Cut="1.9700510799884796e-01" cType="1" res="4.6588789671659470e-02" rms="4.3436560034751892e-01" purity="5.8282488584518433e-01" nType="0">
          <Node pos="l" depth="2" NCoef="0" IVar="-1" Cut="0.0000000000000000e+00" cType="1" res="-1.4807729981839657e-02" rms="4.5455247163772583e-01" purity="3.6752203106880188e-01" nType="-99"/>
          <Node pos="r" depth="2" NCoef="0" IVar="-1" Cut="0.0000000000000000e+00" cType="1" res="2.4557415395975113e-02" rms="4.1020241379737854e-01" purity="6.9801074266433716e-01" nType="-99"/>
        </Node>
      </Node>
    </BinaryTree>
    <BinaryTree type="DecisionTree" boostWeight="1.0000000000000000e+00" itree="60">
      <Node pos="s" depth="0" NCoef="0" IVar="1" Cut="4.5590823888778687e-01" cType="1" res="-1.8327698344364762e-03" rms="4.3933147192001343e-01" purity="5.0503039360046387e-01" nType="0">
        <Node pos="l" depth="1" NCoef="0" IVar="2" Cut="2.4997096508741379e-02" cType="1" res="1.8087543547153473e-02" rms="4.3320173025131226e-01" purity="5.0292319059371948e-01" nType="0">
          <Node pos="l" depth="2" NCoef="0" IVar="-1" Cut="0.0000000000000000e+00" cType="1" res="1.1295581236481667e-02" rms="4.2414692044258118e-01" purity="6.1711484193801880e-01" nType="-99"/>
          <Node pos="r" depth="2" NCoef="0" IVar="-1" Cut="0.0000000000000000e+00" cType="1" res="-7.8070834279060364e-03" rms="4.4314333796501160e-01" purity="3.1498390436172485e-01" nType="-99"/>
        </Node>
        <Node pos="r" depth="1" NCoef="0" IVar="7" Cut="3.6679111421108246e-02" cType="1" res="-9.0000927448272705e-02" rms="4.5514228940010071e-01" purity="5.1435685157775879e-01" nType="0">
          <Node pos="l" depth="2" NCoef="0" IVar="-1" Cut="0.0000000000000000e+00" cType="1" res="1.3014524243772030e-02" rms="3.9425975084304810e-01" purity="7.2707128524780273e-01" nType="-99"/>
          <Node pos="r" depth="2" NCoef="0" IVar="-1" Cut="0.0000000000000000e+00" cType="1" res="-4.4441435486078262e-02" rms="4.6833363175392151e-01" purity="3.3791276812553406e-01" nType="-99"/>
        </Node>
      </Node>
    </BinaryTree>
    <BinaryTree type="DecisionTree" boostWeight="1.0000000000000000e+00" itree="61">
      <Node pos="s" depth="0" NCoef="0" IVar="4" Cut="5.5622625350952148e-01" cType="1" res="-2.0140198990702629e-02" rms="4.4633957743644714e-01" purity="4.8353427648544312e-01" nType="0">
        <Node pos="l" depth="1" NCoef="0" IVar="7" Cut="4.5892897993326187e-02" cType="1" res="2.4765679612755775e-02" rms="4.3196928501129150e-01" purity="5.9097200632095337e-01" nType="0">
          <Node pos="l" depth="2" NCoef="0" IVar="-1" Cut="0.0000000000000000e+00" cType="1" res="2.0983319729566574e-02" rms="3.7890291213989258e-01" purity="7.0741057395935059e-01" nType="-99"/>
          <Node pos="r" depth="2" NCoef="0" IVar="-1" Cut="0.0000000000000000e+00" cType="1" res="-1.0365255177021027e-02" rms="4.8163902759552002e-01" purity="4.4294813275337219e-01" nType="-99"/>
        </Node>
        <Node pos="r" depth="1" NCoef="0" IVar="8" Cut="4.7702381014823914e-01" cType="1" res="-6.2147665768861771e-02" rms="4.5538437366485596e-01" purity="3.8303104043006897e-01" nType="0">
          <Node pos="l" depth="2" NCoef="0" IVar="-1" Cut="0.0000000000000000e+00" cType="1" res="-3.5295903217047453e-04" rms="4.5838341116905212e-01" purity="3.7999013066291809e-01" nType="-99"/>
          <Node pos="r" depth="2" NCoef="0" IVar="-1" Cut="0.0000000000000000e+00" cType="1" res="-2.4167355149984360e-02" rms="4.4842210412025452e-01" purity="3.8515940308570862e-01" nType="-99"/>
        </Node>
      </Node>
    </BinaryTree>
    <BinaryTree type="DecisionTree" boostWeight="1.0000000000000000e+00" itree="62">
      <Node pos="s" depth="0" NCoef="0" IVar="0" Cut="-9.2008735656738281e+01" cType="1" res="-1.8307168036699295e-02" rms="4.4724422693252563e-01" purity="4.8866140842437744e-01" nType="0">
        <Node pos="l" depth="1" NCoef="0" IVar="-1" Cut="0.0000000000000000e+00" cType="1" res="-4.4791463762521744e-02" rms="4.7420993447303772e-01" purity="2.4266667664051056e-01" nType="-99"/>
        <Node pos="r" depth="1" NCoef="0" IVar="0" Cut="2.7482275962829590e+00" cType="1" res="-1.2520412914454937e-02" rms="4.4514465332031250e-01" purity="4.9657914042472839e-01" nType="0">
          <Node pos="l" depth="2" NCoef="0" IVar="-1" Cut="0.0000000000000000e+00" cType="1" res="2.7769438456743956e-03" rms="4.4278976321220398e-01" purity="5.3153407573699951e-01" nType="-99"/>
          <Node pos="r" depth="2" NCoef="0" IVar="-1" Cut="0.0000000000000000e+00" cType="1" res="-1.3839821331202984e-02" rms="4.4592550396919250e-01" purity="4.2752715945243835e-01" nType="-99"/>
        </Node>
      </Node>
    </BinaryTree>
    <BinaryTree type="DecisionTree" boostWeight="1.0000000000000000e+00" itree="63">
      <Node pos="s" depth="0" NCoef="0" IVar="0" Cut="-1.9796590805053711e+01" cType="1" res="-7.3903524316847324e-03" rms="4.4736772775650024e-01" purity="5.0090509653091431e-01" nType="0">
        <Node pos="l" depth="1" NCoef="0" IVar="2" Cut="3.7333211302757263e-01" cType="1" res="-8.7688274681568146e-02" rms="4.2824125289916992e-01" purity="2.8681442141532898e-01" nType="0">
          <Node pos="l" depth="2" NCoef="0" IVar="-1" Cut="0.0000000000000000e+00" cType="1" res="-3.1506899744272232e-02" rms="4.1297936439514160e-01" purity="2.6747599244117737e-01" nType="-99"/>
          <Node pos="r" depth="2" NCoef="0" IVar="-1" Cut="0.0000000000000000e+00" cType="1" res="1.3199000619351864e-02" rms="4.4729492068290710e-01" purity="3.4964922070503235e-01" nType="-99"/>
        </Node>
        <Node pos="r" depth="1" NCoef="0" IVar="3" Cut="1.3293030261993408e+00" cType="1" res="9.5512233674526215e-03" rms="4.4947069883346558e-01" purity="5.4607480764389038e-01" nType="0">
          <Node pos="l" depth="2" NCoef="0" IVar="-1" Cut="0.0000000000000000e+00" cType="1" res="4.1178818792104721e-03" rms="4.4940072298049927e-01" purity="5.6334316730499268e-01" nType="-99"/>
          <Node pos="r" depth="2" NCoef="0" IVar="-1" Cut="0.0000000000000000e+00" cType="1" res="-3.6890357732772827e-02" rms="4.1662356257438660e-01" purity="1.8582302331924438e-01" nType="-99"/>
        </Node>
      </Node>
    </BinaryTree>
    <BinaryTree type="DecisionTree" boostWeight="1.0000000000000000e+00" itree="64">
      <Node pos="s" depth="0" NCoef="0" IVar="8" Cut="4.4588983058929443e-01" cType="1" res="2.1262366324663162e-02" rms="4.5246395468711853e-01" purity="5.2878367900848389e-01" nType="0">
        <Node pos="l" depth="1" NCoef="0" IVar="2" Cut="2.4434046819806099e-02" cType="1" res="8.4394678473472595e-02" rms="4.4662523269653320e-01" purity="4.5820981264114380e-01" nType="0">
          <Node pos="l" depth="2" NCoef="0" IVar="-1" Cut="0.0000000000000000e+00" cType="1" res="3.7806835025548935e-02" rms="4.4528084993362427e-01" purity="6.1466807126998901e-01" nType="-99"/>
