<?xml version="1.0"?>
<MethodSetup Method="BDT::BDT-0.3_fold4">
  <GeneralInfo>
    <Info name="TMVA Release" value="4.2.1 [262657]"/>
    <Info name="ROOT Release" value="6.32/00 [401408]"/>
    <Info name="Creator" value="htan"/>
    <Info name="Date" value="Fri Aug 16 14:18:30 2024"/>
    <Info name="Host" value="Linux 6772f6b99311 6.5.0-1022-azure #23~22.04.1-Ubuntu SMP Thu May 9 17:59:24 UTC 2024 x86_64 x86_64 x86_64 GNU/Linux"/>
    <Info name="Dir" value="/gluster/home/htan/ZTTBDT"/>
    <Info name="Training events" value="104893"/>
    <Info name="TrainingTime" value="8.45564890e+00"/>
    <Info name="AnalysisType" value="Classification"/>
  </GeneralInfo>
  <Options>
    <Option name="V" modified="Yes">False</Option>
    <Option name="VerbosityLevel" modified="No">Default</Option>
    <Option name="VarTransform" modified="No">None</Option>
    <Option name="H" modified="Yes">False</Option>
    <Option name="CreateMVAPdfs" modified="No">False</Option>
    <Option name="IgnoreNegWeightsInTraining" modified="No">False</Option>
    <Option name="NTrees" modified="Yes">125</Option>
    <Option name="MaxDepth" modified="Yes">2</Option>
    <Option name="MinNodeSize" modified="Yes">3%</Option>
    <Option name="nCuts" modified="Yes">80</Option>
    <Option name="BoostType" modified="Yes">Grad</Option>
    <Option name="AdaBoostR2Loss" modified="No">quadratic</Option>
    <Option name="UseBaggedBoost" modified="Yes">True</Option>
    <Option name="Shrinkage" modified="Yes">1.000000e-01</Option>
    <Option name="AdaBoostBeta" modified="No">5.000000e-01</Option>
    <Option name="UseRandomisedTrees" modified="No">False</Option>
    <Option name="UseNvars" modified="Yes">2</Option>
    <Option name="UsePoissonNvars" modified="No">True</Option>
    <Option name="BaggedSampleFraction" modified="Yes">5.000000e-01</Option>
    <Option name="UseYesNoLeaf" modified="No">True</Option>
    <Option name="NegWeightTreatment" modified="No">pray</Option>
    <Option name="Css" modified="No">1.000000e+00</Option>
    <Option name="Cts_sb" modified="No">1.000000e+00</Option>
    <Option name="Ctb_ss" modified="No">1.000000e+00</Option>
    <Option name="Cbb" modified="No">1.000000e+00</Option>
    <Option name="NodePurityLimit" modified="No">5.000000e-01</Option>
    <Option name="SeparationType" modified="Yes">sdivsqrtsplusb</Option>
    <Option name="RegressionLossFunctionBDTG" modified="No">huber</Option>
    <Option name="HuberQuantile" modified="No">7.000000e-01</Option>
    <Option name="DoBoostMonitor" modified="No">False</Option>
    <Option name="UseFisherCuts" modified="No">False</Option>
    <Option name="MinLinCorrForFisher" modified="No">8.000000e-01</Option>
    <Option name="UseExclusiveVars" modified="No">False</Option>
    <Option name="DoPreselection" modified="No">False</Option>
    <Option name="SigToBkgFraction" modified="No">1.000000e+00</Option>
    <Option name="PruneMethod" modified="No">nopruning</Option>
    <Option name="PruneStrength" modified="No">0.000000e+00</Option>
    <Option name="PruningValFraction" modified="No">5.000000e-01</Option>
    <Option name="SkipNormalization" modified="No">False</Option>
    <Option name="nEventsMin" modified="No">0</Option>
    <Option name="UseBaggedGrad" modified="No">False</Option>
    <Option name="GradBaggingFraction" modified="No">5.000000e-01</Option>
    <Option name="UseNTrainEvents" modified="No">0</Option>
    <Option name="NNodesMax" modified="No">0</Option>
  </Options>
  <Variables NVar="8">
    <Variable VarIndex="0" Expression="m_pT_asymm" Label="m_pT_asymm" Title="m_pT_asymm" Unit="" Internal="m_pT_asymm" Type="F" Min="1.16390038e-05" Max="9.46852446e-01"/>
    <Variable VarIndex="1" Expression="m_sigmaCosDelPhi" Label="m_sigmaCosDelPhi" Title="m_sigmaCosDelPhi" Unit="" Internal="m_sigmaCosDelPhi" Type="F" Min="-4.99867573e-02" Max="1.97457731e+00"/>
    <Variable VarIndex="2" Expression="m_ratioMetTauPT" Label="m_ratioMetTauPT" Title="m_ratioMetTauPT" Unit="" Internal="m_ratioMetTauPT" Type="F" Min="1.13642181e-03" Max="1.19963303e+01"/>
    <Variable VarIndex="3" Expression="m_ratioMuonTauPT" Label="m_ratioMuonTauPT" Title="m_ratioMuonTauPT" Unit="" Internal="m_ratioMuonTauPT" Type="F" Min="2.72991937e-02" Max="9.99976695e-01"/>
    <Variable VarIndex="4" Expression="m_ratioMetMuonPT" Label="m_ratioMetMuonPT" Title="m_ratioMetMuonPT" Unit="" Internal="m_ratioMetMuonPT" Type="F" Min="1.52266631e-03" Max="2.49829426e+01"/>
    <Variable VarIndex="5" Expression="m_ratioMuonTauM3" Label="m_ratioMuonTauM3" Title="m_ratioMuonTauM3" Unit="" Internal="m_ratioMuonTauM3" Type="F" Min="1.83517556e-03" Max="9.96654034e-01"/>
    <Variable VarIndex="6" Expression="m_ratioMuonMetM3" Label="m_ratioMuonMetM3" Title="m_ratioMuonMetM3" Unit="" Internal="m_ratioMuonMetM3" Type="F" Min="1.27644239e-06" Max="2.49402225e-01"/>
    <Variable VarIndex="7" Expression="m_ratioMetTauM3" Label="m_ratioMetTauM3" Title="m_ratioMetTauM3" Unit="" Internal="m_ratioMetTauM3" Type="F" Min="5.56223167e-05" Max="9.77119267e-01"/>
  </Variables>
  <Spectators NSpec="1">
    <Spectator SpecIndex="0" Expression="m_event_number" Label="m_event_number" Title="I" Unit="" Internal="m_event_number" Type="F" Min="1.13000000e+02" Max="1.21478618e+09"/>
  </Spectators>
  <Classes NClass="2">
    <Class Name="Signal" Index="0"/>
    <Class Name="Background" Index="1"/>
  </Classes>
  <Transformations NTransformations="0"/>
  <MVAPdfs/>
  <Weights NTrees="125" AnalysisType="1">
    <BinaryTree type="DecisionTree" boostWeight="1.0000000000000000e+00" itree="0">
      <Node pos="s" depth="0" NCoef="0" IVar="6" Cut="4.2954493314027786e-02" cType="1" res="8.8035836815834045e-03" rms="4.9992248415946960e-01" purity="5.0880360603332520e-01" nType="0">
        <Node pos="l" depth="1" NCoef="0" IVar="1" Cut="2.4595770984888077e-02" cType="1" res="1.5593998134136200e-01" rms="4.7506076097488403e-01" purity="6.5593999624252319e-01" nType="0">
          <Node pos="l" depth="2" NCoef="0" IVar="-1" Cut="0.0000000000000000e+00" cType="1" res="5.2443582564592361e-02" rms="4.2572498321533203e-01" purity="7.6221793889999390e-01" nType="-99"/>
          <Node pos="r" depth="2" NCoef="0" IVar="-1" Cut="0.0000000000000000e+00" cType="1" res="-2.3768331855535507e-02" rms="4.8567134141921997e-01" purity="3.8115835189819336e-01" nType="-99"/>
        </Node>
        <Node pos="r" depth="1" NCoef="0" IVar="5" Cut="6.5573185682296753e-01" cType="1" res="-1.0573605448007584e-01" rms="4.8869201540946960e-01" purity="3.9426392316818237e-01" nType="0">
          <Node pos="l" depth="2" NCoef="0" IVar="-1" Cut="0.0000000000000000e+00" cType="1" res="-3.5717226564884186e-02" rms="4.6701925992965698e-01" purity="3.2141387462615967e-01" nType="-99"/>
          <Node pos="r" depth="2" NCoef="0" IVar="-1" Cut="0.0000000000000000e+00" cType="1" res="-1.6801720485091209e-03" rms="4.9992942810058594e-01" purity="4.9159914255142212e-01" nType="-99"/>
        </Node>
      </Node>
    </BinaryTree>
    <BinaryTree type="DecisionTree" boostWeight="1.0000000000000000e+00" itree="1">
      <Node pos="s" depth="0" NCoef="0" IVar="7" Cut="5.0686657428741455e-01" cType="1" res="-9.5597084145992994e-04" rms="4.9590662121772766e-01" purity="5.0227504968643188e-01" nType="0">
        <Node pos="l" depth="1" NCoef="0" IVar="5" Cut="7.8786486387252808e-01" cType="1" res="-1.4525617659091949e-01" rms="4.7839862108230591e-01" purity="3.5878881812095642e-01" nType="0">
          <Node pos="l" depth="2" NCoef="0" IVar="-1" Cut="0.0000000000000000e+00" cType="1" res="-4.2397696524858475e-02" rms="4.5372700691223145e-01" purity="2.9112419486045837e-01" nType="-99"/>
          <Node pos="r" depth="2" NCoef="0" IVar="-1" Cut="0.0000000000000000e+00" cType="1" res="8.7820608168840408e-03" rms="4.9599939584732056e-01" purity="5.5144804716110229e-01" nType="-99"/>
        </Node>
        <Node pos="r" depth="1" NCoef="0" IVar="6" Cut="8.5907340049743652e-02" cType="1" res="7.6004624366760254e-02" rms="4.8784497380256653e-01" purity="5.7880157232284546e-01" nType="0">
          <Node pos="l" depth="2" NCoef="0" IVar="-1" Cut="0.0000000000000000e+00" cType="1" res="2.7418650686740875e-02" rms="4.7436082363128662e-01" purity="6.4380455017089844e-01" nType="-99"/>
          <Node pos="r" depth="2" NCoef="0" IVar="-1" Cut="0.0000000000000000e+00" cType="1" res="-3.1727906316518784e-02" rms="4.6769136190414429e-01" purity="3.2829782366752625e-01" nType="-99"/>
        </Node>
      </Node>
    </BinaryTree>
    <BinaryTree type="DecisionTree" boostWeight="1.0000000000000000e+00" itree="2">
      <Node pos="s" depth="0" NCoef="0" IVar="0" Cut="2.8522437810897827e-01" cType="1" res="-2.1994702517986298e-02" rms="4.9177178740501404e-01" purity="4.8185083270072937e-01" nType="0">
        <Node pos="l" depth="1" NCoef="0" IVar="5" Cut="6.8985003232955933e-01" cType="1" res="-1.2285057455301285e-01" rms="4.7976556420326233e-01" purity="3.7636056542396545e-01" nType="0">
          <Node pos="l" depth="2" NCoef="0" IVar="-1" Cut="0.0000000000000000e+00" cType="1" res="-4.5304797589778900e-02" rms="4.3791490793228149e-01" purity="2.6355329155921936e-01" nType="-99"/>
          <Node pos="r" depth="2" NCoef="0" IVar="-1" Cut="0.0000000000000000e+00" cType="1" res="-4.7574006021022797e-03" rms="4.9714189767837524e-01" purity="4.8502832651138306e-01" nType="-99"/>
        </Node>
        <Node pos="r" depth="1" NCoef="0" IVar="5" Cut="5.0103586912155151e-01" cType="1" res="9.6302382647991180e-02" rms="4.7916176915168762e-01" purity="6.0558378696441650e-01" nType="0">
          <Node pos="l" depth="2" NCoef="0" IVar="-1" Cut="0.0000000000000000e+00" cType="1" res="-2.5139410048723221e-02" rms="4.7508105635643005e-01" purity="3.7304681539535522e-01" nType="-99"/>
          <Node pos="r" depth="2" NCoef="0" IVar="-1" Cut="0.0000000000000000e+00" cType="1" res="3.8173802196979523e-02" rms="4.4902357459068298e-01" purity="7.0409905910491943e-01" nType="-99"/>
        </Node>
      </Node>
    </BinaryTree>
    <BinaryTree type="DecisionTree" boostWeight="1.0000000000000000e+00" itree="3">
      <Node pos="s" depth="0" NCoef="0" IVar="1" Cut="2.4193000048398972e-02" cType="1" res="-1.1496387422084808e-02" rms="4.8685026168823242e-01" purity="4.9032741785049438e-01" nType="0">
        <Node pos="l" depth="1" NCoef="0" IVar="1" Cut="-1.0616340674459934e-02" cType="1" res="6.0552690178155899e-02" rms="4.8260581493377686e-01" purity="5.7312142848968506e-01" nType="0">
          <Node pos="l" depth="2" NCoef="0" IVar="-1" Cut="0.0000000000000000e+00" cType="1" res="-1.6117881983518600e-02" rms="4.8718693852424622e-01" purity="4.1175708174705505e-01" nType="-99"/>
          <Node pos="r" depth="2" NCoef="0" IVar="-1" Cut="0.0000000000000000e+00" cType="1" res="2.7303829789161682e-02" rms="4.6295863389968872e-01" purity="6.5910810232162476e-01" nType="-99"/>
        </Node>
        <Node pos="r" depth="1" NCoef="0" IVar="0" Cut="2.7693641185760498e-01" cType="1" res="-1.4063049852848053e-01" rms="4.6735271811485291e-01" purity="3.4193512797355652e-01" nType="0">
          <Node pos="l" depth="2" NCoef="0" IVar="-1" Cut="0.0000000000000000e+00" cType="1" res="-4.7442458570003510e-02" rms="4.2199367284774780e-01" purity="2.3648315668106079e-01" nType="-99"/>
          <Node pos="r" depth="2" NCoef="0" IVar="-1" Cut="0.0000000000000000e+00" cType="1" res="-6.0850572772324085e-03" rms="4.9230954051017761e-01" purity="4.6384009718894958e-01" nType="-99"/>
        </Node>
      </Node>
    </BinaryTree>
    <BinaryTree type="DecisionTree" boostWeight="1.0000000000000000e+00" itree="4">
      <Node pos="s" depth="0" NCoef="0" IVar="7" Cut="5.1645380258560181e-01" cType="1" res="-3.5509679466485977e-02" rms="4.8373946547508240e-01" purity="4.6616706252098083e-01" nType="0">
        <Node pos="l" depth="1" NCoef="0" IVar="5" Cut="6.8785858154296875e-01" cType="1" res="-1.5471494197845459e-01" rms="4.6042662858963013e-01" purity="3.2554811239242554e-01" nType="0">
          <Node pos="l" depth="2" NCoef="0" IVar="-1" Cut="0.0000000000000000e+00" cType="1" res="-4.6474754810333252e-02" rms="4.2099621891975403e-01" purity="2.3518222570419312e-01" nType="-99"/>
          <Node pos="r" depth="2" NCoef="0" IVar="-1" Cut="0.0000000000000000e+00" cType="1" res="-1.2087505310773849e-02" rms="4.8944696784019470e-01" purity="4.3893277645111084e-01" nType="-99"/>
        </Node>
        <Node pos="r" depth="1" NCoef="0" IVar="3" Cut="7.0015984773635864e-01" cType="1" res="3.1860198825597763e-02" rms="4.8360535502433777e-01" purity="5.4563897848129272e-01" nType="0">
          <Node pos="l" depth="2" NCoef="0" IVar="-1" Cut="0.0000000000000000e+00" cType="1" res="1.6605215147137642e-02" rms="4.7596213221549988e-01" purity="6.0185027122497559e-01" nType="-99"/>
          <Node pos="r" depth="2" NCoef="0" IVar="-1" Cut="0.0000000000000000e+00" cType="1" res="-4.1694175451993942e-02" rms="4.4665780663490295e-01" purity="2.7977684140205383e-01" nType="-99"/>
        </Node>
      </Node>
    </BinaryTree>
    <BinaryTree type="DecisionTree" boostWeight="1.0000000000000000e+00" itree="5">
      <Node pos="s" depth="0" NCoef="0" IVar="0" Cut="2.8071826696395874e-01" cType="1" res="-1.6574565321207047e-02" rms="4.8107123374938965e-01" purity="4.8277327418327332e-01" nType="0">
        <Node pos="l" depth="1" NCoef="0" IVar="3" Cut="9.0253531932830811e-01" cType="1" res="-9.9224559962749481e-02" rms="4.7103360295295715e-01" purity="3.7197878956794739e-01" nType="0">
          <Node pos="l" depth="2" NCoef="0" IVar="-1" Cut="0.0000000000000000e+00" cType="1" res="-1.3387808576226234e-02" rms="4.7706380486488342e-01" purity="4.0504261851310730e-01" nType="-99"/>
          <Node pos="r" depth="2" NCoef="0" IVar="-1" Cut="0.0000000000000000e+00" cType="1" res="-5.3631454706192017e-02" rms="4.0017244219779968e-01" purity="2.0602038502693176e-01" nType="-99"/>
        </Node>
        <Node pos="r" depth="1" NCoef="0" IVar="6" Cut="1.2227221392095089e-02" cType="1" res="7.5266376137733459e-02" rms="4.7541955113410950e-01" purity="6.0588854551315308e-01" nType="0">
          <Node pos="l" depth="2" NCoef="0" IVar="-1" Cut="0.0000000000000000e+00" cType="1" res="6.3268944621086121e-02" rms="3.2643079757690430e-01" purity="8.6370491981506348e-01" nType="-99"/>
          <Node pos="r" depth="2" NCoef="0" IVar="-1" Cut="0.0000000000000000e+00" cType="1" res="6.6393287852406502e-03" rms="4.8552364110946655e-01" purity="5.5947870016098022e-01" nType="-99"/>
        </Node>
      </Node>
    </BinaryTree>
    <BinaryTree type="DecisionTree" boostWeight="1.0000000000000000e+00" itree="6">
      <Node pos="s" depth="0" NCoef="0" IVar="7" Cut="3.1237524747848511e-01" cType="1" res="1.3783649541437626e-02" rms="4.8093906044960022e-01" purity="5.1285094022750854e-01" nType="0">
        <Node pos="l" depth="1" NCoef="0" IVar="5" Cut="7.2701460123062134e-01" cType="1" res="-2.1350841224193573e-01" rms="4.1741347312927246e-01" purity="2.3789784312248230e-01" nType="0">
          <Node pos="l" depth="2" NCoef="0" IVar="-1" Cut="0.0000000000000000e+00" cType="1" res="-5.9348993003368378e-02" rms="3.5088169574737549e-01" purity="1.4009350538253784e-01" nType="-99"/>
          <Node pos="r" depth="2" NCoef="0" IVar="-1" Cut="0.0000000000000000e+00" cType="1" res="-2.9025267809629440e-02" rms="4.5923033356666565e-01" purity="3.2725957036018372e-01" nType="-99"/>
        </Node>
        <Node pos="r" depth="1" NCoef="0" IVar="1" Cut="7.4990130960941315e-02" cType="1" res="4.1933160275220871e-02" rms="4.8081138730049133e-01" purity="5.4690313339233398e-01" nType="0">
          <Node pos="l" depth="2" NCoef="0" IVar="-1" Cut="0.0000000000000000e+00" cType="1" res="1.6243066638708115e-02" rms="4.7617128491401672e-01" purity="5.9696269035339355e-01" nType="-99"/>
          <Node pos="r" depth="2" NCoef="0" IVar="-1" Cut="0.0000000000000000e+00" cType="1" res="-1.8512515351176262e-02" rms="4.7314140200614929e-01" purity="3.7223273515701294e-01" nType="-99"/>
        </Node>
      </Node>
    </BinaryTree>
    <BinaryTree type="DecisionTree" boostWeight="1.0000000000000000e+00" itree="7">
      <Node pos="s" depth="0" NCoef="0" IVar="7" Cut="5.3089737892150879e-01" cType="1" res="3.5033090971410275e-03" rms="4.7657182812690735e-01" purity="5.0397902727127075e-01" nType="0">
        <Node pos="l" depth="1" NCoef="0" IVar="5" Cut="4.8460566997528076e-01" cType="1" res="-1.0025291144847870e-01" rms="4.6656769514083862e-01" purity="3.5471153259277344e-01" nType="0">
          <Node pos="l" depth="2" NCoef="0" IVar="-1" Cut="0.0000000000000000e+00" cType="1" res="-5.2289441227912903e-02" rms="3.8016960024833679e-01" purity="1.7926639318466187e-01" nType="-99"/>
          <Node pos="r" depth="2" NCoef="0" IVar="-1" Cut="0.0000000000000000e+00" cType="1" res="-1.3628751039505005e-02" rms="4.7681599855422974e-01" purity="3.9275777339935303e-01" nType="-99"/>
        </Node>
        <Node pos="r" depth="1" NCoef="0" IVar="2" Cut="8.4057176113128662e-01" cType="1" res="6.6935762763023376e-02" rms="4.7146990895271301e-01" purity="5.9523528814315796e-01" nType="0">
          <Node pos="l" depth="2" NCoef="0" IVar="-1" Cut="0.0000000000000000e+00" cType="1" res="2.1960562095046043e-02" rms="4.6374630928039551e-01" purity="6.4840388298034668e-01" nType="-99"/>
          <Node pos="r" depth="2" NCoef="0" IVar="-1" Cut="0.0000000000000000e+00" cType="1" res="-2.2114593535661697e-02" rms="4.6399515867233276e-01" purity="3.6654779314994812e-01" nType="-99"/>
        </Node>
      </Node>
    </BinaryTree>
    <BinaryTree type="DecisionTree" boostWeight="1.0000000000000000e+00" itree="8">
      <Node pos="s" depth="0" NCoef="0" IVar="7" Cut="3.0188465118408203e-01" cType="1" res="-3.0415397137403488e-02" rms="4.7652649879455566e-01" purity="4.6611297130584717e-01" nType="0">
        <Node pos="l" depth="1" NCoef="0" IVar="0" Cut="1.5627485513687134e-01" cType="1" res="-2.2196002304553986e-01" rms="3.8664057850837708e-01" purity="1.9016207754611969e-01" nType="0">
          <Node pos="l" depth="2" NCoef="0" IVar="-1" Cut="0.0000000000000000e+00" cType="1" res="-3.7729017436504364e-02" rms="4.2732188105583191e-01" purity="2.4341399967670441e-01" nType="-99"/>
          <Node pos="r" depth="2" NCoef="0" IVar="-1" Cut="0.0000000000000000e+00" cType="1" res="-6.2605239450931549e-02" rms="2.8217679262161255e-01" purity="9.1006711125373840e-02" nType="-99"/>
        </Node>
        <Node pos="r" depth="1" NCoef="0" IVar="6" Cut="9.5112606883049011e-02" cType="1" res="-6.0379132628440857e-03" rms="4.8133996129035950e-01" purity="5.0123262405395508e-01" nType="0">
          <Node pos="l" depth="2" NCoef="0" IVar="-1" Cut="0.0000000000000000e+00" cType="1" res="4.1871401481330395e-03" rms="4.8143449425697327e-01" purity="5.3891044855117798e-01" nType="-99"/>
          <Node pos="r" depth="2" NCoef="0" IVar="-1" Cut="0.0000000000000000e+00" cType="1" res="-2.8044110164046288e-02" rms="4.5871108770370483e-01" purity="3.1461811065673828e-01" nType="-99"/>
        </Node>
      </Node>
    </BinaryTree>
    <BinaryTree type="DecisionTree" boostWeight="1.0000000000000000e+00" itree="9">
      <Node pos="s" depth="0" NCoef="0" IVar="6" Cut="6.4661048352718353e-02" cType="1" res="1.6577698290348053e-02" rms="4.6879628300666809e-01" purity="5.1049768924713135e-01" nType="0">
        <Node pos="l" depth="1" NCoef="0" IVar="1" Cut="2.5010172277688980e-02" cType="1" res="8.9425571262836456e-02" rms="4.5633879303932190e-01" purity="6.1319512128829956e-01" nType="0">
          <Node pos="l" depth="2" NCoef="0" IVar="-1" Cut="0.0000000000000000e+00" cType="1" res="3.2573197036981583e-02" rms="4.3188259005546570e-01" purity="7.0289742946624756e-01" nType="-99"/>
          <Node pos="r" depth="2" NCoef="0" IVar="-1" Cut="0.0000000000000000e+00" cType="1" res="-2.0290981978178024e-02" rms="4.6729379892349243e-01" purity="3.6996647715568542e-01" nType="-99"/>
        </Node>
        <Node pos="r" depth="1" NCoef="0" IVar="2" Cut="5.5878853797912598e-01" cType="1" res="-1.0405139625072479e-01" rms="4.6423596143722534e-01" purity="3.4044057130813599e-01" nType="0">
          <Node pos="l" depth="2" NCoef="0" IVar="-1" Cut="0.0000000000000000e+00" cType="1" res="-2.9984165448695421e-03" rms="4.7373333573341370e-01" purity="4.2357760667800903e-01" nType="-99"/>
          <Node pos="r" depth="2" NCoef="0" IVar="-1" Cut="0.0000000000000000e+00" cType="1" res="-4.2997423559427261e-02" rms="4.2905727028846741e-01" purity="2.4165718257427216e-01" nType="-99"/>
        </Node>
      </Node>
    </BinaryTree>
    <BinaryTree type="DecisionTree" boostWeight="1.0000000000000000e+00" itree="10">
      <Node pos="s" depth="0" NCoef="0" IVar="1" Cut="2.4195251986384392e-02" cType="1" res="-1.1065478902310133e-03" rms="4.7056621313095093e-01" purity="5.0052720308303833e-01" nType="0">
        <Node pos="l" depth="1" NCoef="0" IVar="3" Cut="8.2093125581741333e-01" cType="1" res="5.1214177161455154e-02" rms="4.6554356813430786e-01" purity="5.8297288417816162e-01" nType="0">
          <Node pos="l" depth="2" NCoef="0" IVar="-1" Cut="0.0000000000000000e+00" cType="1" res="1.8776459619402885e-02" rms="4.5725542306900024e-01" purity="6.3722777366638184e-01" nType="-99"/>
          <Node pos="r" depth="2" NCoef="0" IVar="-1" Cut="0.0000000000000000e+00" cType="1" res="-2.9171507805585861e-02" rms="4.5645216107368469e-01" purity="3.1953608989715576e-01" nType="-99"/>
        </Node>
        <Node pos="r" depth="1" NCoef="0" IVar="6" Cut="1.5386382117867470e-02" cType="1" res="-1.0324209928512573e-01" rms="4.6350339055061340e-01" purity="3.3958461880683899e-01" nType="0">
          <Node pos="l" depth="2" NCoef="0" IVar="-1" Cut="0.0000000000000000e+00" cType="1" res="-5.0474368035793304e-02" rms="4.0656840801239014e-01" purity="2.2536574304103851e-01" nType="-99"/>
          <Node pos="r" depth="2" NCoef="0" IVar="-1" Cut="0.0000000000000000e+00" cType="1" res="-1.3619310222566128e-02" rms="4.7003009915351868e-01" purity="3.6918920278549194e-01" nType="-99"/>
        </Node>
      </Node>
    </BinaryTree>
    <BinaryTree type="DecisionTree" boostWeight="1.0000000000000000e+00" itree="11">
      <Node pos="s" depth="0" NCoef="0" IVar="1" Cut="2.4997096508741379e-02" cType="1" res="-3.5927321761846542e-02" rms="4.7170951962471008e-01" purity="4.6155765652656555e-01" nType="0">
        <Node pos="l" depth="1" NCoef="0" IVar="6" Cut="3.9596766233444214e-02" cType="1" res="6.0649686492979527e-03" rms="4.7575038671493530e-01" purity="5.4339641332626343e-01" nType="0">
          <Node pos="l" depth="2" NCoef="0" IVar="-1" Cut="0.0000000000000000e+00" cType="1" res="1.7076866701245308e-02" rms="4.5344409346580505e-01" purity="6.6034412384033203e-01" nType="-99"/>
          <Node pos="r" depth="2" NCoef="0" IVar="-1" Cut="0.0000000000000000e+00" cType="1" res="-1.3698595575988293e-02" rms="4.8522827029228210e-01" purity="4.3034574389457703e-01" nType="-99"/>
        </Node>
        <Node pos="r" depth="1" NCoef="0" IVar="7" Cut="5.6733149290084839e-01" cType="1" res="-1.0862191766500473e-01" rms="4.5557105541229248e-01" purity="3.1988313794136047e-01" nType="0">
          <Node pos="l" depth="2" NCoef="0" IVar="-1" Cut="0.0000000000000000e+00" cType="1" res="-3.7007298320531845e-02" rms="4.1272681951522827e-01" purity="2.2234368324279785e-01" nType="-99"/>
          <Node pos="r" depth="2" NCoef="0" IVar="-1" Cut="0.0000000000000000e+00" cType="1" res="-9.3273399397730827e-03" rms="4.8415887355804443e-01" purity="4.1170418262481689e-01" nType="-99"/>
        </Node>
      </Node>
    </BinaryTree>
    <BinaryTree type="DecisionTree" boostWeight="1.0000000000000000e+00" itree="12">
      <Node pos="s" depth="0" NCoef="0" IVar="7" Cut="3.0037063360214233e-01" cType="1" res="7.5726071372628212e-03" rms="4.6597155928611755e-01" purity="4.9617192149162292e-01" nType="0">
        <Node pos="l" depth="1" NCoef="0" IVar="7" Cut="2.2255878150463104e-01" cType="1" res="-2.0208877325057983e-01" rms="3.6995136737823486e-01" purity="1.7246282100677490e-01" nType="0">
          <Node pos="l" depth="2" NCoef="0" IVar="-1" Cut="0.0000000000000000e+00" cType="1" res="-2.3617563769221306e-02" rms="4.2190888524055481e-01" purity="2.5789725780487061e-01" nType="-99"/>
          <Node pos="r" depth="2" NCoef="0" IVar="-1" Cut="0.0000000000000000e+00" cType="1" res="-5.4805193096399307e-02" rms="3.2473188638687134e-01" purity="1.2365110963582993e-01" nType="-99"/>
        </Node>
        <Node pos="r" depth="1" NCoef="0" IVar="2" Cut="8.1051301956176758e-01" cType="1" res="3.4189958125352859e-02" rms="4.7013872861862183e-01" purity="5.3726804256439209e-01" nType="0">
          <Node pos="l" depth="2" NCoef="0" IVar="-1" Cut="0.0000000000000000e+00" cType="1" res="1.3963549397885799e-02" rms="4.6827834844589233e-01" purity="5.8395367860794067e-01" nType="-99"/>
          <Node pos="r" depth="2" NCoef="0" IVar="-1" Cut="0.0000000000000000e+00" cType="1" res="-2.5631172582507133e-02" rms="4.4639080762863159e-01" purity="3.1591540575027466e-01" nType="-99"/>
        </Node>
      </Node>
    </BinaryTree>
    <BinaryTree type="DecisionTree" boostWeight="1.0000000000000000e+00" itree="13">
      <Node pos="s" depth="0" NCoef="0" IVar="5" Cut="5.0538545846939087e-01" cType="1" res="2.3035764694213867e-02" rms="4.7473382949829102e-01" purity="5.2373534440994263e-01" nType="0">
        <Node pos="l" depth="1" NCoef="0" IVar="0" Cut="4.6640944480895996e-01" cType="1" res="-1.2593786418437958e-01" rms="4.5679855346679688e-01" purity="3.4549185633659363e-01" nType="0">
          <Node pos="l" depth="2" NCoef="0" IVar="-1" Cut="0.0000000000000000e+00" cType="1" res="-3.7939377129077911e-02" rms="4.3671455979347229e-01" purity="2.7032959461212158e-01" nType="-99"/>
          <Node pos="r" depth="2" NCoef="0" IVar="-1" Cut="0.0000000000000000e+00" cType="1" res="5.5996743030846119e-03" rms="4.7639867663383484e-01" purity="5.5554401874542236e-01" nType="-99"/>
        </Node>
        <Node pos="r" depth="1" NCoef="0" IVar="3" Cut="4.2742222547531128e-01" cType="1" res="6.1472218483686447e-02" rms="4.7167727351188660e-01" purity="5.6972366571426392e-01" nType="0">
          <Node pos="l" depth="2" NCoef="0" IVar="-1" Cut="0.0000000000000000e+00" cType="1" res="3.9539884775876999e-02" rms="4.1021531820297241e-01" purity="7.6310741901397705e-01" nType="-99"/>
          <Node pos="r" depth="2" NCoef="0" IVar="-1" Cut="0.0000000000000000e+00" cType="1" res="6.3152918592095375e-03" rms="4.8037961125373840e-01" purity="5.2266132831573486e-01" nType="-99"/>
        </Node>
      </Node>
    </BinaryTree>
    <BinaryTree type="DecisionTree" boostWeight="1.0000000000000000e+00" itree="14">
      <Node pos="s" depth="0" NCoef="0" IVar="6" Cut="9.2324120923876762e-03" cType="1" res="-1.5280124731361866e-02" rms="4.6066418290138245e-01" purity="4.8316568136215210e-01" nType="0">
        <Node pos="l" depth="1" NCoef="0" IVar="5" Cut="5.7254236936569214e-01" cType="1" res="2.4629493057727814e-01" rms="3.3096289634704590e-01" purity="8.2867920398712158e-01" nType="0">
          <Node pos="l" depth="2" NCoef="0" IVar="-1" Cut="0.0000000000000000e+00" cType="1" res="3.4457158297300339e-02" rms="3.8919669389724731e-01" purity="7.1540045738220215e-01" nType="-99"/>
          <Node pos="r" depth="2" NCoef="0" IVar="-1" Cut="0.0000000000000000e+00" cType="1" res="6.2844872474670410e-02" rms="2.8376352787017822e-01" purity="8.9029431343078613e-01" nType="-99"/>
        </Node>
        <Node pos="r" depth="1" NCoef="0" IVar="5" Cut="5.5244094133377075e-01" cType="1" res="-4.2392197996377945e-02" rms="4.6370980143547058e-01" purity="4.4735345244407654e-01" nType="0">
          <Node pos="l" depth="2" NCoef="0" IVar="-1" Cut="0.0000000000000000e+00" cType="1" res="-3.2472293823957443e-02" rms="4.3924516439437866e-01" purity="3.2173979282379150e-01" nType="-99"/>
          <Node pos="r" depth="2" NCoef="0" IVar="-1" Cut="0.0000000000000000e+00" cType="1" res="1.1406705016270280e-03" rms="4.6560391783714294e-01" purity="5.0096160173416138e-01" nType="-99"/>
        </Node>
      </Node>
    </BinaryTree>
    <BinaryTree type="DecisionTree" boostWeight="1.0000000000000000e+00" itree="15">
      <Node pos="s" depth="0" NCoef="0" IVar="0" Cut="2.8460395336151123e-01" cType="1" res="1.3901790603995323e-02" rms="4.5749089121818542e-01" purity="5.0952851772308350e-01" nType="0">
        <Node pos="l" depth="1" NCoef="0" IVar="5" Cut="6.9370347261428833e-01" cType="1" res="-6.1863183975219727e-02" rms="4.5918831229209900e-01" purity="3.8799297809600830e-01" nType="0">
          <Node pos="l" depth="2" NCoef="0" IVar="-1" Cut="0.0000000000000000e+00" cType="1" res="-2.9552135616540909e-02" rms="4.3807479739189148e-01" purity="2.7940189838409424e-01" nType="-99"/>
          <Node pos="r" depth="2" NCoef="0" IVar="-1" Cut="0.0000000000000000e+00" cType="1" res="3.8321628235280514e-03" rms="4.6693420410156250e-01" purity="5.0166314840316772e-01" nType="-99"/>
        </Node>
        <Node pos="r" depth="1" NCoef="0" IVar="5" Cut="4.9495610594749451e-01" cType="1" res="1.0923431068658829e-01" rms="4.3706855177879333e-01" purity="6.6245263814926147e-01" nType="0">
          <Node pos="l" depth="2" NCoef="0" IVar="-1" Cut="0.0000000000000000e+00" cType="1" res="-1.0649731382727623e-02" rms="4.7095900774002075e-01" purity="4.0406972169876099e-01" nType="-99"/>
          <Node pos="r" depth="2" NCoef="0" IVar="-1" Cut="0.0000000000000000e+00" cType="1" res="3.3059682697057724e-02" rms="4.1505199670791626e-01" purity="7.3837244510650635e-01" nType="-99"/>
        </Node>
      </Node>
    </BinaryTree>
    <BinaryTree type="DecisionTree" boostWeight="1.0000000000000000e+00" itree="16">
      <Node pos="s" depth="0" NCoef="0" IVar="0" Cut="5.1303815841674805e-01" cType="1" res="3.1213217880576849e-03" rms="4.6261259913444519e-01" purity="5.0032961368560791e-01" nType="0">
        <Node pos="l" depth="1" NCoef="0" IVar="6" Cut="1.3536746799945831e-01" cType="1" res="-1.2450787238776684e-02" rms="4.6415877342224121e-01" purity="4.7997519373893738e-01" nType="0">
          <Node pos="l" depth="2" NCoef="0" IVar="-1" Cut="0.0000000000000000e+00" cType="1" res="2.0874883048236370e-03" rms="4.6503797173500061e-01" purity="5.1487058401107788e-01" nType="-99"/>
          <Node pos="r" depth="2" NCoef="0" IVar="-1" Cut="0.0000000000000000e+00" cType="1" res="-3.5677306354045868e-02" rms="4.2645147442817688e-01" purity="2.3633973300457001e-01" nType="-99"/>
        </Node>
        <Node pos="r" depth="1" NCoef="0" IVar="-1" Cut="0.0000000000000000e+00" cType="1" res="5.1930479705333710e-02" rms="3.5884478688240051e-01" purity="8.1806045770645142e-01" nType="-99"/>
      </Node>
    </BinaryTree>
    <BinaryTree type="DecisionTree" boostWeight="1.0000000000000000e+00" itree="17">
      <Node pos="s" depth="0" NCoef="0" IVar="5" Cut="4.6854031085968018e-01" cType="1" res="-8.3778658881783485e-03" rms="4.6281167864799500e-01" purity="4.8881095647811890e-01" nType="0">
        <Node pos="l" depth="1" NCoef="0" IVar="2" Cut="5.9763801097869873e-01" cType="1" res="-1.6033703088760376e-01" rms="4.1986045241355896e-01" purity="2.5502473115921021e-01" nType="0">
          <Node pos="l" depth="2" NCoef="0" IVar="-1" Cut="0.0000000000000000e+00" cType="1" res="-5.6047163903713226e-02" rms="3.7192192673683167e-01" purity="1.4763601124286652e-01" nType="-99"/>
          <Node pos="r" depth="2" NCoef="0" IVar="-1" Cut="0.0000000000000000e+00" cType="1" res="-1.8892083317041397e-02" rms="4.3923121690750122e-01" purity="3.3591881394386292e-01" nType="-99"/>
        </Node>
        <Node pos="r" depth="1" NCoef="0" IVar="6" Cut="2.4613613262772560e-02" cType="1" res="1.5290602110326290e-02" rms="4.6469646692276001e-01" purity="5.2522444725036621e-01" nType="0">
          <Node pos="l" depth="2" NCoef="0" IVar="-1" Cut="0.0000000000000000e+00" cType="1" res="2.4336246773600578e-02" rms="4.1798222064971924e-01" purity="6.8188136816024780e-01" nType="-99"/>
          <Node pos="r" depth="2" NCoef="0" IVar="-1" Cut="0.0000000000000000e+00" cType="1" res="-5.0005428493022919e-03" rms="4.7661221027374268e-01" purity="4.6224078536033630e-01" nType="-99"/>
        </Node>
      </Node>
    </BinaryTree>
    <BinaryTree type="DecisionTree" boostWeight="1.0000000000000000e+00" itree="18">
      <Node pos="s" depth="0" NCoef="0" IVar="1" Cut="2.4997096508741379e-02" cType="1" res="-7.7045122161507607e-03" rms="4.6860450506210327e-01" purity="5.0013601779937744e-01" nType="0">
        <Node pos="l" depth="1" NCoef="0" IVar="1" Cut="-1.6665898263454437e-02" cType="1" res="3.4450698643922806e-02" rms="4.6954056620597839e-01" purity="5.9068959951400757e-01" nType="0">
          <Node pos="l" depth="2" NCoef="0" IVar="-1" Cut="0.0000000000000000e+00" cType="1" res="-1.5310378745198250e-02" rms="4.9573028087615967e-01" purity="4.0736240148544312e-01" nType="-99"/>
          <Node pos="r" depth="2" NCoef="0" IVar="-1" Cut="0.0000000000000000e+00" cType="1" res="1.4958090148866177e-02" rms="4.5500382781028748e-01" purity="6.5114915370941162e-01" nType="-99"/>
        </Node>
        <Node pos="r" depth="1" NCoef="0" IVar="0" Cut="4.6669255942106247e-02" cType="1" res="-8.4608025848865509e-02" rms="4.5698153972625732e-01" purity="3.3493971824645996e-01" nType="0">
          <Node pos="l" depth="2" NCoef="0" IVar="-1" Cut="0.0000000000000000e+00" cType="1" res="-5.1951494067907333e-02" rms="3.2468453049659729e-01" purity="1.2220992892980576e-01" nType="-99"/>
          <Node pos="r" depth="2" NCoef="0" IVar="-1" Cut="0.0000000000000000e+00" cType="1" res="-1.4488960616290569e-02" rms="4.6581557393074036e-01" purity="3.5724726319313049e-01" nType="-99"/>
        </Node>
      </Node>
    </BinaryTree>
    <BinaryTree type="DecisionTree" boostWeight="1.0000000000000000e+00" itree="19">
      <Node pos="s" depth="0" NCoef="0" IVar="1" Cut="2.4709179997444153e-02" cType="1" res="-2.4775356054306030e-02" rms="4.6100127696990967e-01" purity="4.7820872068405151e-01" nType="0">
        <Node pos="l" depth="1" NCoef="0" IVar="1" Cut="-1.5872590243816376e-02" cType="1" res="1.3746323995292187e-02" rms="4.6360343694686890e-01" purity="5.6815385818481445e-01" nType="0">
          <Node pos="l" depth="2" NCoef="0" IVar="-1" Cut="0.0000000000000000e+00" cType="1" res="-2.5781268253922462e-02" rms="4.7160780429840088e-01" purity="3.5577800869941711e-01" nType="-99"/>
          <Node pos="r" depth="2" NCoef="0" IVar="-1" Cut="0.0000000000000000e+00" cType="1" res="1.7161702737212181e-02" rms="4.4473835825920105e-01" purity="6.6977721452713013e-01" nType="-99"/>
        </Node>
        <Node pos="r" depth="1" NCoef="0" IVar="6" Cut="5.2090462297201157e-02" cType="1" res="-9.3797802925109863e-02" rms="4.4809398055076599e-01" purity="3.1704664230346680e-01" nType="0">
          <Node pos="l" depth="2" NCoef="0" IVar="-1" Cut="0.0000000000000000e+00" cType="1" res="-3.3008579164743423e-02" rms="4.3035992980003357e-01" purity="2.7887991070747375e-01" nType="-99"/>
          <Node pos="r" depth="2" NCoef="0" IVar="-1" Cut="0.0000000000000000e+00" cType="1" res="-9.4137825071811676e-03" rms="4.5596045255661011e-01" purity="3.4823688864707947e-01" nType="-99"/>
        </Node>
      </Node>
    </BinaryTree>
    <BinaryTree type="DecisionTree" boostWeight="1.0000000000000000e+00" itree="20">
      <Node pos="s" depth="0" NCoef="0" IVar="7" Cut="6.8382215499877930e-01" cType="1" res="-3.4226194024085999e-02" rms="4.6009230613708496e-01" purity="4.6564626693725586e-01" nType="0">
        <Node pos="l" depth="1" NCoef="0" IVar="5" Cut="6.9926917552947998e-01" cType="1" res="-7.0433750748634338e-02" rms="4.6318778395652771e-01" purity="4.0991875529289246e-01" nType="0">
          <Node pos="l" depth="2" NCoef="0" IVar="-1" Cut="0.0000000000000000e+00" cType="1" res="-2.9957611113786697e-02" rms="4.5405483245849609e-01" purity="3.3061587810516357e-01" nType="-99"/>
          <Node pos="r" depth="2" NCoef="0" IVar="-1" Cut="0.0000000000000000e+00" cType="1" res="5.4539078846573830e-03" rms="4.5891925692558289e-01" purity="5.2269679307937622e-01" nType="-99"/>
        </Node>
        <Node pos="r" depth="1" NCoef="0" IVar="2" Cut="6.3229739665985107e-01" cType="1" res="5.4391112178564072e-02" rms="4.4003230333328247e-01" purity="6.0203820466995239e-01" nType="0">
          <Node pos="l" depth="2" NCoef="0" IVar="-1" Cut="0.0000000000000000e+00" cType="1" res="4.7560337930917740e-02" rms="3.3228495717048645e-01" purity="8.4577912092208862e-01" nType="-99"/>
          <Node pos="r" depth="2" NCoef="0" IVar="-1" Cut="0.0000000000000000e+00" cType="1" res="-3.8610429037362337e-03" rms="4.6289584040641785e-01" purity="4.9247914552688599e-01" nType="-99"/>
        </Node>
      </Node>
    </BinaryTree>
    <BinaryTree type="DecisionTree" boostWeight="1.0000000000000000e+00" itree="21">
      <Node pos="s" depth="0" NCoef="0" IVar="7" Cut="5.5399155616760254e-01" cType="1" res="2.0722682529594749e-04" rms="4.5837664604187012e-01" purity="4.9845913052558899e-01" nType="0">
        <Node pos="l" depth="1" NCoef="0" IVar="6" Cut="4.8905234783887863e-02" cType="1" res="-7.3289662599563599e-02" rms="4.6325579285621643e-01" purity="3.5612228512763977e-01" nType="0">
          <Node pos="l" depth="2" NCoef="0" IVar="-1" Cut="0.0000000000000000e+00" cType="1" res="-2.7881240472197533e-02" rms="4.4431951642036438e-01" purity="3.3563557267189026e-01" nType="-99"/>
          <Node pos="r" depth="2" NCoef="0" IVar="-1" Cut="0.0000000000000000e+00" cType="1" res="-1.9007758237421513e-03" rms="4.7462207078933716e-01" purity="3.7836688756942749e-01" nType="-99"/>
        </Node>
        <Node pos="r" depth="1" NCoef="0" IVar="6" Cut="4.9225308001041412e-02" cType="1" res="5.8791134506464005e-02" rms="4.4585534930229187e-01" purity="6.1191487312316895e-01" nType="0">
          <Node pos="l" depth="2" NCoef="0" IVar="-1" Cut="0.0000000000000000e+00" cType="1" res="2.9271813109517097e-02" rms="3.9925673604011536e-01" purity="7.4259483814239502e-01" nType="-99"/>
          <Node pos="r" depth="2" NCoef="0" IVar="-1" Cut="0.0000000000000000e+00" cType="1" res="-7.8448252752423286e-03" rms="4.8444312810897827e-01" purity="4.3861794471740723e-01" nType="-99"/>
        </Node>
      </Node>
    </BinaryTree>
    <BinaryTree type="DecisionTree" boostWeight="1.0000000000000000e+00" itree="22">
      <Node pos="s" depth="0" NCoef="0" IVar="5" Cut="4.8460566997528076e-01" cType="1" res="2.9538612812757492e-02" rms="4.5859050750732422e-01" purity="5.3131455183029175e-01" nType="0">
        <Node pos="l" depth="1" NCoef="0" IVar="7" Cut="7.8411906957626343e-01" cType="1" res="-8.6630657315254211e-02" rms="4.3543013930320740e-01" purity="3.0668377876281738e-01" nType="0">
          <Node pos="l" depth="2" NCoef="0" IVar="-1" Cut="0.0000000000000000e+00" cType="1" res="-7.7904695644974709e-03" rms="4.3285471200942993e-01" purity="3.3009716868400574e-01" nType="-99"/>
          <Node pos="r" depth="2" NCoef="0" IVar="-1" Cut="0.0000000000000000e+00" cType="1" res="-4.7262474894523621e-02" rms="4.1041946411132812e-01" purity="2.4441210925579071e-01" nType="-99"/>
        </Node>
        <Node pos="r" depth="1" NCoef="0" IVar="2" Cut="2.3726551234722137e-01" cType="1" res="5.2066940814256668e-02" rms="4.5956072211265564e-01" purity="5.7487648725509644e-01" nType="0">
          <Node pos="l" depth="2" NCoef="0" IVar="-1" Cut="0.0000000000000000e+00" cType="1" res="-1.3123464770615101e-02" rms="4.6612378954887390e-01" purity="3.7701016664505005e-01" nType="-99"/>
          <Node pos="r" depth="2" NCoef="0" IVar="-1" Cut="0.0000000000000000e+00" cType="1" res="1.7271209508180618e-02" rms="4.5364633202552795e-01" purity="6.2299770116806030e-01" nType="-99"/>
        </Node>
      </Node>
    </BinaryTree>
    <BinaryTree type="DecisionTree" boostWeight="1.0000000000000000e+00" itree="23">
      <Node pos="s" depth="0" NCoef="0" IVar="7" Cut="2.5209528207778931e-01" cType="1" res="-3.4829728305339813e-02" rms="4.6682867407798767e-01" purity="4.7328099608421326e-01" nType="0">
        <Node pos="l" depth="1" NCoef="0" IVar="-1" Cut="0.0000000000000000e+00" cType="1" res="-5.2422754466533661e-02" rms="3.7339645624160767e-01" purity="1.3484823703765869e-01" nType="-99"/>
        <Node pos="r" depth="1" NCoef="0" IVar="5" Cut="7.0744758844375610e-01" cType="1" res="-2.0693611353635788e-02" rms="4.6955996751785278e-01" purity="4.9730423092842102e-01" nType="0">
          <Node pos="l" depth="2" NCoef="0" IVar="-1" Cut="0.0000000000000000e+00" cType="1" res="-1.2335994280874729e-02" rms="4.6667420864105225e-01" purity="4.6070805191993713e-01" nType="-99"/>
          <Node pos="r" depth="2" NCoef="0" IVar="-1" Cut="0.0000000000000000e+00" cType="1" res="1.7001276835799217e-02" rms="4.6279647946357727e-01" purity="6.0207289457321167e-01" nType="-99"/>
        </Node>
      </Node>
    </BinaryTree>
    <BinaryTree type="DecisionTree" boostWeight="1.0000000000000000e+00" itree="24">
      <Node pos="s" depth="0" NCoef="0" IVar="3" Cut="3.2838699221611023e-01" cType="1" res="-1.9062781706452370e-02" rms="4.5695722103118896e-01" purity="4.8048615455627441e-01" nType="0">
        <Node pos="l" depth="1" NCoef="0" IVar="2" Cut="5.9528201818466187e-01" cType="1" res="1.5520653128623962e-01" rms="3.8870280981063843e-01" purity="7.5350707769393921e-01" nType="0">
          <Node pos="l" depth="2" NCoef="0" IVar="-1" Cut="0.0000000000000000e+00" cType="1" res="4.1971192695200443e-03" rms="4.4907778501510620e-01" purity="5.9438437223434448e-01" nType="-99"/>
          <Node pos="r" depth="2" NCoef="0" IVar="-1" Cut="0.0000000000000000e+00" cType="1" res="5.7233218103647232e-02" rms="2.9903009533882141e-01" purity="8.7206900119781494e-01" nType="-99"/>
        </Node>
        <Node pos="r" depth="1" NCoef="0" IVar="2" Cut="7.4344199895858765e-01" cType="1" res="-3.2865799963474274e-02" rms="4.5911398530006409e-01" purity="4.5886155962944031e-01" nType="0">
          <Node pos="l" depth="2" NCoef="0" IVar="-1" Cut="0.0000000000000000e+00" cType="1" res="-1.0297249536961317e-03" rms="4.6076065301895142e-01" purity="5.0547522306442261e-01" nType="-99"/>
          <Node pos="r" depth="2" NCoef="0" IVar="-1" Cut="0.0000000000000000e+00" cType="1" res="-2.9947662726044655e-02" rms="4.3730551004409790e-01" purity="2.8530514240264893e-01" nType="-99"/>
        </Node>
      </Node>
    </BinaryTree>
    <BinaryTree type="DecisionTree" boostWeight="1.0000000000000000e+00" itree="25">
      <Node pos="s" depth="0" NCoef="0" IVar="5" Cut="4.9619472026824951e-01" cType="1" res="1.0134372860193253e-02" rms="4.5477044582366943e-01" purity="5.0720781087875366e-01" nType="0">
        <Node pos="l" depth="1" NCoef="0" IVar="4" Cut="2.7883329391479492e+00" cType="1" res="-1.1672575771808624e-01" rms="4.2356923222541809e-01" purity="2.7624455094337463e-01" nType="0">
          <Node pos="l" depth="2" NCoef="0" IVar="-1" Cut="0.0000000000000000e+00" cType="1" res="-3.3253669738769531e-02" rms="4.0937328338623047e-01" purity="2.3837848007678986e-01" nType="-99"/>
          <Node pos="r" depth="2" NCoef="0" IVar="-1" Cut="0.0000000000000000e+00" cType="1" res="1.0448255343362689e-03" rms="4.5615339279174805e-01" purity="4.2710778117179871e-01" nType="-99"/>
        </Node>
        <Node pos="r" depth="1" NCoef="0" IVar="6" Cut="1.8475420773029327e-02" cType="1" res="3.6515183746814728e-02" rms="4.5658791065216064e-01" purity="5.5523705482482910e-01" nType="0">
          <Node pos="l" depth="2" NCoef="0" IVar="-1" Cut="0.0000000000000000e+00" cType="1" res="3.9068955928087234e-02" rms="3.6855456233024597e-01" purity="7.9616415500640869e-01" nType="-99"/>
          <Node pos="r" depth="2" NCoef="0" IVar="-1" Cut="0.0000000000000000e+00" cType="1" res="1.3645613798871636e-03" rms="4.6919113397598267e-01" purity="5.0033265352249146e-01" nType="-99"/>
        </Node>
      </Node>
    </BinaryTree>
    <BinaryTree type="DecisionTree" boostWeight="1.0000000000000000e+00" itree="26">
      <Node pos="s" depth="0" NCoef="0" IVar="6" Cut="1.3536736369132996e-01" cType="1" res="-6.6140540875494480e-03" rms="4.5401424169540405e-01" purity="4.9690127372741699e-01" nType="0">
        <Node pos="l" depth="1" NCoef="0" IVar="5" Cut="5.1742941141128540e-01" cType="1" res="1.3413898646831512e-02" rms="4.5431739091873169e-01" purity="5.3159523010253906e-01" nType="0">
          <Node pos="l" depth="2" NCoef="0" IVar="-1" Cut="0.0000000000000000e+00" cType="1" res="-1.4490567147731781e-02" rms="4.4118618965148926e-01" purity="3.6864164471626282e-01" nType="-99"/>
          <Node pos="r" depth="2" NCoef="0" IVar="-1" Cut="0.0000000000000000e+00" cType="1" res="8.4560327231884003e-03" rms="4.5558598637580872e-01" purity="5.8448678255081177e-01" nType="-99"/>
        </Node>
        <Node pos="r" depth="1" NCoef="0" IVar="5" Cut="6.5017688274383545e-01" cType="1" res="-1.6326896846294403e-01" rms="4.1987723112106323e-01" purity="2.2553181648254395e-01" nType="0">
          <Node pos="l" depth="2" NCoef="0" IVar="-1" Cut="0.0000000000000000e+00" cType="1" res="-5.9763244353234768e-03" rms="4.7433209419250488e-01" purity="3.1817278265953064e-01" nType="-99"/>
          <Node pos="r" depth="2" NCoef="0" IVar="-1" Cut="0.0000000000000000e+00" cType="1" res="-4.5799739658832550e-02" rms="3.8301795721054077e-01" purity="1.8899852037429810e-01" nType="-99"/>
        </Node>
      </Node>
    </BinaryTree>
    <BinaryTree type="DecisionTree" boostWeight="1.0000000000000000e+00" itree="27">
      <Node pos="s" depth="0" NCoef="0" IVar="1" Cut="2.4997096508741379e-02" cType="1" res="4.8225391656160355e-03" rms="4.5419314503669739e-01" purity="5.0674837827682495e-01" nType="0">
        <Node pos="l" depth="1" NCoef="0" IVar="1" Cut="-1.7586497589945793e-02" cType="1" res="4.0048040449619293e-02" rms="4.4876646995544434e-01" purity="6.0045754909515381e-01" nType="0">
          <Node pos="l" depth="2" NCoef="0" IVar="-1" Cut="0.0000000000000000e+00" cType="1" res="-1.9071083515882492e-02" rms="4.6789705753326416e-01" purity="3.6137378215789795e-01" nType="-99"/>
          <Node pos="r" depth="2" NCoef="0" IVar="-1" Cut="0.0000000000000000e+00" cType="1" res="1.8567120656371117e-02" rms="4.3348848819732666e-01" purity="6.8054020404815674e-01" nType="-99"/>
        </Node>
        <Node pos="r" depth="1" NCoef="0" IVar="7" Cut="5.7281947135925293e-01" cType="1" res="-5.7388376444578171e-02" rms="4.5703798532485962e-01" purity="3.4125086665153503e-01" nType="0">
          <Node pos="l" depth="2" NCoef="0" IVar="-1" Cut="0.0000000000000000e+00" cType="1" res="-2.5494037196040154e-02" rms="4.2584356665611267e-01" purity="2.4459898471832275e-01" nType="-99"/>
          <Node pos="r" depth="2" NCoef="0" IVar="-1" Cut="0.0000000000000000e+00" cType="1" res="5.4509972687810659e-04" rms="4.8152256011962891e-01" purity="4.4614312052726746e-01" nType="-99"/>
        </Node>
      </Node>
    </BinaryTree>
    <BinaryTree type="DecisionTree" boostWeight="1.0000000000000000e+00" itree="28">
      <Node pos="s" depth="0" NCoef="0" IVar="0" Cut="2.5383806228637695e-01" cType="1" res="3.1541223870590329e-04" rms="4.5488950610160828e-01" purity="5.0339001417160034e-01" nType="0">
        <Node pos="l" depth="1" NCoef="0" IVar="5" Cut="7.4225491285324097e-01" cType="1" res="-6.1904743313789368e-02" rms="4.6174129843711853e-01" purity="3.7874203920364380e-01" nType="0">
          <Node pos="l" depth="2" NCoef="0" IVar="-1" Cut="0.0000000000000000e+00" cType="1" res="-2.6770120486617088e-02" rms="4.5310187339782715e-01" purity="2.9721295833587646e-01" nType="-99"/>
          <Node pos="r" depth="2" NCoef="0" IVar="-1" Cut="0.0000000000000000e+00" cType="1" res="9.2009780928492546e-03" rms="4.5808047056198120e-01" purity="5.2355307340621948e-01" nType="-99"/>
        </Node>
        <Node pos="r" depth="1" NCoef="0" IVar="4" Cut="3.0961401462554932e+00" cType="1" res="5.8212660253047943e-02" rms="4.4059711694717407e-01" purity="6.1937767267227173e-01" nType="0">
          <Node pos="l" depth="2" NCoef="0" IVar="-1" Cut="0.0000000000000000e+00" cType="1" res="1.8047755584120750e-02" rms="4.3893030285835266e-01" purity="6.5594553947448730e-01" nType="-99"/>
          <Node pos="r" depth="2" NCoef="0" IVar="-1" Cut="0.0000000000000000e+00" cType="1" res="-3.3130593597888947e-02" rms="3.9847576618194580e-01" purity="2.7094712853431702e-01" nType="-99"/>
        </Node>
      </Node>
    </BinaryTree>
    <BinaryTree type="DecisionTree" boostWeight="1.0000000000000000e+00" itree="29">
      <Node pos="s" depth="0" NCoef="0" IVar="3" Cut="9.1586655378341675e-01" cType="1" res="8.5484841838479042e-03" rms="4.5347917079925537e-01" purity="5.1164323091506958e-01" nType="0">
        <Node pos="l" depth="1" NCoef="0" IVar="1" Cut="4.9619752913713455e-02" cType="1" res="1.9787976518273354e-02" rms="4.5497798919677734e-01" purity="5.3212726116180420e-01" nType="0">
          <Node pos="l" depth="2" NCoef="0" IVar="-1" Cut="0.0000000000000000e+00" cType="1" res="9.4206407666206360e-03" rms="4.5030400156974792e-01" purity="6.0271251201629639e-01" nType="-99"/>
          <Node pos="r" depth="2" NCoef="0" IVar="-1" Cut="0.0000000000000000e+00" cType="1" res="-8.6000189185142517e-03" rms="4.6173948049545288e-01" purity="3.5003229975700378e-01" nType="-99"/>
        </Node>
        <Node pos="r" depth="1" NCoef="0" IVar="-1" Cut="0.0000000000000000e+00" cType="1" res="-3.5963360220193863e-02" rms="3.9532929658889771e-01" purity="2.0978887379169464e-01" nType="-99"/>
      </Node>
    </BinaryTree>
    <BinaryTree type="DecisionTree" boostWeight="1.0000000000000000e+00" itree="30">
      <Node pos="s" depth="0" NCoef="0" IVar="7" Cut="8.1879001855850220e-01" cType="1" res="-4.0157135576009750e-02" rms="4.5605686306953430e-01" purity="4.6500647068023682e-01" nType="0">
        <Node pos="l" depth="1" NCoef="0" IVar="5" Cut="7.0189291238784790e-01" cType="1" res="-4.7221034765243530e-02" rms="4.5760291814804077e-01" purity="4.5734146237373352e-01" nType="0">
          <Node pos="l" depth="2" NCoef="0" IVar="-1" Cut="0.0000000000000000e+00" cType="1" res="-1.5850044786930084e-02" rms="4.5168924331665039e-01" purity="4.2833119630813599e-01" nType="-99"/>
          <Node pos="r" depth="2" NCoef="0" IVar="-1" Cut="0.0000000000000000e+00" cType="1" res="5.4124312009662390e-04" rms="4.6667528152465820e-01" purity="5.2194869518280029e-01" nType="-99"/>
        </Node>
        <Node pos="r" depth="1" NCoef="0" IVar="-1" Cut="0.0000000000000000e+00" cType="1" res="2.3479819297790527e-02" rms="3.9841380715370178e-01" purity="6.1840736865997314e-01" nType="-99"/>
      </Node>
    </BinaryTree>
    <BinaryTree type="DecisionTree" boostWeight="1.0000000000000000e+00" itree="31">
      <Node pos="s" depth="0" NCoef="0" IVar="6" Cut="1.3788440823554993e-01" cType="1" res="-3.4126241225749254e-03" rms="4.5268905162811279e-01" purity="4.9480289220809937e-01" nType="0">
        <Node pos="l" depth="1" NCoef="0" IVar="1" Cut="-1.8552000983618200e-04" cType="1" res="9.7456146031618118e-03" rms="4.5471796393394470e-01" purity="5.2482932806015015e-01" nType="0">
          <Node pos="l" depth="2" NCoef="0" IVar="-1" Cut="0.0000000000000000e+00" cType="1" res="1.4655823819339275e-02" rms="4.4186431169509888e-01" purity="6.0781371593475342e-01" nType="-99"/>
          <Node pos="r" depth="2" NCoef="0" IVar="-1" Cut="0.0000000000000000e+00" cType="1" res="-6.1098635196685791e-03" rms="4.5899945497512817e-01" purity="4.7199642658233643e-01" nType="-99"/>
        </Node>
        <Node pos="r" depth="1" NCoef="0" IVar="3" Cut="6.5877526998519897e-01" cType="1" res="-1.1618465930223465e-01" rms="4.1826689243316650e-01" purity="2.3746296763420105e-01" nType="0">
          <Node pos="l" depth="2" NCoef="0" IVar="-1" Cut="0.0000000000000000e+00" cType="1" res="-4.4551126658916473e-02" rms="3.7383803725242615e-01" purity="1.7899818718433380e-01" nType="-99"/>
          <Node pos="r" depth="2" NCoef="0" IVar="-1" Cut="0.0000000000000000e+00" cType="1" res="-5.0008352845907211e-03" rms="4.4091635942459106e-01" purity="2.9899740219116211e-01" nType="-99"/>
        </Node>
      </Node>
    </BinaryTree>
    <BinaryTree type="DecisionTree" boostWeight="1.0000000000000000e+00" itree="32">
      <Node pos="s" depth="0" NCoef="0" IVar="2" Cut="3.5966122150421143e-01" cType="1" res="1.9269768148660660e-02" rms="4.5293477177619934e-01" purity="5.2302324771881104e-01" nType="0">
        <Node pos="l" depth="1" NCoef="0" IVar="6" Cut="4.9265660345554352e-02" cType="1" res="1.0428763926029205e-01" rms="4.5044067502021790e-01" purity="5.6212669610977173e-01" nType="0">
          <Node pos="l" depth="2" NCoef="0" IVar="-1" Cut="0.0000000000000000e+00" cType="1" res="8.0376844853162766e-03" rms="4.4271004199981689e-01" purity="5.3133445978164673e-01" nType="-99"/>
          <Node pos="r" depth="2" NCoef="0" IVar="-1" Cut="0.0000000000000000e+00" cType="1" res="4.0295258164405823e-02" rms="4.4636416435241699e-01" purity="5.9867608547210693e-01" nType="-99"/>
        </Node>
        <Node pos="r" depth="1" NCoef="0" IVar="6" Cut="6.4608082175254822e-02" cType="1" res="-1.2112521566450596e-02" rms="4.4980958104133606e-01" purity="5.0858914852142334e-01" nType="0">
          <Node pos="l" depth="2" NCoef="0" IVar="-1" Cut="0.0000000000000000e+00" cType="1" res="8.2944575697183609e-03" rms="4.4369909167289734e-01" purity="6.1902570724487305e-01" nType="-99"/>
          <Node pos="r" depth="2" NCoef="0" IVar="-1" Cut="0.0000000000000000e+00" cType="1" res="-2.3170793429017067e-02" rms="4.4696888327598572e-01" purity="2.9346573352813721e-01" nType="-99"/>
        </Node>
      </Node>
    </BinaryTree>
    <BinaryTree type="DecisionTree" boostWeight="1.0000000000000000e+00" itree="33">
      <Node pos="s" depth="0" NCoef="0" IVar="1" Cut="-1.8946577620226890e-04" cType="1" res="2.0416388288140297e-02" rms="4.5527234673500061e-01" purity="5.3003066778182983e-01" nType="0">
        <Node pos="l" depth="1" NCoef="0" IVar="5" Cut="6.2297672033309937e-01" cType="1" res="7.6662153005599976e-02" rms="4.4836282730102539e-01" purity="6.3455718755722046e-01" nType="0">
          <Node pos="l" depth="2" NCoef="0" IVar="-1" Cut="0.0000000000000000e+00" cType="1" res="-1.5137195587158203e-03" rms="4.6859511733055115e-01" purity="5.4041570425033569e-01" nType="-99"/>
          <Node pos="r" depth="2" NCoef="0" IVar="-1" Cut="0.0000000000000000e+00" cType="1" res="3.4193761646747589e-02" rms="4.1210481524467468e-01" purity="7.2561436891555786e-01" nType="-99"/>
        </Node>
        <Node pos="r" depth="1" NCoef="0" IVar="0" Cut="7.0164233446121216e-02" cType="1" res="-1.4067904092371464e-02" rms="4.5603966712951660e-01" purity="4.6594548225402832e-01" nType="0">
          <Node pos="l" depth="2" NCoef="0" IVar="-1" Cut="0.0000000000000000e+00" cType="1" res="-3.0085133388638496e-02" rms="4.1914892196655273e-01" purity="2.4701870977878571e-01" nType="-99"/>
          <Node pos="r" depth="2" NCoef="0" IVar="-1" Cut="0.0000000000000000e+00" cType="1" res="1.2963938061147928e-03" rms="4.5882111787796021e-01" purity="5.0198519229888916e-01" nType="-99"/>
        </Node>
      </Node>
    </BinaryTree>
    <BinaryTree type="DecisionTree" boostWeight="1.0000000000000000e+00" itree="34">
      <Node pos="s" depth="0" NCoef="0" IVar="3" Cut="4.2356091737747192e-01" cType="1" res="-4.9161650240421295e-03" rms="4.4997861981391907e-01" purity="5.0117731094360352e-01" nType="0">
        <Node pos="l" depth="1" NCoef="0" IVar="0" Cut="4.5848041772842407e-01" cType="1" res="9.5961526036262512e-02" rms="4.2578959465026855e-01" purity="6.9951415061950684e-01" nType="0">
          <Node pos="l" depth="2" NCoef="0" IVar="-1" Cut="0.0000000000000000e+00" cType="1" res="5.3591664880514145e-02" rms="3.5099786520004272e-01" purity="8.2588654756546021e-01" nType="-99"/>
          <Node pos="r" depth="2" NCoef="0" IVar="-1" Cut="0.0000000000000000e+00" cType="1" res="4.7439751215279102e-03" rms="4.4388496875762939e-01" purity="6.3034063577651978e-01" nType="-99"/>
        </Node>
        <Node pos="r" depth="1" NCoef="0" IVar="5" Cut="6.1714875698089600e-01" cType="1" res="-3.2753977924585342e-02" rms="4.5248582959175110e-01" purity="4.4644507765769958e-01" nType="0">
          <Node pos="l" depth="2" NCoef="0" IVar="-1" Cut="0.0000000000000000e+00" cType="1" res="-2.6028122752904892e-02" rms="4.3385049700737000e-01" purity="3.0698201060295105e-01" nType="-99"/>
          <Node pos="r" depth="2" NCoef="0" IVar="-1" Cut="0.0000000000000000e+00" cType="1" res="5.5528157390654087e-03" rms="4.5646026730537415e-01" purity="5.4529887437820435e-01" nType="-99"/>
        </Node>
      </Node>
    </BinaryTree>
    <BinaryTree type="DecisionTree" boostWeight="1.0000000000000000e+00" itree="35">
      <Node pos="s" depth="0" NCoef="0" IVar="3" Cut="8.5584640502929688e-01" cType="1" res="-2.9240151867270470e-02" rms="4.5131933689117432e-01" purity="4.6993803977966309e-01" nType="0">
        <Node pos="l" depth="1" NCoef="0" IVar="5" Cut="7.7140587568283081e-01" cType="1" res="-4.4475947506725788e-03" rms="4.5057904720306396e-01" purity="5.0889194011688232e-01" nType="0">
          <Node pos="l" depth="2" NCoef="0" IVar="-1" Cut="0.0000000000000000e+00" cType="1" res="-4.0997196920216084e-03" rms="4.5072910189628601e-01" purity="4.9040004611015320e-01" nType="-99"/>
          <Node pos="r" depth="2" NCoef="0" IVar="-1" Cut="0.0000000000000000e+00" cType="1" res="2.0153706893324852e-02" rms="4.3689993023872375e-01" purity="6.4262211322784424e-01" nType="-99"/>
        </Node>
        <Node pos="r" depth="1" NCoef="0" IVar="6" Cut="6.1581924557685852e-02" cType="1" res="-1.8234464526176453e-01" rms="4.2494159936904907e-01" purity="2.2938159108161926e-01" nType="0">
          <Node pos="l" depth="2" NCoef="0" IVar="-1" Cut="0.0000000000000000e+00" cType="1" res="-5.6849684566259384e-02" rms="4.0695604681968689e-01" purity="1.9621583819389343e-01" nType="-99"/>
          <Node pos="r" depth="2" NCoef="0" IVar="-1" Cut="0.0000000000000000e+00" cType="1" res="-1.1242250911891460e-02" rms="4.1955846548080444e-01" purity="2.8436312079429626e-01" nType="-99"/>
        </Node>
      </Node>
    </BinaryTree>
    <BinaryTree type="DecisionTree" boostWeight="1.0000000000000000e+00" itree="36">
      <Node pos="s" depth="0" NCoef="0" IVar="3" Cut="3.2979610562324524e-01" cType="1" res="-2.6665871962904930e-02" rms="4.5362773537635803e-01" purity="4.7197788953781128e-01" nType="0">
        <Node pos="l" depth="1" NCoef="0" IVar="4" Cut="1.8993840217590332e+00" cType="1" res="1.1293629556894302e-01" rms="3.8989710807800293e-01" purity="7.3567402362823486e-01" nType="0">
          <Node pos="l" depth="2" NCoef="0" IVar="-1" Cut="0.0000000000000000e+00" cType="1" res="8.8315230095759034e-04" rms="4.5836162567138672e-01" purity="5.8367562294006348e-01" nType="-99"/>
          <Node pos="r" depth="2" NCoef="0" IVar="-1" Cut="0.0000000000000000e+00" cType="1" res="4.1728526353836060e-02" rms="3.2745254039764404e-01" purity="8.2426971197128296e-01" nType="-99"/>
        </Node>
        <Node pos="r" depth="1" NCoef="0" IVar="7" Cut="8.0425435304641724e-01" cType="1" res="-3.8190733641386032e-02" rms="4.5658999681472778e-01" purity="4.5020851492881775e-01" nType="0">
          <Node pos="l" depth="2" NCoef="0" IVar="-1" Cut="0.0000000000000000e+00" cType="1" res="-6.5464717335999012e-03" rms="4.5729237794876099e-01" purity="4.6199929714202881e-01" nType="-99"/>
          <Node pos="r" depth="2" NCoef="0" IVar="-1" Cut="0.0000000000000000e+00" cType="1" res="-4.1468013077974319e-02" rms="4.1660350561141968e-01" purity="2.4944809079170227e-01" nType="-99"/>
        </Node>
      </Node>
    </BinaryTree>
    <BinaryTree type="DecisionTree" boostWeight="1.0000000000000000e+00" itree="37">
      <Node pos="s" depth="0" NCoef="0" IVar="3" Cut="8.4767252206802368e-01" cType="1" res="-1.3495874591171741e-02" rms="4.5069622993469238e-01" purity="4.8890352249145508e-01" nType="0">
        <Node pos="l" depth="1" NCoef="0" IVar="5" Cut="7.5039809942245483e-01" cType="1" res="4.6105724759399891e-03" rms="4.5160490274429321e-01" purity="5.2516847848892212e-01" nType="0">
          <Node pos="l" depth="2" NCoef="0" IVar="-1" Cut="0.0000000000000000e+00" cType="1" res="-3.8715205155313015e-03" rms="4.5460101962089539e-01" purity="4.9781623482704163e-01" nType="-99"/>
          <Node pos="r" depth="2" NCoef="0" IVar="-1" Cut="0.0000000000000000e+00" cType="1" res="2.8798548504710197e-02" rms="4.1033113002777100e-01" purity="6.8746823072433472e-01" nType="-99"/>
        </Node>
        <Node pos="r" depth="1" NCoef="0" IVar="6" Cut="4.0028776973485947e-02" cType="1" res="-1.2834605574607849e-01" rms="4.2738309502601624e-01" purity="2.5887295603752136e-01" nType="0">
          <Node pos="l" depth="2" NCoef="0" IVar="-1" Cut="0.0000000000000000e+00" cType="1" res="-9.1403126716613770e-03" rms="4.6478489041328430e-01" purity="3.8084661960601807e-01" nType="-99"/>
          <Node pos="r" depth="2" NCoef="0" IVar="-1" Cut="0.0000000000000000e+00" cType="1" res="-3.7985067814588547e-02" rms="4.0297436714172363e-01" purity="2.0304815471172333e-01" nType="-99"/>
        </Node>
      </Node>
    </BinaryTree>
    <BinaryTree type="DecisionTree" boostWeight="1.0000000000000000e+00" itree="38">
      <Node pos="s" depth="0" NCoef="0" IVar="3" Cut="9.2792648077011108e-01" cType="1" res="-9.2839071294292808e-04" rms="4.5544984936714172e-01" purity="5.0492018461227417e-01" nType="0">
        <Node pos="l" depth="1" NCoef="0" IVar="5" Cut="8.1139731407165527e-01" cType="1" res="1.1135688982903957e-02" rms="4.5535677671432495e-01" purity="5.2398848533630371e-01" nType="0">
          <Node pos="l" depth="2" NCoef="0" IVar="-1" Cut="0.0000000000000000e+00" cType="1" res="-8.4481878730002791e-05" rms="4.5541733503341675e-01" purity="5.1056963205337524e-01" nType="-99"/>
          <Node pos="r" depth="2" NCoef="0" IVar="-1" Cut="0.0000000000000000e+00" cType="1" res="2.8044581413269043e-02" rms="4.3678268790245056e-01" purity="6.6490352153778076e-01" nType="-99"/>
        </Node>
        <Node pos="r" depth="1" NCoef="0" IVar="-1" Cut="0.0000000000000000e+00" cType="1" res="-4.7581426799297333e-02" rms="4.0441212058067322e-01" purity="1.7776140570640564e-01" nType="-99"/>
      </Node>
    </BinaryTree>
    <BinaryTree type="DecisionTree" boostWeight="1.0000000000000000e+00" itree="39">
      <Node pos="s" depth="0" NCoef="0" IVar="3" Cut="8.1982260942459106e-01" cType="1" res="-1.5980156604200602e-03" rms="4.4449916481971741e-01" purity="4.9151790142059326e-01" nType="0">
        <Node pos="l" depth="1" NCoef="0" IVar="1" Cut="1.7256367206573486e-01" cType="1" res="1.9573442637920380e-02" rms="4.4416958093643188e-01" purity="5.3864675760269165e-01" nType="0">
          <Node pos="l" depth="2" NCoef="0" IVar="-1" Cut="0.0000000000000000e+00" cType="1" res="9.4822309911251068e-03" rms="4.4093662500381470e-01" purity="5.9308397769927979e-01" nType="-99"/>
          <Node pos="r" depth="2" NCoef="0" IVar="-1" Cut="0.0000000000000000e+00" cType="1" res="-2.0530967041850090e-02" rms="4.4395798444747925e-01" purity="2.7210697531700134e-01" nType="-99"/>
        </Node>
        <Node pos="r" depth="1" NCoef="0" IVar="6" Cut="4.4987909495830536e-02" cType="1" res="-1.0057848691940308e-01" rms="4.3249988555908203e-01" purity="2.7118211984634399e-01" nType="0">
          <Node pos="l" depth="2" NCoef="0" IVar="-1" Cut="0.0000000000000000e+00" cType="1" res="-3.9546653628349304e-02" rms="4.5575299859046936e-01" purity="2.7208939194679260e-01" nType="-99"/>
          <Node pos="r" depth="2" NCoef="0" IVar="-1" Cut="0.0000000000000000e+00" cType="1" res="-1.1963073164224625e-02" rms="4.0845015645027161e-01" purity="2.7059584856033325e-01" nType="-99"/>
        </Node>
      </Node>
    </BinaryTree>
    <BinaryTree type="DecisionTree" boostWeight="1.0000000000000000e+00" itree="40">
      <Node pos="s" depth="0" NCoef="0" IVar="7" Cut="7.8411906957626343e-01" cType="1" res="7.6931980438530445e-03" rms="4.4579347968101501e-01" purity="4.9945363402366638e-01" nType="0">
        <Node pos="l" depth="1" NCoef="0" IVar="7" Cut="6.5826714038848877e-01" cType="1" res="2.4726396426558495e-02" rms="4.4252997636795044e-01" purity="5.1096493005752563e-01" nType="0">
          <Node pos="l" depth="2" NCoef="0" IVar="-1" Cut="0.0000000000000000e+00" cType="1" res="-1.9313406664878130e-03" rms="4.4964140653610229e-01" purity="4.4564315676689148e-01" nType="-99"/>
          <Node pos="r" depth="2" NCoef="0" IVar="-1" Cut="0.0000000000000000e+00" cType="1" res="2.7771819382905960e-02" rms="4.0686863660812378e-01" purity="6.9760400056838989e-01" nType="-99"/>
        </Node>
        <Node pos="r" depth="1" NCoef="0" IVar="3" Cut="3.4033614397048950e-01" cType="1" res="-1.1793572455644608e-01" rms="4.4965678453445435e-01" purity="4.1455143690109253e-01" nType="0">
          <Node pos="l" depth="2" NCoef="0" IVar="-1" Cut="0.0000000000000000e+00" cType="1" res="3.4903272986412048e-02" rms="3.3182147145271301e-01" purity="8.2332509756088257e-01" nType="-99"/>
          <Node pos="r" depth="2" NCoef="0" IVar="-1" Cut="0.0000000000000000e+00" cType="1" res="-5.0798892974853516e-02" rms="4.5021769404411316e-01" purity="2.5506100058555603e-01" nType="-99"/>
        </Node>
      </Node>
    </BinaryTree>
    <BinaryTree type="DecisionTree" boostWeight="1.0000000000000000e+00" itree="41">
      <Node pos="s" depth="0" NCoef="0" IVar="1" Cut="-2.5066286325454712e-02" cType="1" res="2.1236808970570564e-03" rms="4.4424825906753540e-01" purity="5.0430732965469360e-01" nType="0">
        <Node pos="l" depth="1" NCoef="0" IVar="7" Cut="6.1175084114074707e-01" cType="1" res="-1.4434766769409180e-01" rms="4.2649534344673157e-01" purity="2.7817842364311218e-01" nType="0">
          <Node pos="l" depth="2" NCoef="0" IVar="-1" Cut="0.0000000000000000e+00" cType="1" res="-9.2549882829189301e-03" rms="4.2276996374130249e-01" purity="3.1798610091209412e-01" nType="-99"/>
          <Node pos="r" depth="2" NCoef="0" IVar="-1" Cut="0.0000000000000000e+00" cType="1" res="-5.6129314005374908e-02" rms="3.9550405740737915e-01" purity="2.2946850955486298e-01" nType="-99"/>
        </Node>
        <Node pos="r" depth="1" NCoef="0" IVar="7" Cut="4.6833184361457825e-01" cType="1" res="2.2574581205844879e-02" rms="4.4283309578895569e-01" purity="5.3588038682937622e-01" nType="0">
          <Node pos="l" depth="2" NCoef="0" IVar="-1" Cut="0.0000000000000000e+00" cType="1" res="-1.0781557299196720e-02" rms="4.4962698221206665e-01" purity="3.4569895267486572e-01" nType="-99"/>
          <Node pos="r" depth="2" NCoef="0" IVar="-1" Cut="0.0000000000000000e+00" cType="1" res="1.0742522776126862e-02" rms="4.3789446353912354e-01" purity="6.0173285007476807e-01" nType="-99"/>
        </Node>
      </Node>
    </BinaryTree>
    <BinaryTree type="DecisionTree" boostWeight="1.0000000000000000e+00" itree="42">
      <Node pos="s" depth="0" NCoef="0" IVar="7" Cut="2.7749344706535339e-01" cType="1" res="3.8425482343882322e-03" rms="4.5285916328430176e-01" purity="5.0441461801528931e-01" nType="0">
        <Node pos="l" depth="1" NCoef="0" IVar="-1" Cut="0.0000000000000000e+00" cType="1" res="-2.2539475932717323e-02" rms="3.9766499400138855e-01" purity="1.9935289025306702e-01" nType="-99"/>
        <Node pos="r" depth="1" NCoef="0" IVar="2" Cut="5.4054903984069824e-01" cType="1" res="1.1783378198742867e-02" rms="4.5646315813064575e-01" purity="5.3084963560104370e-01" nType="0">
          <Node pos="l" depth="2" NCoef="0" IVar="-1" Cut="0.0000000000000000e+00" cType="1" res="1.0135565884411335e-02" rms="4.5478880405426025e-01" purity="5.7822316884994507e-01" nType="-99"/>
          <Node pos="r" depth="2" NCoef="0" IVar="-1" Cut="0.0000000000000000e+00" cType="1" res="-5.3050718270242214e-03" rms="4.5554193854331970e-01" purity="4.8234719038009644e-01" nType="-99"/>
        </Node>
      </Node>
    </BinaryTree>
    <BinaryTree type="DecisionTree" boostWeight="1.0000000000000000e+00" itree="43">
      <Node pos="s" depth="0" NCoef="0" IVar="1" Cut="2.5000993162393570e-02" cType="1" res="-7.6428991742432117e-03" rms="4.4736981391906738e-01" purity="4.9628815054893494e-01" nType="0">
        <Node pos="l" depth="1" NCoef="0" IVar="4" Cut="1.5954211950302124e+00" cType="1" res="2.0946174860000610e-02" rms="4.5133030414581299e-01" purity="6.0463339090347290e-01" nType="0">
          <Node pos="l" depth="2" NCoef="0" IVar="-1" Cut="0.0000000000000000e+00" cType="1" res="-1.4103032299317420e-04" rms="4.5887044072151184e-01" purity="5.7167971134185791e-01" nType="-99"/>
          <Node pos="r" depth="2" NCoef="0" IVar="-1" Cut="0.0000000000000000e+00" cType="1" res="2.6497766375541687e-02" rms="4.0658321976661682e-01" purity="7.4128282070159912e-01" nType="-99"/>
        </Node>
        <Node pos="r" depth="1" NCoef="0" IVar="5" Cut="7.6531398296356201e-01" cType="1" res="-5.8055061846971512e-02" rms="4.3575328588485718e-01" purity="3.0523902177810669e-01" nType="0">
          <Node pos="l" depth="2" NCoef="0" IVar="-1" Cut="0.0000000000000000e+00" cType="1" res="-3.8807310629636049e-03" rms="4.3850192427635193e-01" purity="3.3298921585083008e-01" nType="-99"/>
          <Node pos="r" depth="2" NCoef="0" IVar="-1" Cut="0.0000000000000000e+00" cType="1" res="-4.1815523058176041e-02" rms="3.9774158596992493e-01" purity="2.1599571406841278e-01" nType="-99"/>
        </Node>
      </Node>
    </BinaryTree>
    <BinaryTree type="DecisionTree" boostWeight="1.0000000000000000e+00" itree="44">
      <Node pos="s" depth="0" NCoef="0" IVar="1" Cut="3.2493251562118530e-01" cType="1" res="-9.8880808800458908e-03" rms="4.4975417852401733e-01" purity="4.9355044960975647e-01" nType="0">
        <Node pos="l" depth="1" NCoef="0" IVar="2" Cut="8.2592487335205078e-01" cType="1" res="-1.8402518704533577e-02" rms="4.4668164849281311e-01" purity="4.9954643845558167e-01" nType="0">
          <Node pos="l" depth="2" NCoef="0" IVar="-1" Cut="0.0000000000000000e+00" cType="1" res="-5.8674573665484786e-04" rms="4.4654664397239685e-01" purity="5.3238934278488159e-01" nType="-99"/>
          <Node pos="r" depth="2" NCoef="0" IVar="-1" Cut="0.0000000000000000e+00" cType="1" res="-2.9135629534721375e-02" rms="4.3150866031646729e-01" purity="2.6870855689048767e-01" nType="-99"/>
        </Node>
        <Node pos="r" depth="1" NCoef="0" IVar="7" Cut="5.5407172441482544e-01" cType="1" res="1.0371155291795731e-01" rms="4.7450512647628784e-01" purity="4.1355243325233459e-01" nType="0">
          <Node pos="l" depth="2" NCoef="0" IVar="-1" Cut="0.0000000000000000e+00" cType="1" res="1.1980381794273853e-02" rms="4.4315147399902344e-01" purity="2.9682803153991699e-01" nType="-99"/>
          <Node pos="r" depth="2" NCoef="0" IVar="-1" Cut="0.0000000000000000e+00" cType="1" res="3.7473209202289581e-02" rms="4.9536335468292236e-01" purity="5.2286636829376221e-01" nType="-99"/>
        </Node>
      </Node>
    </BinaryTree>
    <BinaryTree type="DecisionTree" boostWeight="1.0000000000000000e+00" itree="45">
      <Node pos="s" depth="0" NCoef="0" IVar="6" Cut="5.5423881858587265e-02" cType="1" res="-3.2532740384340286e-02" rms="4.6418938040733337e-01" purity="4.7947826981544495e-01" nType="0">
        <Node pos="l" depth="1" NCoef="0" IVar="5" Cut="6.6452336311340332e-01" cType="1" res="-7.1068368852138519e-02" rms="4.5483449101448059e-01" purity="5.0127261877059937e-01" nType="0">
          <Node pos="l" depth="2" NCoef="0" IVar="-1" Cut="0.0000000000000000e+00" cType="1" res="-2.2508527617901564e-03" rms="4.3786215782165527e-01" purity="5.4999417066574097e-01" nType="-99"/>
          <Node pos="r" depth="2" NCoef="0" IVar="-1" Cut="0.0000000000000000e+00" cType="1" res="-3.4490585327148438e-02" rms="4.6398571133613586e-01" purity="4.3648681044578552e-01" nType="-99"/>
        </Node>
        <Node pos="r" depth="1" NCoef="0" IVar="6" Cut="6.2610693275928497e-02" cType="1" res="2.7587234973907471e-02" rms="4.7217947244644165e-01" purity="4.4547659158706665e-01" nType="0">
          <Node pos="l" depth="2" NCoef="0" IVar="-1" Cut="0.0000000000000000e+00" cType="1" res="3.7051480263471603e-02" rms="4.2492118477821350e-01" purity="6.3746964931488037e-01" nType="-99"/>
          <Node pos="r" depth="2" NCoef="0" IVar="-1" Cut="0.0000000000000000e+00" cType="1" res="1.3227276504039764e-03" rms="4.7546976804733276e-01" purity="4.1560980677604675e-01" nType="-99"/>
        </Node>
      </Node>
    </BinaryTree>
    <BinaryTree type="DecisionTree" boostWeight="1.0000000000000000e+00" itree="46">
      <Node pos="s" depth="0" NCoef="0" IVar="3" Cut="4.2357522249221802e-01" cType="1" res="-1.4421864412724972e-02" rms="4.5073097944259644e-01" purity="4.8279321193695068e-01" nType="0">
        <Node pos="l" depth="1" NCoef="0" IVar="7" Cut="5.6602931022644043e-01" cType="1" res="8.2315914332866669e-02" rms="4.1160362958908081e-01" purity="6.9613081216812134e-01" nType="0">
          <Node pos="l" depth="2" NCoef="0" IVar="-1" Cut="0.0000000000000000e+00" cType="1" res="-2.2326057776808739e-02" rms="4.7634118795394897e-01" purity="3.2361170649528503e-01" nType="-99"/>
          <Node pos="r" depth="2" NCoef="0" IVar="-1" Cut="0.0000000000000000e+00" cType="1" res="2.8132647275924683e-02" rms="3.8868659734725952e-01" purity="7.6572400331497192e-01" nType="-99"/>
        </Node>
        <Node pos="r" depth="1" NCoef="0" IVar="5" Cut="8.1242829561233521e-01" cType="1" res="-3.7288717925548553e-02" rms="4.5650750398635864e-01" purity="4.3236455321311951e-01" nType="0">
          <Node pos="l" depth="2" NCoef="0" IVar="-1" Cut="0.0000000000000000e+00" cType="1" res="-1.2183133512735367e-02" rms="4.5557531714439392e-01" purity="4.1204118728637695e-01" nType="-99"/>
          <Node pos="r" depth="2" NCoef="0" IVar="-1" Cut="0.0000000000000000e+00" cType="1" res="1.8943233415484428e-02" rms="4.4424527883529663e-01" purity="5.8987355232238770e-01" nType="-99"/>
        </Node>
      </Node>
    </BinaryTree>
    <BinaryTree type="DecisionTree" boostWeight="1.0000000000000000e+00" itree="47">
      <Node pos="s" depth="0" NCoef="0" IVar="3" Cut="6.8812882900238037e-01" cType="1" res="4.1315685957670212e-03" rms="4.4199934601783752e-01" purity="4.9918738007545471e-01" nType="0">
        <Node pos="l" depth="1" NCoef="0" IVar="5" Cut="6.8928563594818115e-01" cType="1" res="2.9398951679468155e-02" rms="4.3743780255317688e-01" purity="5.7038283348083496e-01" nType="0">
          <Node pos="l" depth="2" NCoef="0" IVar="-1" Cut="0.0000000000000000e+00" cType="1" res="6.6257774597033858e-04" rms="4.4344690442085266e-01" purity="5.3550058603286743e-01" nType="-99"/>
          <Node pos="r" depth="2" NCoef="0" IVar="-1" Cut="0.0000000000000000e+00" cType="1" res="3.4184485673904419e-02" rms="3.8425049185752869e-01" purity="7.3434621095657349e-01" nType="-99"/>
        </Node>
        <Node pos="r" depth="1" NCoef="0" IVar="6" Cut="3.3570870757102966e-02" cType="1" res="-5.2176196128129959e-02" rms="4.4688904285430908e-01" purity="3.4053012728691101e-01" nType="0">
          <Node pos="l" depth="2" NCoef="0" IVar="-1" Cut="0.0000000000000000e+00" cType="1" res="-3.6001678556203842e-02" rms="4.1619282960891724e-01" purity="2.8395006060600281e-01" nType="-99"/>
          <Node pos="r" depth="2" NCoef="0" IVar="-1" Cut="0.0000000000000000e+00" cType="1" res="3.2671738881617785e-03" rms="4.5197969675064087e-01" purity="3.7491515278816223e-01" nType="-99"/>
        </Node>
      </Node>
    </BinaryTree>
    <BinaryTree type="DecisionTree" boostWeight="1.0000000000000000e+00" itree="48">
      <Node pos="s" depth="0" NCoef="0" IVar="5" Cut="5.2994889020919800e-01" cType="1" res="1.9798221066594124e-02" rms="4.3897727131843567e-01" purity="5.1511639356613159e-01" nType="0">
        <Node pos="l" depth="1" NCoef="0" IVar="6" Cut="2.4547390639781952e-02" cType="1" res="-5.7038512080907822e-02" rms="4.3274629116058350e-01" purity="3.6259007453918457e-01" nType="0">
          <Node pos="l" depth="2" NCoef="0" IVar="-1" Cut="0.0000000000000000e+00" cType="1" res="1.4711481519043446e-02" rms="4.2093563079833984e-01" purity="5.7782059907913208e-01" nType="-99"/>
          <Node pos="r" depth="2" NCoef="0" IVar="-1" Cut="0.0000000000000000e+00" cType="1" res="-2.5339443236589432e-02" rms="4.2796808481216431e-01" purity="2.7437385916709900e-01" nType="-99"/>
        </Node>
        <Node pos="r" depth="1" NCoef="0" IVar="2" Cut="2.0063291490077972e-01" cType="1" res="4.7104835510253906e-02" rms="4.3793559074401855e-01" purity="5.6932193040847778e-01" nType="0">
          <Node pos="l" depth="2" NCoef="0" IVar="-1" Cut="0.0000000000000000e+00" cType="1" res="-1.4445888809859753e-02" rms="4.3659198284149170e-01" purity="3.3421099185943604e-01" nType="-99"/>
          <Node pos="r" depth="2" NCoef="0" IVar="-1" Cut="0.0000000000000000e+00" cType="1" res="1.6787150874733925e-02" rms="4.3403494358062744e-01" purity="6.2608098983764648e-01" nType="-99"/>
        </Node>
      </Node>
    </BinaryTree>
    <BinaryTree type="DecisionTree" boostWeight="1.0000000000000000e+00" itree="49">
      <Node pos="s" depth="0" NCoef="0" IVar="2" Cut="5.7097762823104858e-01" cType="1" res="3.4570474177598953e-02" rms="4.4520032405853271e-01" purity="5.3686636686325073e-01" nType="0">
        <Node pos="l" depth="1" NCoef="0" IVar="6" Cut="4.9265839159488678e-02" cType="1" res="8.6347050964832306e-02" rms="4.3573608994483948e-01" purity="5.8620357513427734e-01" nType="0">
          <Node pos="l" depth="2" NCoef="0" IVar="-1" Cut="0.0000000000000000e+00" cType="1" res="8.5281375795602798e-03" rms="4.3273079395294189e-01" purity="5.8254420757293701e-01" nType="-99"/>
          <Node pos="r" depth="2" NCoef="0" IVar="-1" Cut="0.0000000000000000e+00" cType="1" res="3.6621101200580597e-02" rms="4.2970752716064453e-01" purity="5.9155791997909546e-01" nType="-99"/>
        </Node>
        <Node pos="r" depth="1" NCoef="0" IVar="6" Cut="6.0933511704206467e-03" cType="1" res="-3.4834198653697968e-02" rms="4.4829538464546204e-01" purity="4.7073158621788025e-01" nType="0">
          <Node pos="l" depth="2" NCoef="0" IVar="-1" Cut="0.0000000000000000e+00" cType="1" res="-6.0319542884826660e-02" rms="4.7857633233070374e-01" purity="4.0440645813941956e-01" nType="-99"/>
          <Node pos="r" depth="2" NCoef="0" IVar="-1" Cut="0.0000000000000000e+00" cType="1" res="-1.2480248697102070e-03" rms="4.3589195609092712e-01" purity="4.8040714859962463e-01" nType="-99"/>
        </Node>
      </Node>
    </BinaryTree>
    <BinaryTree type="DecisionTree" boostWeight="1.0000000000000000e+00" itree="50">
      <Node pos="s" depth="0" NCoef="0" IVar="6" Cut="1.4767338335514069e-01" cType="1" res="1.6354349208995700e-03" rms="4.4295436143875122e-01" purity="5.0903570652008057e-01" nType="0">
        <Node pos="l" depth="1" NCoef="0" IVar="6" Cut="6.5608970820903778e-02" cType="1" res="2.0972408354282379e-02" rms="4.4406312704086304e-01" purity="5.4658579826354980e-01" nType="0">
          <Node pos="l" depth="2" NCoef="0" IVar="-1" Cut="0.0000000000000000e+00" cType="1" res="1.0117575526237488e-02" rms="4.2708075046539307e-01" purity="6.0987544059753418e-01" nType="-99"/>
          <Node pos="r" depth="2" NCoef="0" IVar="-1" Cut="0.0000000000000000e+00" cType="1" res="-7.4233510531485081e-03" rms="4.7903066873550415e-01" purity="3.9066267013549805e-01" nType="-99"/>
        </Node>
        <Node pos="r" depth="1" NCoef="0" IVar="0" Cut="2.3119263350963593e-01" cType="1" res="-1.6078685224056244e-01" rms="3.9802762866020203e-01" purity="1.9363139569759369e-01" nType="0">
          <Node pos="l" depth="2" NCoef="0" IVar="-1" Cut="0.0000000000000000e+00" cType="1" res="-1.1571530252695084e-02" rms="4.1398304700851440e-01" purity="2.5360354781150818e-01" nType="-99"/>
          <Node pos="r" depth="2" NCoef="0" IVar="-1" Cut="0.0000000000000000e+00" cType="1" res="-5.8874525129795074e-02" rms="3.4594377875328064e-01" purity="1.3417904078960419e-01" nType="-99"/>
        </Node>
      </Node>
    </BinaryTree>
    <BinaryTree type="DecisionTree" boostWeight="1.0000000000000000e+00" itree="51">
      <Node pos="s" depth="0" NCoef="0" IVar="6" Cut="1.3536736369132996e-01" cType="1" res="-5.8609712868928909e-03" rms="4.4577699899673462e-01" purity="5.0419491529464722e-01" nType="0">
        <Node pos="l" depth="1" NCoef="0" IVar="1" Cut="2.4880044162273407e-01" cType="1" res="8.0402996391057968e-03" rms="4.4638285040855408e-01" purity="5.3733193874359131e-01" nType="0">
          <Node pos="l" depth="2" NCoef="0" IVar="-1" Cut="0.0000000000000000e+00" cType="1" res="5.1840292289853096e-03" rms="4.4297388195991516e-01" purity="5.7068169116973877e-01" nType="-99"/>
          <Node pos="r" depth="2" NCoef="0" IVar="-1" Cut="0.0000000000000000e+00" cType="1" res="-2.4343449622392654e-02" rms="4.5691895484924316e-01" purity="2.7727732062339783e-01" nType="-99"/>
        </Node>
        <Node pos="r" depth="1" NCoef="0" IVar="6" Cut="1.6206914186477661e-01" cType="1" res="-1.1867911368608475e-01" rms="4.2430448532104492e-01" purity="2.3526537418365479e-01" nType="0">
          <Node pos="l" depth="2" NCoef="0" IVar="-1" Cut="0.0000000000000000e+00" cType="1" res="-4.5825459063053131e-02" rms="3.8340023159980774e-01" purity="1.6954573988914490e-01" nType="-99"/>
          <Node pos="r" depth="2" NCoef="0" IVar="-1" Cut="0.0000000000000000e+00" cType="1" res="-6.4383577555418015e-03" rms="4.4623690843582153e-01" purity="3.0541935563087463e-01" nType="-99"/>
        </Node>
      </Node>
    </BinaryTree>
    <BinaryTree type="DecisionTree" boostWeight="1.0000000000000000e+00" itree="52">
      <Node pos="s" depth="0" NCoef="0" IVar="7" Cut="5.0584059953689575e-01" cType="1" res="-2.1749459207057953e-02" rms="4.4572022557258606e-01" purity="4.8172047734260559e-01" nType="0">
        <Node pos="l" depth="1" NCoef="0" IVar="7" Cut="3.5602205991744995e-01" cType="1" res="-7.5283877551555634e-02" rms="4.3980562686920166e-01" purity="3.2004502415657043e-01" nType="0">
          <Node pos="l" depth="2" NCoef="0" IVar="-1" Cut="0.0000000000000000e+00" cType="1" res="8.0044101923704147e-03" rms="4.3098947405815125e-01" purity="3.3344122767448425e-01" nType="-99"/>
          <Node pos="r" depth="2" NCoef="0" IVar="-1" Cut="0.0000000000000000e+00" cType="1" res="-2.7019251137971878e-02" rms="4.3544149398803711e-01" purity="3.1412759423255920e-01" nType="-99"/>
        </Node>
        <Node pos="r" depth="1" NCoef="0" IVar="7" Cut="5.6962203979492188e-01" cType="1" res="1.1084991507232189e-02" rms="4.4614234566688538e-01" purity="5.8088141679763794e-01" nType="0">
          <Node pos="l" depth="2" NCoef="0" IVar="-1" Cut="0.0000000000000000e+00" cType="1" res="3.1475659459829330e-02" rms="4.3511980772018433e-01" purity="6.6886222362518311e-01" nType="-99"/>
          <Node pos="r" depth="2" NCoef="0" IVar="-1" Cut="0.0000000000000000e+00" cType="1" res="-2.5159572251141071e-03" rms="4.4418996572494507e-01" purity="5.6645554304122925e-01" nType="-99"/>
        </Node>
      </Node>
    </BinaryTree>
    <BinaryTree type="DecisionTree" boostWeight="1.0000000000000000e+00" itree="53">
      <Node pos="s" depth="0" NCoef="0" IVar="4" Cut="2.0804989337921143e+00" cType="1" res="-4.1065253317356110e-03" rms="4.4538480043411255e-01" purity="5.1383429765701294e-01" nType="0">
        <Node pos="l" depth="1" NCoef="0" IVar="3" Cut="3.3200293779373169e-01" cType="1" res="-1.5692157670855522e-02" rms="4.4611218571662903e-01" purity="5.0371992588043213e-01" nType="0">
          <Node pos="l" depth="2" NCoef="0" IVar="-1" Cut="0.0000000000000000e+00" cType="1" res="-4.7646779567003250e-02" rms="4.7189432382583618e-01" purity="4.7096571326255798e-01" nType="-99"/>
          <Node pos="r" depth="2" NCoef="0" IVar="-1" Cut="0.0000000000000000e+00" cType="1" res="-6.2851194525137544e-04" rms="4.4133871793746948e-01" purity="5.0604474544525146e-01" nType="-99"/>
        </Node>
        <Node pos="r" depth="1" NCoef="0" IVar="6" Cut="3.6834266036748886e-02" cType="1" res="7.7810317277908325e-02" rms="4.3141990900039673e-01" purity="5.8534848690032959e-01" nType="0">
          <Node pos="l" depth="2" NCoef="0" IVar="-1" Cut="0.0000000000000000e+00" cType="1" res="4.1650909930467606e-02" rms="3.6801868677139282e-01" purity="7.6544660329818726e-01" nType="-99"/>
          <Node pos="r" depth="2" NCoef="0" IVar="-1" Cut="0.0000000000000000e+00" cType="1" res="-2.5131777510978281e-04" rms="4.6580296754837036e-01" purity="4.2824739217758179e-01" nType="-99"/>
        </Node>
      </Node>
    </BinaryTree>
    <BinaryTree type="DecisionTree" boostWeight="1.0000000000000000e+00" itree="54">
      <Node pos="s" depth="0" NCoef="0" IVar="1" Cut="-2.4969935417175293e-02" cType="1" res="2.0887532737106085e-03" rms="4.4203206896781921e-01" purity="5.1410257816314697e-01" nType="0">
        <Node pos="l" depth="1" NCoef="0" IVar="4" Cut="9.9597465991973877e-01" cType="1" res="-9.4100609421730042e-02" rms="4.5797219872474670e-01" purity="3.4683060646057129e-01" nType="0">
          <Node pos="l" depth="2" NCoef="0" IVar="-1" Cut="0.0000000000000000e+00" cType="1" res="-3.9188403636217117e-02" rms="4.3519148230552673e-01" purity="2.4198821187019348e-01" nType="-99"/>
          <Node pos="r" depth="2" NCoef="0" IVar="-1" Cut="0.0000000000000000e+00" cType="1" res="6.2504541128873825e-03" rms="4.6223679184913635e-01" purity="4.9940907955169678e-01" nType="-99"/>
        </Node>
        <Node pos="r" depth="1" NCoef="0" IVar="0" Cut="4.6161897480487823e-02" cType="1" res="1.5807878226041794e-02" rms="4.3799355626106262e-01" purity="5.3795993328094482e-01" nType="0">
          <Node pos="l" depth="2" NCoef="0" IVar="-1" Cut="0.0000000000000000e+00" cType="1" res="-3.2538380473852158e-02" rms="3.6811316013336182e-01" purity="1.7446263134479523e-01" nType="-99"/>
          <Node pos="r" depth="2" NCoef="0" IVar="-1" Cut="0.0000000000000000e+00" cType="1" res="6.1723696999251842e-03" rms="4.4077059626579285e-01" purity="5.6399261951446533e-01" nType="-99"/>
        </Node>
      </Node>
    </BinaryTree>
    <BinaryTree type="DecisionTree" boostWeight="1.0000000000000000e+00" itree="55">
      <Node pos="s" depth="0" NCoef="0" IVar="6" Cut="2.7712691575288773e-02" cType="1" res="5.1095997914671898e-03" rms="4.4688388705253601e-01" purity="5.0548642873764038e-01" nType="0">
        <Node pos="l" depth="1" NCoef="0" IVar="5" Cut="6.6047894954681396e-01" cType="1" res="-6.2544457614421844e-02" rms="4.3618908524513245e-01" purity="5.2846217155456543e-01" nType="0">
          <Node pos="l" depth="2" NCoef="0" IVar="-1" Cut="0.0000000000000000e+00" cType="1" res="3.2223768066614866e-03" rms="3.9599227905273438e-01" purity="6.0195618867874146e-01" nType="-99"/>
          <Node pos="r" depth="2" NCoef="0" IVar="-1" Cut="0.0000000000000000e+00" cType="1" res="-3.9591729640960693e-02" rms="4.6714022755622864e-01" purity="4.2412438988685608e-01" nType="-99"/>
        </Node>
        <Node pos="r" depth="1" NCoef="0" IVar="6" Cut="1.4540010690689087e-01" cType="1" res="4.6557959169149399e-02" rms="4.4829580187797546e-01" purity="4.9141034483909607e-01" nType="0">
          <Node pos="l" depth="2" NCoef="0" IVar="-1" Cut="0.0000000000000000e+00" cType="1" res="1.6203472390770912e-02" rms="4.5152503252029419e-01" purity="5.4037612676620483e-01" nType="-99"/>
          <Node pos="r" depth="2" NCoef="0" IVar="-1" Cut="0.0000000000000000e+00" cType="1" res="-1.9422871991991997e-02" rms="4.0855389833450317e-01" purity="2.3676395416259766e-01" nType="-99"/>
        </Node>
      </Node>
    </BinaryTree>
    <BinaryTree type="DecisionTree" boostWeight="1.0000000000000000e+00" itree="56">
      <Node pos="s" depth="0" NCoef="0" IVar="6" Cut="1.4767347276210785e-01" cType="1" res="1.7639162018895149e-02" rms="4.5003116130828857e-01" purity="5.3048157691955566e-01" nType="0">
        <Node pos="l" depth="1" NCoef="0" IVar="7" Cut="4.9244454503059387e-01" cType="1" res="2.9861753806471825e-02" rms="4.5215606689453125e-01" purity="5.6333172321319580e-01" nType="0">
          <Node pos="l" depth="2" NCoef="0" IVar="-1" Cut="0.0000000000000000e+00" cType="1" res="2.2924628108739853e-02" rms="4.5481666922569275e-01" purity="4.8871189355850220e-01" nType="-99"/>
          <Node pos="r" depth="2" NCoef="0" IVar="-1" Cut="0.0000000000000000e+00" cType="1" res="1.3169640442356467e-03" rms="4.4872343540191650e-01" purity="5.8985775709152222e-01" nType="-99"/>
        </Node>
        <Node pos="r" depth="1" NCoef="0" IVar="0" Cut="1.9405600428581238e-01" cType="1" res="-9.5022939145565033e-02" rms="4.1326457262039185e-01" purity="2.2768457233905792e-01" nType="0">
          <Node pos="l" depth="2" NCoef="0" IVar="-1" Cut="0.0000000000000000e+00" cType="1" res="7.0341192185878754e-03" rms="4.2333430051803589e-01" purity="3.0039799213409424e-01" nType="-99"/>
          <Node pos="r" depth="2" NCoef="0" IVar="-1" Cut="0.0000000000000000e+00" cType="1" res="-3.6325581371784210e-02" rms="3.9275774359703064e-01" purity="1.8910810351371765e-01" nType="-99"/>
        </Node>
      </Node>
    </BinaryTree>
    <BinaryTree type="DecisionTree" boostWeight="1.0000000000000000e+00" itree="57">
      <Node pos="s" depth="0" NCoef="0" IVar="5" Cut="5.4223060607910156e-01" cType="1" res="2.7233997825533152e-03" rms="4.4370144605636597e-01" purity="5.0943177938461304e-01" nType="0">
        <Node pos="l" depth="1" NCoef="0" IVar="5" Cut="4.9552884697914124e-01" cType="1" res="8.0461159348487854e-02" rms="4.3636274337768555e-01" purity="5.1605075597763062e-01" nType="0">
          <Node pos="l" depth="2" NCoef="0" IVar="-1" Cut="0.0000000000000000e+00" cType="1" res="6.1012348160147667e-03" rms="4.5258799195289612e-01" purity="4.0129885077476501e-01" nType="-99"/>
          <Node pos="r" depth="2" NCoef="0" IVar="-1" Cut="0.0000000000000000e+00" cType="1" res="4.7168072313070297e-02" rms="3.7835019826889038e-01" purity="7.4487769603729248e-01" nType="-99"/>
        </Node>
        <Node pos="r" depth="1" NCoef="0" IVar="1" Cut="2.3744191974401474e-02" cType="1" res="-2.0917242392897606e-02" rms="4.4321370124816895e-01" purity="5.0741893053054810e-01" nType="0">
          <Node pos="l" depth="2" NCoef="0" IVar="-1" Cut="0.0000000000000000e+00" cType="1" res="1.5491081867367029e-03" rms="4.4279664754867554e-01" purity="5.9767234325408936e-01" nType="-99"/>
          <Node pos="r" depth="2" NCoef="0" IVar="-1" Cut="0.0000000000000000e+00" cType="1" res="-1.6694601625204086e-02" rms="4.3914011120796204e-01" purity="3.3335179090499878e-01" nType="-99"/>
        </Node>
      </Node>
    </BinaryTree>
    <BinaryTree type="DecisionTree" boostWeight="1.0000000000000000e+00" itree="58">
      <Node pos="s" depth="0" NCoef="0" IVar="5" Cut="5.8985519409179688e-01" cType="1" res="1.2704489752650261e-02" rms="4.4523891806602478e-01" purity="5.2888667583465576e-01" nType="0">
        <Node pos="l" depth="1" NCoef="0" IVar="3" Cut="3.4176152944564819e-01" cType="1" res="-5.8403257280588150e-02" rms="4.5254051685333252e-01" purity="4.2919230461120605e-01" nType="0">
          <Node pos="l" depth="2" NCoef="0" IVar="-1" Cut="0.0000000000000000e+00" cType="1" res="-3.9673440158367157e-02" rms="4.5035725831985474e-01" purity="5.0871467590332031e-01" nType="-99"/>
          <Node pos="r" depth="2" NCoef="0" IVar="-1" Cut="0.0000000000000000e+00" cType="1" res="-5.9499815106391907e-03" rms="4.4818812608718872e-01" purity="4.0286293625831604e-01" nType="-99"/>
        </Node>
        <Node pos="r" depth="1" NCoef="0" IVar="4" Cut="1.3742922544479370e+00" cType="1" res="6.2330193817615509e-02" rms="4.3321052193641663e-01" purity="5.9846287965774536e-01" nType="0">
          <Node pos="l" depth="2" NCoef="0" IVar="-1" Cut="0.0000000000000000e+00" cType="1" res="1.0055599734187126e-02" rms="4.4280639290809631e-01" purity="5.6645226478576660e-01" nType="-99"/>
          <Node pos="r" depth="2" NCoef="0" IVar="-1" Cut="0.0000000000000000e+00" cType="1" res="5.4522953927516937e-02" rms="2.9708823561668396e-01" purity="8.7155121564865112e-01" nType="-99"/>
        </Node>
      </Node>
    </BinaryTree>
    <BinaryTree type="DecisionTree" boostWeight="1.0000000000000000e+00" itree="59">
      <Node pos="s" depth="0" NCoef="0" IVar="5" Cut="5.5701714754104614e-01" cType="1" res="-1.6605801880359650e-02" rms="4.4504171609878540e-01" purity="4.9718546867370605e-01" nType="0">
        <Node pos="l" depth="1" NCoef="0" IVar="6" Cut="3.0604964122176170e-02" cType="1" res="-8.9876756072044373e-02" rms="4.2245119810104370e-01" purity="3.5856804251670837e-01" nType="0">
          <Node pos="l" depth="2" NCoef="0" IVar="-1" Cut="0.0000000000000000e+00" cType="1" res="4.4579287059605122e-03" rms="4.2067188024520874e-01" purity="5.8053839206695557e-01" nType="-99"/>
          <Node pos="r" depth="2" NCoef="0" IVar="-1" Cut="0.0000000000000000e+00" cType="1" res="-3.3080469816923141e-02" rms="4.1454353928565979e-01" purity="2.6182210445404053e-01" nType="-99"/>
        </Node>
        <Node pos="r" depth="1" NCoef="0" IVar="6" Cut="1.2317584827542305e-02" cType="1" res="2.2371903061866760e-02" rms="4.5178750157356262e-01" purity="5.7092529535293579e-01" nType="0">
          <Node pos="l" depth="2" NCoef="0" IVar="-1" Cut="0.0000000000000000e+00" cType="1" res="3.5843525081872940e-02" rms="3.4561163187026978e-01" purity="7.9348325729370117e-01" nType="-99"/>
          <Node pos="r" depth="2" NCoef="0" IVar="-1" Cut="0.0000000000000000e+00" cType="1" res="1.3128343271091580e-03" rms="4.6193188428878784e-01" purity="5.4054176807403564e-01" nType="-99"/>
        </Node>
      </Node>
    </BinaryTree>
    <BinaryTree type="DecisionTree" boostWeight="1.0000000000000000e+00" itree="60">
      <Node pos="s" depth="0" NCoef="0" IVar="1" Cut="-2.4992140009999275e-02" cType="1" res="2.5127388071268797e-03" rms="4.2681649327278137e-01" purity="5.1298111677169800e-01" nType="0">
        <Node pos="l" depth="1" NCoef="0" IVar="5" Cut="6.4042508602142334e-01" cType="1" res="-1.0344314575195312e-01" rms="4.3561902642250061e-01" purity="3.2363322377204895e-01" nType="0">
          <Node pos="l" depth="2" NCoef="0" IVar="-1" Cut="0.0000000000000000e+00" cType="1" res="-4.1137054562568665e-02" rms="4.1428926587104797e-01" purity="2.2438570857048035e-01" nType="-99"/>
          <Node pos="r" depth="2" NCoef="0" IVar="-1" Cut="0.0000000000000000e+00" cType="1" res="3.3165416680276394e-03" rms="4.4110921025276184e-01" purity="4.7688218951225281e-01" nType="-99"/>
        </Node>
        <Node pos="r" depth="1" NCoef="0" IVar="1" Cut="2.4383189156651497e-02" cType="1" res="1.6623560339212418e-02" rms="4.2363551259040833e-01" purity="5.3819775581359863e-01" nType="0">
          <Node pos="l" depth="2" NCoef="0" IVar="-1" Cut="0.0000000000000000e+00" cType="1" res="1.2946761213243008e-02" rms="4.0907952189445496e-01" purity="6.7707818746566772e-01" nType="-99"/>
          <Node pos="r" depth="2" NCoef="0" IVar="-1" Cut="0.0000000000000000e+00" cType="1" res="-9.9277514964342117e-03" rms="4.3891865015029907e-01" purity="3.2419118285179138e-01" nType="-99"/>
        </Node>
      </Node>
    </BinaryTree>
    <BinaryTree type="DecisionTree" boostWeight="1.0000000000000000e+00" itree="61">
      <Node pos="s" depth="0" NCoef="0" IVar="3" Cut="3.5586559772491455e-01" cType="1" res="-4.1700857691466808e-03" rms="4.4347596168518066e-01" purity="5.0676608085632324e-01" nType="0">
        <Node pos="l" depth="1" NCoef="0" IVar="6" Cut="4.8941940069198608e-02" cType="1" res="-7.7194288372993469e-02" rms="4.2982670664787292e-01" purity="5.4558253288269043e-01" nType="0">
          <Node pos="l" depth="2" NCoef="0" IVar="-1" Cut="0.0000000000000000e+00" cType="1" res="4.8024100251495838e-03" rms="4.1418972611427307e-01" purity="7.2622507810592651e-01" nType="-99"/>
          <Node pos="r" depth="2" NCoef="0" IVar="-1" Cut="0.0000000000000000e+00" cType="1" res="-4.7624371945858002e-02" rms="4.1288238763809204e-01" purity="2.7425238490104675e-01" nType="-99"/>
        </Node>
        <Node pos="r" depth="1" NCoef="0" IVar="3" Cut="5.5468881130218506e-01" cType="1" res="8.7852180004119873e-03" rms="4.4460293650627136e-01" purity="4.9987956881523132e-01" nType="0">
          <Node pos="l" depth="2" NCoef="0" IVar="-1" Cut="0.0000000000000000e+00" cType="1" res="1.4025614596903324e-02" rms="4.2475250363349915e-01" purity="6.3202846050262451e-01" nType="-99"/>
          <Node pos="r" depth="2" NCoef="0" IVar="-1" Cut="0.0000000000000000e+00" cType="1" res="-5.5913641117513180e-03" rms="4.5449885725975037e-01" purity="4.1113910079002380e-01" nType="-99"/>
        </Node>
      </Node>
    </BinaryTree>
    <BinaryTree type="DecisionTree" boostWeight="1.0000000000000000e+00" itree="62">
      <Node pos="s" depth="0" NCoef="0" IVar="5" Cut="8.6035537719726562e-01" cType="1" res="-9.8963966593146324e-04" rms="4.4325664639472961e-01" purity="5.1688057184219360e-01" nType="0">
        <Node pos="l" depth="1" NCoef="0" IVar="0" Cut="5.0268268585205078e-01" cType="1" res="-1.3073442503809929e-02" rms="4.4227144122123718e-01" purity="5.0779348611831665e-01" nType="0">
          <Node pos="l" depth="2" NCoef="0" IVar="-1" Cut="0.0000000000000000e+00" cType="1" res="1.3509795826394111e-04" rms="4.3780535459518433e-01" purity="5.0783967971801758e-01" nType="-99"/>
          <Node pos="r" depth="2" NCoef="0" IVar="-1" Cut="0.0000000000000000e+00" cType="1" res="-2.9610689729452133e-02" rms="4.6236905455589294e-01" purity="5.0741547346115112e-01" nType="-99"/>
        </Node>
        <Node pos="r" depth="1" NCoef="0" IVar="-1" Cut="0.0000000000000000e+00" cType="1" res="4.3068669736385345e-02" rms="4.1321548819541931e-01" purity="6.6220718622207642e-01" nType="-99"/>
      </Node>
    </BinaryTree>
    <BinaryTree type="DecisionTree" boostWeight="1.0000000000000000e+00" itree="63">
      <Node pos="s" depth="0" NCoef="0" IVar="7" Cut="4.9234601855278015e-01" cType="1" res="-8.4507055580615997e-03" rms="4.4156092405319214e-01" purity="5.0584226846694946e-01" nType="0">
        <Node pos="l" depth="1" NCoef="0" IVar="6" Cut="4.9300517886877060e-02" cType="1" res="-6.1413735151290894e-02" rms="4.4024527072906494e-01" purity="3.2734355330467224e-01" nType="0">
          <Node pos="l" depth="2" NCoef="0" IVar="-1" Cut="0.0000000000000000e+00" cType="1" res="-2.8704773634672165e-02" rms="4.2183649539947510e-01" purity="2.9690092802047729e-01" nType="-99"/>
          <Node pos="r" depth="2" NCoef="0" IVar="-1" Cut="0.0000000000000000e+00" cType="1" res="1.8260205397382379e-03" rms="4.4892814755439758e-01" purity="3.5986483097076416e-01" nType="-99"/>
        </Node>
        <Node pos="r" depth="1" NCoef="0" IVar="7" Cut="8.3625280857086182e-01" cType="1" res="1.5899315476417542e-02" rms="4.4003054499626160e-01" purity="5.8790796995162964e-01" nType="0">
          <Node pos="l" depth="2" NCoef="0" IVar="-1" Cut="0.0000000000000000e+00" cType="1" res="1.4753493014723063e-03" rms="4.4145500659942627e-01" purity="5.7948833703994751e-01" nType="-99"/>
          <Node pos="r" depth="2" NCoef="0" IVar="-1" Cut="0.0000000000000000e+00" cType="1" res="5.2793432027101517e-02" rms="3.6004635691642761e-01" purity="7.5560921430587769e-01" nType="-99"/>
        </Node>
      </Node>
    </BinaryTree>
    <BinaryTree type="DecisionTree" boostWeight="1.0000000000000000e+00" itree="64">
      <Node pos="s" depth="0" NCoef="0" IVar="6" Cut="1.5611815452575684e-01" cType="1" res="2.0994996652007103e-02" rms="4.4276550412178040e-01" purity="5.3338527679443359e-01" nType="0">
        <Node pos="l" depth="1" NCoef="0" IVar="5" Cut="8.3699172735214233e-01" cType="1" res="3.0857244506478310e-02" rms="4.4490453600883484e-01" purity="5.6091755628585815e-01" nType="0">
