<?xml version="1.0"?>
<MethodSetup Method="BDT::BDT-0.3_fold7">
  <GeneralInfo>
    <Info name="TMVA Release" value="4.2.1 [262657]"/>
    <Info name="ROOT Release" value="6.32/00 [401408]"/>
    <Info name="Creator" value="htan"/>
    <Info name="Date" value="Fri Aug 16 14:19:05 2024"/>
    <Info name="Host" value="Linux 6772f6b99311 6.5.0-1022-azure #23~22.04.1-Ubuntu SMP Thu May 9 17:59:24 UTC 2024 x86_64 x86_64 x86_64 GNU/Linux"/>
    <Info name="Dir" value="/gluster/home/htan/ZTTBDT"/>
    <Info name="Training events" value="89003"/>
    <Info name="TrainingTime" value="6.72310281e+00"/>
    <Info name="AnalysisType" value="Classification"/>
  </GeneralInfo>
  <Options>
    <Option name="V" modified="Yes">False</Option>
    <Option name="VerbosityLevel" modified="No">Default</Option>
    <Option name="VarTransform" modified="No">None</Option>
    <Option name="H" modified="Yes">False</Option>
    <Option name="CreateMVAPdfs" modified="No">False</Option>
    <Option name="IgnoreNegWeightsInTraining" modified="No">False</Option>
    <Option name="NTrees" modified="Yes">125</Option>
    <Option name="MaxDepth" modified="Yes">2</Option>
    <Option name="MinNodeSize" modified="Yes">3%</Option>
    <Option name="nCuts" modified="Yes">80</Option>
    <Option name="BoostType" modified="Yes">Grad</Option>
    <Option name="AdaBoostR2Loss" modified="No">quadratic</Option>
    <Option name="UseBaggedBoost" modified="Yes">True</Option>
    <Option name="Shrinkage" modified="Yes">1.000000e-01</Option>
    <Option name="AdaBoostBeta" modified="No">5.000000e-01</Option>
    <Option name="UseRandomisedTrees" modified="No">False</Option>
    <Option name="UseNvars" modified="Yes">2</Option>
    <Option name="UsePoissonNvars" modified="No">True</Option>
    <Option name="BaggedSampleFraction" modified="Yes">5.000000e-01</Option>
    <Option name="UseYesNoLeaf" modified="No">True</Option>
    <Option name="NegWeightTreatment" modified="No">pray</Option>
    <Option name="Css" modified="No">1.000000e+00</Option>
    <Option name="Cts_sb" modified="No">1.000000e+00</Option>
    <Option name="Ctb_ss" modified="No">1.000000e+00</Option>
    <Option name="Cbb" modified="No">1.000000e+00</Option>
    <Option name="NodePurityLimit" modified="No">5.000000e-01</Option>
    <Option name="SeparationType" modified="Yes">sdivsqrtsplusb</Option>
    <Option name="RegressionLossFunctionBDTG" modified="No">huber</Option>
    <Option name="HuberQuantile" modified="No">7.000000e-01</Option>
    <Option name="DoBoostMonitor" modified="No">False</Option>
    <Option name="UseFisherCuts" modified="No">False</Option>
    <Option name="MinLinCorrForFisher" modified="No">8.000000e-01</Option>
    <Option name="UseExclusiveVars" modified="No">False</Option>
    <Option name="DoPreselection" modified="No">False</Option>
    <Option name="SigToBkgFraction" modified="No">1.000000e+00</Option>
    <Option name="PruneMethod" modified="No">nopruning</Option>
    <Option name="PruneStrength" modified="No">0.000000e+00</Option>
    <Option name="PruningValFraction" modified="No">5.000000e-01</Option>
    <Option name="SkipNormalization" modified="No">False</Option>
    <Option name="nEventsMin" modified="No">0</Option>
    <Option name="UseBaggedGrad" modified="No">False</Option>
    <Option name="GradBaggingFraction" modified="No">5.000000e-01</Option>
    <Option name="UseNTrainEvents" modified="No">0</Option>
    <Option name="NNodesMax" modified="No">0</Option>
  </Options>
  <Variables NVar="8">
    <Variable VarIndex="0" Expression="m_pT_asymm" Label="m_pT_asymm" Title="m_pT_asymm" Unit="" Internal="m_pT_asymm" Type="F" Min="1.16390038e-05" Max="9.46852446e-01"/>
    <Variable VarIndex="1" Expression="m_sigmaCosDelPhi" Label="m_sigmaCosDelPhi" Title="m_sigmaCosDelPhi" Unit="" Internal="m_sigmaCosDelPhi" Type="F" Min="-4.99867573e-02" Max="1.97457731e+00"/>
    <Variable VarIndex="2" Expression="m_ratioMetTauPT" Label="m_ratioMetTauPT" Title="m_ratioMetTauPT" Unit="" Internal="m_ratioMetTauPT" Type="F" Min="1.13642181e-03" Max="1.19963303e+01"/>
    <Variable VarIndex="3" Expression="m_ratioMuonTauPT" Label="m_ratioMuonTauPT" Title="m_ratioMuonTauPT" Unit="" Internal="m_ratioMuonTauPT" Type="F" Min="2.72991937e-02" Max="9.99976695e-01"/>
    <Variable VarIndex="4" Expression="m_ratioMetMuonPT" Label="m_ratioMetMuonPT" Title="m_ratioMetMuonPT" Unit="" Internal="m_ratioMetMuonPT" Type="F" Min="1.52266631e-03" Max="2.49829426e+01"/>
    <Variable VarIndex="5" Expression="m_ratioMuonTauM3" Label="m_ratioMuonTauM3" Title="m_ratioMuonTauM3" Unit="" Internal="m_ratioMuonTauM3" Type="F" Min="1.83517556e-03" Max="9.96654034e-01"/>
    <Variable VarIndex="6" Expression="m_ratioMuonMetM3" Label="m_ratioMuonMetM3" Title="m_ratioMuonMetM3" Unit="" Internal="m_ratioMuonMetM3" Type="F" Min="1.27644239e-06" Max="2.49402225e-01"/>
    <Variable VarIndex="7" Expression="m_ratioMetTauM3" Label="m_ratioMetTauM3" Title="m_ratioMetTauM3" Unit="" Internal="m_ratioMetTauM3" Type="F" Min="5.56223167e-05" Max="9.77119267e-01"/>
  </Variables>
  <Spectators NSpec="1">
    <Spectator SpecIndex="0" Expression="m_event_number" Label="m_event_number" Title="I" Unit="" Internal="m_event_number" Type="F" Min="1.13000000e+02" Max="1.21478618e+09"/>
  </Spectators>
  <Classes NClass="2">
    <Class Name="Signal" Index="0"/>
    <Class Name="Background" Index="1"/>
  </Classes>
  <Transformations NTransformations="0"/>
  <MVAPdfs/>
  <Weights NTrees="125" AnalysisType="1">
    <BinaryTree type="DecisionTree" boostWeight="1.0000000000000000e+00" itree="0">
      <Node pos="s" depth="0" NCoef="0" IVar="6" Cut="6.4430989325046539e-02" cType="1" res="1.4740181155502796e-02" rms="4.9978268146514893e-01" purity="5.1474016904830933e-01" nType="0">
        <Node pos="l" depth="1" NCoef="0" IVar="7" Cut="5.6756079196929932e-01" cType="1" res="1.2093109637498856e-01" rms="4.8515531420707703e-01" purity="6.2093102931976318e-01" nType="0">
          <Node pos="l" depth="2" NCoef="0" IVar="-1" Cut="0.0000000000000000e+00" cType="1" res="-1.1361977085471153e-02" rms="4.9676215648651123e-01" purity="4.4319012761116028e-01" nType="-99"/>
          <Node pos="r" depth="2" NCoef="0" IVar="-1" Cut="0.0000000000000000e+00" cType="1" res="4.7071650624275208e-02" rms="4.4114226102828979e-01" purity="7.3535829782485962e-01" nType="-99"/>
        </Node>
        <Node pos="r" depth="1" NCoef="0" IVar="5" Cut="7.0001053810119629e-01" cType="1" res="-1.6032589972019196e-01" rms="4.7359856963157654e-01" purity="3.3967408537864685e-01" nType="0">
          <Node pos="l" depth="2" NCoef="0" IVar="-1" Cut="0.0000000000000000e+00" cType="1" res="-4.5170135796070099e-02" rms="4.4608458876609802e-01" purity="2.7414932847023010e-01" nType="-99"/>
          <Node pos="r" depth="2" NCoef="0" IVar="-1" Cut="0.0000000000000000e+00" cType="1" res="-3.8099801167845726e-03" rms="4.9963697791099548e-01" purity="4.8095011711120605e-01" nType="-99"/>
        </Node>
      </Node>
    </BinaryTree>
    <BinaryTree type="DecisionTree" boostWeight="1.0000000000000000e+00" itree="1">
      <Node pos="s" depth="0" NCoef="0" IVar="7" Cut="5.0444918870925903e-01" cType="1" res="1.6556585207581520e-02" rms="4.9540120363235474e-01" purity="5.1940548419952393e-01" nType="0">
        <Node pos="l" depth="1" NCoef="0" IVar="7" Cut="2.2433826327323914e-01" cType="1" res="-1.3950836658477783e-01" rms="4.7725442051887512e-01" purity="3.5248646140098572e-01" nType="0">
          <Node pos="l" depth="2" NCoef="0" IVar="-1" Cut="0.0000000000000000e+00" cType="1" res="-6.4037583768367767e-02" rms="3.7798577547073364e-01" purity="1.7317867279052734e-01" nType="-99"/>
          <Node pos="r" depth="2" NCoef="0" IVar="-1" Cut="0.0000000000000000e+00" cType="1" res="-1.9931299611926079e-02" rms="4.8758140206336975e-01" purity="3.9210793375968933e-01" nType="-99"/>
        </Node>
        <Node pos="r" depth="1" NCoef="0" IVar="2" Cut="7.5887107849121094e-01" cType="1" res="9.9633976817131042e-02" rms="4.8471733927726746e-01" purity="6.0826086997985840e-01" nType="0">
          <Node pos="l" depth="2" NCoef="0" IVar="-1" Cut="0.0000000000000000e+00" cType="1" res="3.5793673247098923e-02" rms="4.5860931277275085e-01" purity="6.8742758035659790e-01" nType="-99"/>
          <Node pos="r" depth="2" NCoef="0" IVar="-1" Cut="0.0000000000000000e+00" cType="1" res="-1.9253268837928772e-02" rms="4.9209874868392944e-01" purity="4.1225767135620117e-01" nType="-99"/>
        </Node>
      </Node>
    </BinaryTree>
    <BinaryTree type="DecisionTree" boostWeight="1.0000000000000000e+00" itree="2">
      <Node pos="s" depth="0" NCoef="0" IVar="6" Cut="2.4514036253094673e-02" cType="1" res="-2.4668557569384575e-02" rms="4.9330323934555054e-01" purity="4.8084539175033569e-01" nType="0">
        <Node pos="l" depth="1" NCoef="0" IVar="1" Cut="1.0541365295648575e-01" cType="1" res="1.1887051165103912e-01" rms="4.7280773520469666e-01" purity="6.3291263580322266e-01" nType="0">
          <Node pos="l" depth="2" NCoef="0" IVar="-1" Cut="0.0000000000000000e+00" cType="1" res="3.6972288042306900e-02" rms="4.4947338104248047e-01" purity="6.9913339614868164e-01" nType="-99"/>
          <Node pos="r" depth="2" NCoef="0" IVar="-1" Cut="0.0000000000000000e+00" cType="1" res="-5.4225288331508636e-02" rms="4.1788163781166077e-01" purity="2.3835951089859009e-01" nType="-99"/>
        </Node>
        <Node pos="r" depth="1" NCoef="0" IVar="5" Cut="5.5451232194900513e-01" cType="1" res="-8.2719400525093079e-02" rms="4.8954427242279053e-01" purity="4.1934555768966675e-01" nType="0">
          <Node pos="l" depth="2" NCoef="0" IVar="-1" Cut="0.0000000000000000e+00" cType="1" res="-4.5032843947410583e-02" rms="4.4841697812080383e-01" purity="2.7875438332557678e-01" nType="-99"/>
          <Node pos="r" depth="2" NCoef="0" IVar="-1" Cut="0.0000000000000000e+00" cType="1" res="-2.7857283130288124e-03" rms="4.9386388063430786e-01" purity="4.8763933777809143e-01" nType="-99"/>
        </Node>
      </Node>
    </BinaryTree>
    <BinaryTree type="DecisionTree" boostWeight="1.0000000000000000e+00" itree="3">
      <Node pos="s" depth="0" NCoef="0" IVar="1" Cut="2.4319468066096306e-02" cType="1" res="-1.5211383812129498e-02" rms="4.8955541849136353e-01" purity="4.8870307207107544e-01" nType="0">
        <Node pos="l" depth="1" NCoef="0" IVar="3" Cut="5.5033397674560547e-01" cType="1" res="8.0310866236686707e-02" rms="4.8112696409225464e-01" purity="5.9159398078918457e-01" nType="0">
          <Node pos="l" depth="2" NCoef="0" IVar="-1" Cut="0.0000000000000000e+00" cType="1" res="3.9248645305633545e-02" rms="4.3748885393142700e-01" purity="7.2034680843353271e-01" nType="-99"/>
          <Node pos="r" depth="2" NCoef="0" IVar="-1" Cut="0.0000000000000000e+00" cType="1" res="-3.7256660871207714e-03" rms="4.9492737650871277e-01" purity="4.8052817583084106e-01" nType="-99"/>
        </Node>
        <Node pos="r" depth="1" NCoef="0" IVar="3" Cut="5.8019679784774780e-01" cType="1" res="-1.6263900697231293e-01" rms="4.6526762843132019e-01" purity="3.2990288734436035e-01" nType="0">
          <Node pos="l" depth="2" NCoef="0" IVar="-1" Cut="0.0000000000000000e+00" cType="1" res="-1.2765075080096722e-02" rms="4.8963204026222229e-01" purity="4.3296280503273010e-01" nType="-99"/>
          <Node pos="r" depth="2" NCoef="0" IVar="-1" Cut="0.0000000000000000e+00" cType="1" res="-5.1429845392704010e-02" rms="4.2008507251739502e-01" purity="2.3259417712688446e-01" nType="-99"/>
        </Node>
      </Node>
    </BinaryTree>
    <BinaryTree type="DecisionTree" boostWeight="1.0000000000000000e+00" itree="4">
      <Node pos="s" depth="0" NCoef="0" IVar="1" Cut="4.9991715699434280e-02" cType="1" res="-2.0739529281854630e-02" rms="4.8605269193649292e-01" purity="4.8536059260368347e-01" nType="0">
        <Node pos="l" depth="1" NCoef="0" IVar="3" Cut="5.2725803852081299e-01" cType="1" res="3.3332914113998413e-02" rms="4.8515814542770386e-01" purity="5.5195963382720947e-01" nType="0">
          <Node pos="l" depth="2" NCoef="0" IVar="-1" Cut="0.0000000000000000e+00" cType="1" res="3.6282684653997421e-02" rms="4.3845576047897339e-01" purity="7.2521591186523438e-01" nType="-99"/>
          <Node pos="r" depth="2" NCoef="0" IVar="-1" Cut="0.0000000000000000e+00" cType="1" res="-1.3156854547560215e-02" rms="4.9036279320716858e-01" purity="4.3442872166633606e-01" nType="-99"/>
        </Node>
        <Node pos="r" depth="1" NCoef="0" IVar="5" Cut="6.9742029905319214e-01" cType="1" res="-1.6082905232906342e-01" rms="4.5967161655426025e-01" purity="3.1281730532646179e-01" nType="0">
          <Node pos="l" depth="2" NCoef="0" IVar="-1" Cut="0.0000000000000000e+00" cType="1" res="-4.1483398526906967e-02" rms="4.4210752844810486e-01" purity="2.6767018437385559e-01" nType="-99"/>
          <Node pos="r" depth="2" NCoef="0" IVar="-1" Cut="0.0000000000000000e+00" cType="1" res="-4.3159355409443378e-03" rms="4.8455753922462463e-01" purity="4.5299062132835388e-01" nType="-99"/>
        </Node>
      </Node>
    </BinaryTree>
    <BinaryTree type="DecisionTree" boostWeight="1.0000000000000000e+00" itree="5">
      <Node pos="s" depth="0" NCoef="0" IVar="3" Cut="7.5502371788024902e-01" cType="1" res="-1.1781483888626099e-02" rms="4.7981062531471252e-01" purity="4.8730254173278809e-01" nType="0">
        <Node pos="l" depth="1" NCoef="0" IVar="1" Cut="2.5009179487824440e-02" cType="1" res="5.0723727792501450e-02" rms="4.7599026560783386e-01" purity="5.5960595607757568e-01" nType="0">
          <Node pos="l" depth="2" NCoef="0" IVar="-1" Cut="0.0000000000000000e+00" cType="1" res="3.1204581260681152e-02" rms="4.5048144459724426e-01" purity="6.8841296434402466e-01" nType="-99"/>
          <Node pos="r" depth="2" NCoef="0" IVar="-1" Cut="0.0000000000000000e+00" cType="1" res="-2.5995675474405289e-02" rms="4.6568673849105835e-01" purity="3.3629289269447327e-01" nType="-99"/>
        </Node>
        <Node pos="r" depth="1" NCoef="0" IVar="7" Cut="3.2817584276199341e-01" cType="1" res="-1.9340199232101440e-01" rms="4.4327199459075928e-01" purity="2.7721148729324341e-01" nType="0">
          <Node pos="l" depth="2" NCoef="0" IVar="-1" Cut="0.0000000000000000e+00" cType="1" res="-6.1972808092832565e-02" rms="3.6039122939109802e-01" purity="1.5577709674835205e-01" nType="-99"/>
          <Node pos="r" depth="2" NCoef="0" IVar="-1" Cut="0.0000000000000000e+00" cType="1" res="-2.4681750684976578e-02" rms="4.7408258914947510e-01" purity="3.5248559713363647e-01" nType="-99"/>
        </Node>
      </Node>
    </BinaryTree>
    <BinaryTree type="DecisionTree" boostWeight="1.0000000000000000e+00" itree="6">
      <Node pos="s" depth="0" NCoef="0" IVar="7" Cut="3.1381648778915405e-01" cType="1" res="2.6794103905558586e-03" rms="4.8094820976257324e-01" purity="5.0652831792831421e-01" nType="0">
        <Node pos="l" depth="1" NCoef="0" IVar="6" Cut="7.8461796045303345e-02" cType="1" res="-2.3768204450607300e-01" rms="4.0169796347618103e-01" purity="2.0090176165103912e-01" nType="0">
          <Node pos="l" depth="2" NCoef="0" IVar="-1" Cut="0.0000000000000000e+00" cType="1" res="-5.8791067451238632e-02" rms="3.6751458048820496e-01" purity="1.5969088673591614e-01" nType="-99"/>
          <Node pos="r" depth="2" NCoef="0" IVar="-1" Cut="0.0000000000000000e+00" cType="1" res="-2.6987237855792046e-02" rms="4.4602718949317932e-01" purity="2.8631719946861267e-01" nType="-99"/>
        </Node>
        <Node pos="r" depth="1" NCoef="0" IVar="6" Cut="6.1542071402072906e-02" cType="1" res="3.6601889878511429e-02" rms="4.8153805732727051e-01" purity="5.4966169595718384e-01" nType="0">
          <Node pos="l" depth="2" NCoef="0" IVar="-1" Cut="0.0000000000000000e+00" cType="1" res="2.2080037742853165e-02" rms="4.6619433164596558e-01" purity="6.4451891183853149e-01" nType="-99"/>
          <Node pos="r" depth="2" NCoef="0" IVar="-1" Cut="0.0000000000000000e+00" cType="1" res="-1.8558340147137642e-02" rms="4.8184320330619812e-01" purity="3.8022625446319580e-01" nType="-99"/>
        </Node>
      </Node>
    </BinaryTree>
    <BinaryTree type="DecisionTree" boostWeight="1.0000000000000000e+00" itree="7">
      <Node pos="s" depth="0" NCoef="0" IVar="3" Cut="5.5716443061828613e-01" cType="1" res="7.7051594853401184e-03" rms="4.7726210951805115e-01" purity="5.0984972715377808e-01" nType="0">
        <Node pos="l" depth="1" NCoef="0" IVar="5" Cut="5.0477463006973267e-01" cType="1" res="9.4611518085002899e-02" rms="4.5898935198783875e-01" purity="6.3264739513397217e-01" nType="0">
          <Node pos="l" depth="2" NCoef="0" IVar="-1" Cut="0.0000000000000000e+00" cType="1" res="-2.3823969066143036e-02" rms="4.7851067781448364e-01" purity="3.8822579383850098e-01" nType="-99"/>
          <Node pos="r" depth="2" NCoef="0" IVar="-1" Cut="0.0000000000000000e+00" cType="1" res="3.9343215525150299e-02" rms="4.1555130481719971e-01" purity="7.4395132064819336e-01" nType="-99"/>
        </Node>
        <Node pos="r" depth="1" NCoef="0" IVar="4" Cut="8.7594681978225708e-01" cType="1" res="-6.6484093666076660e-02" rms="4.8003336787223816e-01" purity="4.0502119064331055e-01" nType="0">
          <Node pos="l" depth="2" NCoef="0" IVar="-1" Cut="0.0000000000000000e+00" cType="1" res="-1.0225609876215458e-03" rms="4.8494374752044678e-01" purity="4.6724113821983337e-01" nType="-99"/>
          <Node pos="r" depth="2" NCoef="0" IVar="-1" Cut="0.0000000000000000e+00" cType="1" res="-4.6944648027420044e-02" rms="4.2504891753196716e-01" purity="2.3863406479358673e-01" nType="-99"/>
        </Node>
      </Node>
    </BinaryTree>
    <BinaryTree type="DecisionTree" boostWeight="1.0000000000000000e+00" itree="8">
      <Node pos="s" depth="0" NCoef="0" IVar="5" Cut="5.8097350597381592e-01" cType="1" res="-1.0078188963234425e-02" rms="4.7644698619842529e-01" purity="4.9180734157562256e-01" nType="0">
        <Node pos="l" depth="1" NCoef="0" IVar="0" Cut="4.3379265069961548e-01" cType="1" res="-1.0270433127880096e-01" rms="4.6618542075157166e-01" purity="3.9733055233955383e-01" nType="0">
          <Node pos="l" depth="2" NCoef="0" IVar="-1" Cut="0.0000000000000000e+00" cType="1" res="-4.0919329971075058e-02" rms="4.4294399023056030e-01" purity="2.8295978903770447e-01" nType="-99"/>
          <Node pos="r" depth="2" NCoef="0" IVar="-1" Cut="0.0000000000000000e+00" cType="1" res="2.5937097147107124e-02" rms="4.3910771608352661e-01" purity="6.6776412725448608e-01" nType="-99"/>
        </Node>
        <Node pos="r" depth="1" NCoef="0" IVar="0" Cut="4.6785879880189896e-02" cType="1" res="4.6969536691904068e-02" rms="4.7373053431510925e-01" purity="5.4999482631683350e-01" nType="0">
          <Node pos="l" depth="2" NCoef="0" IVar="-1" Cut="0.0000000000000000e+00" cType="1" res="-4.5126121491193771e-02" rms="4.0761277079582214e-01" purity="2.1332018077373505e-01" nType="-99"/>
          <Node pos="r" depth="2" NCoef="0" IVar="-1" Cut="0.0000000000000000e+00" cType="1" res="1.5050119720399380e-02" rms="4.7157126665115356e-01" purity="5.8353877067565918e-01" nType="-99"/>
        </Node>
      </Node>
    </BinaryTree>
    <BinaryTree type="DecisionTree" boostWeight="1.0000000000000000e+00" itree="9">
      <Node pos="s" depth="0" NCoef="0" IVar="3" Cut="5.5624777078628540e-01" cType="1" res="4.6657891944050789e-03" rms="4.7257024049758911e-01" purity="5.1035410165786743e-01" nType="0">
        <Node pos="l" depth="1" NCoef="0" IVar="6" Cut="3.9737015962600708e-02" cType="1" res="9.2793881893157959e-02" rms="4.4999545812606812e-01" purity="6.4740633964538574e-01" nType="0">
          <Node pos="l" depth="2" NCoef="0" IVar="-1" Cut="0.0000000000000000e+00" cType="1" res="3.8796555250883102e-02" rms="3.9785706996917725e-01" purity="7.7380132675170898e-01" nType="-99"/>
          <Node pos="r" depth="2" NCoef="0" IVar="-1" Cut="0.0000000000000000e+00" cType="1" res="-2.7152304537594318e-03" rms="4.8199704289436340e-01" purity="5.0203639268875122e-01" nType="-99"/>
        </Node>
        <Node pos="r" depth="1" NCoef="0" IVar="5" Cut="7.6447117328643799e-01" cType="1" res="-6.4550884068012238e-02" rms="4.7831919789314270e-01" purity="4.0271192789077759e-01" nType="0">
          <Node pos="l" depth="2" NCoef="0" IVar="-1" Cut="0.0000000000000000e+00" cType="1" res="-2.8710601851344109e-02" rms="4.6192184090614319e-01" purity="3.2438555359840393e-01" nType="-99"/>
          <Node pos="r" depth="2" NCoef="0" IVar="-1" Cut="0.0000000000000000e+00" cType="1" res="3.6779604852199554e-02" rms="4.4660508632659912e-01" purity="6.5577554702758789e-01" nType="-99"/>
        </Node>
      </Node>
    </BinaryTree>
    <BinaryTree type="DecisionTree" boostWeight="1.0000000000000000e+00" itree="10">
      <Node pos="s" depth="0" NCoef="0" IVar="5" Cut="5.3337222337722778e-01" cType="1" res="-2.5081109255552292e-02" rms="4.7170117497444153e-01" purity="4.8324388265609741e-01" nType="0">
        <Node pos="l" depth="1" NCoef="0" IVar="0" Cut="4.4572782516479492e-01" cType="1" res="-1.7897431552410126e-01" rms="4.4228911399841309e-01" purity="3.0307328701019287e-01" nType="0">
          <Node pos="l" depth="2" NCoef="0" IVar="-1" Cut="0.0000000000000000e+00" cType="1" res="-5.1277089864015579e-02" rms="4.1233977675437927e-01" purity="2.1148036420345306e-01" nType="-99"/>
          <Node pos="r" depth="2" NCoef="0" IVar="-1" Cut="0.0000000000000000e+00" cType="1" res="6.2535279430449009e-03" rms="4.6365252137184143e-01" purity="5.8046621084213257e-01" nType="-99"/>
        </Node>
        <Node pos="r" depth="1" NCoef="0" IVar="0" Cut="2.4917532503604889e-01" cType="1" res="3.7522573024034500e-02" rms="4.6891811490058899e-01" purity="5.5653715133666992e-01" nType="0">
          <Node pos="l" depth="2" NCoef="0" IVar="-1" Cut="0.0000000000000000e+00" cType="1" res="-9.4987684860825539e-03" rms="4.8197564482688904e-01" purity="4.2175781726837158e-01" nType="-99"/>
          <Node pos="r" depth="2" NCoef="0" IVar="-1" Cut="0.0000000000000000e+00" cType="1" res="2.7915839105844498e-02" rms="4.3430086970329285e-01" purity="7.0944064855575562e-01" nType="-99"/>
        </Node>
      </Node>
    </BinaryTree>
    <BinaryTree type="DecisionTree" boostWeight="1.0000000000000000e+00" itree="11">
      <Node pos="s" depth="0" NCoef="0" IVar="6" Cut="2.7613939717411995e-02" cType="1" res="-2.7969423681497574e-02" rms="4.6824195981025696e-01" purity="4.7607183456420898e-01" nType="0">
        <Node pos="l" depth="1" NCoef="0" IVar="1" Cut="2.5261089205741882e-02" cType="1" res="7.1595892310142517e-02" rms="4.4613602757453918e-01" purity="6.3006907701492310e-01" nType="0">
          <Node pos="l" depth="2" NCoef="0" IVar="-1" Cut="0.0000000000000000e+00" cType="1" res="3.1643103808164597e-02" rms="4.1335910558700562e-01" purity="7.3628592491149902e-01" nType="-99"/>
          <Node pos="r" depth="2" NCoef="0" IVar="-1" Cut="0.0000000000000000e+00" cType="1" res="-2.6248749345541000e-02" rms="4.6542441844940186e-01" purity="3.5483360290527344e-01" nType="-99"/>
        </Node>
        <Node pos="r" depth="1" NCoef="0" IVar="3" Cut="6.9645506143569946e-01" cType="1" res="-7.0970050990581512e-02" rms="4.7100940346717834e-01" purity="4.0956291556358337e-01" nType="0">
          <Node pos="l" depth="2" NCoef="0" IVar="-1" Cut="0.0000000000000000e+00" cType="1" res="-5.5828932672739029e-03" rms="4.7483313083648682e-01" purity="4.7730082273483276e-01" nType="-99"/>
          <Node pos="r" depth="2" NCoef="0" IVar="-1" Cut="0.0000000000000000e+00" cType="1" res="-2.9984924942255020e-02" rms="4.5484140515327454e-01" purity="2.9479616880416870e-01" nType="-99"/>
        </Node>
      </Node>
    </BinaryTree>
    <BinaryTree type="DecisionTree" boostWeight="1.0000000000000000e+00" itree="12">
      <Node pos="s" depth="0" NCoef="0" IVar="7" Cut="5.4286873340606689e-01" cType="1" res="-9.8399063572287560e-03" rms="4.6302440762519836e-01" purity="4.8776322603225708e-01" nType="0">
        <Node pos="l" depth="1" NCoef="0" IVar="7" Cut="4.8923081159591675e-01" cType="1" res="-9.3188390135765076e-02" rms="4.6545124053955078e-01" purity="3.5386219620704651e-01" nType="0">
          <Node pos="l" depth="2" NCoef="0" IVar="-1" Cut="0.0000000000000000e+00" cType="1" res="-9.6428291872143745e-03" rms="4.6681994199752808e-01" purity="3.8243883848190308e-01" nType="-99"/>
          <Node pos="r" depth="2" NCoef="0" IVar="-1" Cut="0.0000000000000000e+00" cType="1" res="-4.1113048791885376e-02" rms="4.4339290261268616e-01" purity="2.8699928522109985e-01" nType="-99"/>
        </Node>
        <Node pos="r" depth="1" NCoef="0" IVar="6" Cut="4.5882880687713623e-02" cType="1" res="5.7534035295248032e-02" rms="4.4990605115890503e-01" purity="5.9600085020065308e-01" nType="0">
          <Node pos="l" depth="2" NCoef="0" IVar="-1" Cut="0.0000000000000000e+00" cType="1" res="2.8640214353799820e-02" rms="4.1171884536743164e-01" purity="7.2250622510910034e-01" nType="-99"/>
          <Node pos="r" depth="2" NCoef="0" IVar="-1" Cut="0.0000000000000000e+00" cType="1" res="-6.2949620187282562e-03" rms="4.7489720582962036e-01" purity="4.5148709416389465e-01" nType="-99"/>
        </Node>
      </Node>
    </BinaryTree>
    <BinaryTree type="DecisionTree" boostWeight="1.0000000000000000e+00" itree="13">
      <Node pos="s" depth="0" NCoef="0" IVar="5" Cut="5.1766717433929443e-01" cType="1" res="2.4282159283757210e-02" rms="4.6937057375907898e-01" purity="5.2240610122680664e-01" nType="0">
        <Node pos="l" depth="1" NCoef="0" IVar="7" Cut="7.9618155956268311e-01" cType="1" res="-1.2563522160053253e-01" rms="4.6089589595794678e-01" purity="3.4029334783554077e-01" nType="0">
          <Node pos="l" depth="2" NCoef="0" IVar="-1" Cut="0.0000000000000000e+00" cType="1" res="-3.4176558256149292e-02" rms="4.4932049512863159e-01" purity="2.9857274889945984e-01" nType="-99"/>
          <Node pos="r" depth="2" NCoef="0" IVar="-1" Cut="0.0000000000000000e+00" cType="1" res="9.7341490909457207e-03" rms="4.7504237294197083e-01" purity="5.3508239984512329e-01" nType="-99"/>
        </Node>
        <Node pos="r" depth="1" NCoef="0" IVar="3" Cut="4.8361703753471375e-01" cType="1" res="7.5086005032062531e-02" rms="4.6128401160240173e-01" purity="5.8412027359008789e-01" nType="0">
          <Node pos="l" depth="2" NCoef="0" IVar="-1" Cut="0.0000000000000000e+00" cType="1" res="3.9622146636247635e-02" rms="3.9217722415924072e-01" purity="7.8303545713424683e-01" nType="-99"/>
          <Node pos="r" depth="2" NCoef="0" IVar="-1" Cut="0.0000000000000000e+00" cType="1" res="7.2274324484169483e-03" rms="4.7800600528717041e-01" purity="5.1099491119384766e-01" nType="-99"/>
        </Node>
      </Node>
    </BinaryTree>
    <BinaryTree type="DecisionTree" boostWeight="1.0000000000000000e+00" itree="14">
      <Node pos="s" depth="0" NCoef="0" IVar="1" Cut="1.2311606109142303e-01" cType="1" res="2.7316459454596043e-03" rms="4.6462875604629517e-01" purity="5.1362639665603638e-01" nType="0">
        <Node pos="l" depth="1" NCoef="0" IVar="1" Cut="-1.3664208352565765e-02" cType="1" res="3.1644161790609360e-02" rms="4.6517744660377502e-01" purity="5.6326317787170410e-01" nType="0">
          <Node pos="l" depth="2" NCoef="0" IVar="-1" Cut="0.0000000000000000e+00" cType="1" res="-2.0643254742026329e-02" rms="4.9275001883506775e-01" purity="4.0833756327629089e-01" nType="-99"/>
          <Node pos="r" depth="2" NCoef="0" IVar="-1" Cut="0.0000000000000000e+00" cType="1" res="1.6928164288401604e-02" rms="4.4513186812400818e-01" purity="6.1971324682235718e-01" nType="-99"/>
        </Node>
        <Node pos="r" depth="1" NCoef="0" IVar="6" Cut="6.4627341926097870e-02" cType="1" res="-1.2588290870189667e-01" rms="4.3971607089042664e-01" purity="2.9282176494598389e-01" nType="0">
          <Node pos="l" depth="2" NCoef="0" IVar="-1" Cut="0.0000000000000000e+00" cType="1" res="-4.1853539645671844e-02" rms="3.8966062664985657e-01" purity="2.3360778391361237e-01" nType="-99"/>
          <Node pos="r" depth="2" NCoef="0" IVar="-1" Cut="0.0000000000000000e+00" cType="1" res="-9.1908816248178482e-03" rms="4.7475087642669678e-01" purity="3.5722181200981140e-01" nType="-99"/>
        </Node>
      </Node>
    </BinaryTree>
    <BinaryTree type="DecisionTree" boostWeight="1.0000000000000000e+00" itree="15">
      <Node pos="s" depth="0" NCoef="0" IVar="5" Cut="7.8939634561538696e-01" cType="1" res="-1.0079704225063324e-02" rms="4.6237760782241821e-01" purity="4.9238979816436768e-01" nType="0">
        <Node pos="l" depth="1" NCoef="0" IVar="7" Cut="4.0829643607139587e-01" cType="1" res="-3.4764576703310013e-02" rms="4.5930954813957214e-01" purity="4.7092729806900024e-01" nType="0">
          <Node pos="l" depth="2" NCoef="0" IVar="-1" Cut="0.0000000000000000e+00" cType="1" res="-3.6172691732645035e-02" rms="4.1340497136116028e-01" purity="2.1955353021621704e-01" nType="-99"/>
          <Node pos="r" depth="2" NCoef="0" IVar="-1" Cut="0.0000000000000000e+00" cType="1" res="-1.8590643303468823e-03" rms="4.6320345997810364e-01" purity="5.1961785554885864e-01" nType="-99"/>
        </Node>
        <Node pos="r" depth="1" NCoef="0" IVar="1" Cut="7.1159459650516510e-02" cType="1" res="1.7577540874481201e-01" rms="4.4266685843467712e-01" purity="6.5398329496383667e-01" nType="0">
          <Node pos="l" depth="2" NCoef="0" IVar="-1" Cut="0.0000000000000000e+00" cType="1" res="5.7442579418420792e-02" rms="3.9498010277748108e-01" purity="7.8105092048645020e-01" nType="-99"/>
          <Node pos="r" depth="2" NCoef="0" IVar="-1" Cut="0.0000000000000000e+00" cType="1" res="-2.3343116044998169e-02" rms="4.3593406677246094e-01" purity="3.1162947416305542e-01" nType="-99"/>
        </Node>
      </Node>
    </BinaryTree>
    <BinaryTree type="DecisionTree" boostWeight="1.0000000000000000e+00" itree="16">
      <Node pos="s" depth="0" NCoef="0" IVar="1" Cut="2.4383921176195145e-02" cType="1" res="5.3339391015470028e-03" rms="4.6096745133399963e-01" purity="5.1380676031112671e-01" nType="0">
        <Node pos="l" depth="1" NCoef="0" IVar="6" Cut="2.4367818608880043e-02" cType="1" res="5.1021527498960495e-02" rms="4.5738101005554199e-01" purity="6.0727590322494507e-01" nType="0">
          <Node pos="l" depth="2" NCoef="0" IVar="-1" Cut="0.0000000000000000e+00" cType="1" res="3.5510815680027008e-02" rms="3.8073158264160156e-01" purity="7.9120028018951416e-01" nType="-99"/>
          <Node pos="r" depth="2" NCoef="0" IVar="-1" Cut="0.0000000000000000e+00" cType="1" res="9.2532944108825177e-05" rms="4.8100924491882324e-01" purity="5.2088028192520142e-01" nType="-99"/>
        </Node>
        <Node pos="r" depth="1" NCoef="0" IVar="3" Cut="5.7966148853302002e-01" cType="1" res="-7.3205135762691498e-02" rms="4.5650434494018555e-01" purity="3.5312893986701965e-01" nType="0">
          <Node pos="l" depth="2" NCoef="0" IVar="-1" Cut="0.0000000000000000e+00" cType="1" res="1.0318537242710590e-03" rms="4.7736436128616333e-01" purity="4.7430926561355591e-01" nType="-99"/>
          <Node pos="r" depth="2" NCoef="0" IVar="-1" Cut="0.0000000000000000e+00" cType="1" res="-3.0693052336573601e-02" rms="4.2516702413558960e-01" purity="2.4525113403797150e-01" nType="-99"/>
        </Node>
      </Node>
    </BinaryTree>
    <BinaryTree type="DecisionTree" boostWeight="1.0000000000000000e+00" itree="17">
      <Node pos="s" depth="0" NCoef="0" IVar="7" Cut="4.7049367427825928e-01" cType="1" res="-4.1570678353309631e-02" rms="4.6305975317955017e-01" purity="4.6341958642005920e-01" nType="0">
        <Node pos="l" depth="1" NCoef="0" IVar="5" Cut="4.6854031085968018e-01" cType="1" res="-1.1632488667964935e-01" rms="4.4588541984558105e-01" purity="3.0410060286521912e-01" nType="0">
          <Node pos="l" depth="2" NCoef="0" IVar="-1" Cut="0.0000000000000000e+00" cType="1" res="-5.8407828211784363e-02" rms="3.4078189730644226e-01" purity="1.2346220016479492e-01" nType="-99"/>
          <Node pos="r" depth="2" NCoef="0" IVar="-1" Cut="0.0000000000000000e+00" cType="1" res="-1.7017325386404991e-02" rms="4.6047699451446533e-01" purity="3.4686976671218872e-01" nType="-99"/>
        </Node>
        <Node pos="r" depth="1" NCoef="0" IVar="2" Cut="4.2521479725837708e-01" cType="1" res="-1.1180392466485500e-02" rms="4.6644958853721619e-01" purity="5.2818858623504639e-01" nType="0">
          <Node pos="l" depth="2" NCoef="0" IVar="-1" Cut="0.0000000000000000e+00" cType="1" res="2.6484051719307899e-02" rms="4.4048839807510376e-01" purity="6.7682307958602905e-01" nType="-99"/>
          <Node pos="r" depth="2" NCoef="0" IVar="-1" Cut="0.0000000000000000e+00" cType="1" res="-9.6560064703226089e-03" rms="4.6636763215065002e-01" purity="4.9199685454368591e-01" nType="-99"/>
        </Node>
      </Node>
    </BinaryTree>
    <BinaryTree type="DecisionTree" boostWeight="1.0000000000000000e+00" itree="18">
      <Node pos="s" depth="0" NCoef="0" IVar="5" Cut="5.0538545846939087e-01" cType="1" res="-2.0723603665828705e-03" rms="4.6651709079742432e-01" purity="5.0888001918792725e-01" nType="0">
        <Node pos="l" depth="1" NCoef="0" IVar="3" Cut="3.3975180983543396e-01" cType="1" res="-1.3489559292793274e-01" rms="4.5272597670555115e-01" purity="3.1496763229370117e-01" nType="0">
          <Node pos="l" depth="2" NCoef="0" IVar="-1" Cut="0.0000000000000000e+00" cType="1" res="-5.2886672317981720e-02" rms="4.4210371375083923e-01" purity="3.0654004216194153e-01" nType="-99"/>
          <Node pos="r" depth="2" NCoef="0" IVar="-1" Cut="0.0000000000000000e+00" cType="1" res="-1.7422664910554886e-02" rms="4.4714576005935669e-01" purity="3.1898835301399231e-01" nType="-99"/>
        </Node>
        <Node pos="r" depth="1" NCoef="0" IVar="1" Cut="2.3627497255802155e-02" cType="1" res="3.5341497510671616e-02" rms="4.6350830793380737e-01" purity="5.6350153684616089e-01" nType="0">
          <Node pos="l" depth="2" NCoef="0" IVar="-1" Cut="0.0000000000000000e+00" cType="1" res="1.7288841307163239e-02" rms="4.5212367177009583e-01" purity="6.5217441320419312e-01" nType="-99"/>
          <Node pos="r" depth="2" NCoef="0" IVar="-1" Cut="0.0000000000000000e+00" cType="1" res="-1.1592180468142033e-02" rms="4.7288933396339417e-01" purity="3.8442769646644592e-01" nType="-99"/>
        </Node>
      </Node>
    </BinaryTree>
    <BinaryTree type="DecisionTree" boostWeight="1.0000000000000000e+00" itree="19">
      <Node pos="s" depth="0" NCoef="0" IVar="3" Cut="3.2750830054283142e-01" cType="1" res="-1.9961535930633545e-02" rms="4.6247592568397522e-01" purity="4.8588910698890686e-01" nType="0">
        <Node pos="l" depth="1" NCoef="0" IVar="2" Cut="5.8348113298416138e-01" cType="1" res="1.9612064957618713e-01" rms="3.8058495521545410e-01" purity="7.8243821859359741e-01" nType="0">
          <Node pos="l" depth="2" NCoef="0" IVar="-1" Cut="0.0000000000000000e+00" cType="1" res="1.8856426700949669e-02" rms="4.2813649773597717e-01" purity="6.6760879755020142e-01" nType="-99"/>
          <Node pos="r" depth="2" NCoef="0" IVar="-1" Cut="0.0000000000000000e+00" cType="1" res="6.0115370899438858e-02" rms="3.1765457987785339e-01" purity="8.6791968345642090e-01" nType="-99"/>
        </Node>
        <Node pos="r" depth="1" NCoef="0" IVar="6" Cut="1.5014077723026276e-01" cType="1" res="-3.5833735018968582e-02" rms="4.6397581696510315e-01" purity="4.6410626173019409e-01" nType="0">
          <Node pos="l" depth="2" NCoef="0" IVar="-1" Cut="0.0000000000000000e+00" cType="1" res="-3.8679225835949183e-03" rms="4.6576514840126038e-01" purity="4.8926901817321777e-01" nType="-99"/>
          <Node pos="r" depth="2" NCoef="0" IVar="-1" Cut="0.0000000000000000e+00" cType="1" res="-4.6882476657629013e-02" rms="3.9855340123176575e-01" purity="1.9699649512767792e-01" nType="-99"/>
        </Node>
      </Node>
    </BinaryTree>
    <BinaryTree type="DecisionTree" boostWeight="1.0000000000000000e+00" itree="20">
      <Node pos="s" depth="0" NCoef="0" IVar="6" Cut="9.2054978013038635e-03" cType="1" res="-2.2082153707742691e-02" rms="4.6083840727806091e-01" purity="4.7947290539741516e-01" nType="0">
        <Node pos="l" depth="1" NCoef="0" IVar="1" Cut="8.8962484151124954e-03" cType="1" res="1.5423569083213806e-01" rms="3.6366534233093262e-01" purity="7.3480343818664551e-01" nType="0">
          <Node pos="l" depth="2" NCoef="0" IVar="-1" Cut="0.0000000000000000e+00" cType="1" res="5.1550943404436111e-02" rms="2.9489728808403015e-01" purity="8.7485200166702271e-01" nType="-99"/>
          <Node pos="r" depth="2" NCoef="0" IVar="-1" Cut="0.0000000000000000e+00" cType="1" res="6.8198405206203461e-03" rms="4.3133279681205750e-01" purity="4.9456059932708740e-01" nType="-99"/>
        </Node>
        <Node pos="r" depth="1" NCoef="0" IVar="5" Cut="6.9186335802078247e-01" cType="1" res="-4.0890697389841080e-02" rms="4.6609941124916077e-01" purity="4.5223569869995117e-01" nType="0">
          <Node pos="l" depth="2" NCoef="0" IVar="-1" Cut="0.0000000000000000e+00" cType="1" res="-1.6950676217675209e-02" rms="4.6137008070945740e-01" purity="4.1841471195220947e-01" nType="-99"/>
          <Node pos="r" depth="2" NCoef="0" IVar="-1" Cut="0.0000000000000000e+00" cType="1" res="8.1227459013462067e-03" rms="4.6598353981971741e-01" purity="5.2372086048126221e-01" nType="-99"/>
        </Node>
      </Node>
    </BinaryTree>
    <BinaryTree type="DecisionTree" boostWeight="1.0000000000000000e+00" itree="21">
      <Node pos="s" depth="0" NCoef="0" IVar="5" Cut="5.3397393226623535e-01" cType="1" res="8.1369346007704735e-03" rms="4.5890983939170837e-01" purity="5.1235407590866089e-01" nType="0">
        <Node pos="l" depth="1" NCoef="0" IVar="3" Cut="3.3618894219398499e-01" cType="1" res="-8.9975789189338684e-02" rms="4.4857266545295715e-01" purity="3.5445183515548706e-01" nType="0">
          <Node pos="l" depth="2" NCoef="0" IVar="-1" Cut="0.0000000000000000e+00" cType="1" res="1.8045565113425255e-02" rms="4.2893719673156738e-01" purity="6.5698200464248657e-01" nType="-99"/>
          <Node pos="r" depth="2" NCoef="0" IVar="-1" Cut="0.0000000000000000e+00" cType="1" res="-2.7157405391335487e-02" rms="4.4413369894027710e-01" purity="2.9301524162292480e-01" nType="-99"/>
        </Node>
        <Node pos="r" depth="1" NCoef="0" IVar="0" Cut="1.7535252869129181e-01" cType="1" res="4.5728303492069244e-02" rms="4.5726484060287476e-01" purity="5.7285356521606445e-01" nType="0">
          <Node pos="l" depth="2" NCoef="0" IVar="-1" Cut="0.0000000000000000e+00" cType="1" res="-9.2559130862355232e-03" rms="4.8309940099716187e-01" purity="4.0337300300598145e-01" nType="-99"/>
          <Node pos="r" depth="2" NCoef="0" IVar="-1" Cut="0.0000000000000000e+00" cType="1" res="2.2561050951480865e-02" rms="4.2972186207771301e-01" purity="6.8258529901504517e-01" nType="-99"/>
        </Node>
      </Node>
    </BinaryTree>
    <BinaryTree type="DecisionTree" boostWeight="1.0000000000000000e+00" itree="22">
      <Node pos="s" depth="0" NCoef="0" IVar="3" Cut="2.4344974756240845e-01" cType="1" res="2.8478561434894800e-03" rms="4.6920818090438843e-01" purity="5.1770550012588501e-01" nType="0">
        <Node pos="l" depth="1" NCoef="0" IVar="-1" Cut="0.0000000000000000e+00" cType="1" res="-4.9131542444229126e-02" rms="4.5154759287834167e-01" purity="3.2197597622871399e-01" nType="-99"/>
        <Node pos="r" depth="1" NCoef="0" IVar="7" Cut="2.7621853351593018e-01" cType="1" res="1.2250257655978203e-02" rms="4.6740531921386719e-01" purity="5.2542501688003540e-01" nType="0">
          <Node pos="l" depth="2" NCoef="0" IVar="-1" Cut="0.0000000000000000e+00" cType="1" res="-3.4732945263385773e-02" rms="4.0347582101821899e-01" purity="2.0890389382839203e-01" nType="-99"/>
          <Node pos="r" depth="2" NCoef="0" IVar="-1" Cut="0.0000000000000000e+00" cType="1" res="5.8322902768850327e-03" rms="4.6969258785247803e-01" purity="5.5275887250900269e-01" nType="-99"/>
        </Node>
      </Node>
    </BinaryTree>
    <BinaryTree type="DecisionTree" boostWeight="1.0000000000000000e+00" itree="23">
      <Node pos="s" depth="0" NCoef="0" IVar="7" Cut="6.2730634212493896e-01" cType="1" res="-1.5597712248563766e-02" rms="4.4773995876312256e-01" purity="4.8809742927551270e-01" nType="0">
        <Node pos="l" depth="1" NCoef="0" IVar="0" Cut="5.0199407339096069e-01" cType="1" res="-7.1358703076839447e-02" rms="4.5431008934974670e-01" purity="3.8686910271644592e-01" nType="0">
          <Node pos="l" depth="2" NCoef="0" IVar="-1" Cut="0.0000000000000000e+00" cType="1" res="-1.1726964265108109e-02" rms="4.5383775234222412e-01" purity="4.0027379989624023e-01" nType="-99"/>
          <Node pos="r" depth="2" NCoef="0" IVar="-1" Cut="0.0000000000000000e+00" cType="1" res="-7.7508650720119476e-02" rms="3.4495109319686890e-01" purity="1.4456818997859955e-01" nType="-99"/>
        </Node>
        <Node pos="r" depth="1" NCoef="0" IVar="2" Cut="8.8625383377075195e-01" cType="1" res="5.9884060174226761e-02" rms="4.2724937200546265e-01" purity="6.2512677907943726e-01" nType="0">
          <Node pos="l" depth="2" NCoef="0" IVar="-1" Cut="0.0000000000000000e+00" cType="1" res="2.5071328505873680e-02" rms="4.0177968144416809e-01" purity="7.3057234287261963e-01" nType="-99"/>
          <Node pos="r" depth="2" NCoef="0" IVar="-1" Cut="0.0000000000000000e+00" cType="1" res="-1.9272983074188232e-02" rms="4.6124210953712463e-01" purity="3.2313725352287292e-01" nType="-99"/>
        </Node>
      </Node>
    </BinaryTree>
    <BinaryTree type="DecisionTree" boostWeight="1.0000000000000000e+00" itree="24">
      <Node pos="s" depth="0" NCoef="0" IVar="6" Cut="1.3175627589225769e-01" cType="1" res="-1.6510995104908943e-02" rms="4.5561572909355164e-01" purity="4.8796555399894714e-01" nType="0">
        <Node pos="l" depth="1" NCoef="0" IVar="3" Cut="2.9147365689277649e-01" cType="1" res="6.0137305408716202e-03" rms="4.5722612738609314e-01" purity="5.2768361568450928e-01" nType="0">
          <Node pos="l" depth="2" NCoef="0" IVar="-1" Cut="0.0000000000000000e+00" cType="1" res="5.5227976292371750e-02" rms="3.2595205307006836e-01" purity="8.5684704780578613e-01" nType="-99"/>
          <Node pos="r" depth="2" NCoef="0" IVar="-1" Cut="0.0000000000000000e+00" cType="1" res="-9.3894073506817222e-04" rms="4.5913138985633850e-01" purity="5.1369976997375488e-01" nType="-99"/>
        </Node>
        <Node pos="r" depth="1" NCoef="0" IVar="1" Cut="7.3834083974361420e-02" cType="1" res="-1.7034682631492615e-01" rms="4.1281378269195557e-01" purity="2.1670502424240112e-01" nType="0">
          <Node pos="l" depth="2" NCoef="0" IVar="-1" Cut="0.0000000000000000e+00" cType="1" res="-5.4009705781936646e-02" rms="3.5253039002418518e-01" purity="1.5668158233165741e-01" nType="-99"/>
          <Node pos="r" depth="2" NCoef="0" IVar="-1" Cut="0.0000000000000000e+00" cType="1" res="-1.6117947176098824e-02" rms="4.5188271999359131e-01" purity="2.8453025221824646e-01" nType="-99"/>
        </Node>
      </Node>
    </BinaryTree>
    <BinaryTree type="DecisionTree" boostWeight="1.0000000000000000e+00" itree="25">
      <Node pos="s" depth="0" NCoef="0" IVar="7" Cut="3.1368097662925720e-01" cType="1" res="2.3073893040418625e-02" rms="4.5530417561531067e-01" purity="5.3101146221160889e-01" nType="0">
        <Node pos="l" depth="1" NCoef="0" IVar="6" Cut="9.3540735542774200e-02" cType="1" res="-1.3656717538833618e-01" rms="4.0721136331558228e-01" purity="2.1638742089271545e-01" nType="0">
          <Node pos="l" depth="2" NCoef="0" IVar="-1" Cut="0.0000000000000000e+00" cType="1" res="-4.3345190584659576e-02" rms="3.7238112092018127e-01" purity="1.7214258015155792e-01" nType="-99"/>
          <Node pos="r" depth="2" NCoef="0" IVar="-1" Cut="0.0000000000000000e+00" cType="1" res="-6.6908067092299461e-03" rms="4.4263464212417603e-01" purity="2.9518684744834900e-01" nType="-99"/>
        </Node>
        <Node pos="r" depth="1" NCoef="0" IVar="5" Cut="7.0589768886566162e-01" cType="1" res="4.6100247651338577e-02" rms="4.5725139975547791e-01" purity="5.7639229297637939e-01" nType="0">
          <Node pos="l" depth="2" NCoef="0" IVar="-1" Cut="0.0000000000000000e+00" cType="1" res="2.6449870783835649e-03" rms="4.5702767372131348e-01" purity="5.4012131690979004e-01" nType="-99"/>
          <Node pos="r" depth="2" NCoef="0" IVar="-1" Cut="0.0000000000000000e+00" cType="1" res="2.9615050181746483e-02" rms="4.4419705867767334e-01" purity="6.7756968736648560e-01" nType="-99"/>
        </Node>
      </Node>
    </BinaryTree>
    <BinaryTree type="DecisionTree" boostWeight="1.0000000000000000e+00" itree="26">
      <Node pos="s" depth="0" NCoef="0" IVar="6" Cut="9.2307822778820992e-03" cType="1" res="1.0697962716221809e-02" rms="4.5905688405036926e-01" purity="5.2838790416717529e-01" nType="0">
        <Node pos="l" depth="1" NCoef="0" IVar="4" Cut="8.1561118364334106e-01" cType="1" res="1.9236142933368683e-01" rms="3.2811599969863892e-01" purity="8.2352441549301147e-01" nType="0">
          <Node pos="l" depth="2" NCoef="0" IVar="-1" Cut="0.0000000000000000e+00" cType="1" res="2.5024199858307838e-02" rms="3.9689934253692627e-01" purity="6.6943860054016113e-01" nType="-99"/>
          <Node pos="r" depth="2" NCoef="0" IVar="-1" Cut="0.0000000000000000e+00" cType="1" res="5.8494415134191513e-02" rms="2.7203980088233948e-01" purity="9.1090923547744751e-01" nType="-99"/>
        </Node>
        <Node pos="r" depth="1" NCoef="0" IVar="2" Cut="4.7427955269813538e-01" cType="1" res="-1.0518644936382771e-02" rms="4.6740430593490601e-01" purity="4.9391871690750122e-01" nType="0">
          <Node pos="l" depth="2" NCoef="0" IVar="-1" Cut="0.0000000000000000e+00" cType="1" res="1.1359236203134060e-02" rms="4.6269401907920837e-01" purity="5.3235042095184326e-01" nType="-99"/>
          <Node pos="r" depth="2" NCoef="0" IVar="-1" Cut="0.0000000000000000e+00" cType="1" res="-1.2209975160658360e-02" rms="4.6546822786331177e-01" purity="4.6617546677589417e-01" nType="-99"/>
        </Node>
      </Node>
    </BinaryTree>
    <BinaryTree type="DecisionTree" boostWeight="1.0000000000000000e+00" itree="27">
      <Node pos="s" depth="0" NCoef="0" IVar="5" Cut="7.7470397949218750e-01" cType="1" res="4.5485286973416805e-03" rms="4.6387958526611328e-01" purity="5.2707481384277344e-01" nType="0">
        <Node pos="l" depth="1" NCoef="0" IVar="7" Cut="6.8382215499877930e-01" cType="1" res="-1.3650173321366310e-02" rms="4.6254998445510864e-01" purity="5.0677436590194702e-01" nType="0">
          <Node pos="l" depth="2" NCoef="0" IVar="-1" Cut="0.0000000000000000e+00" cType="1" res="-8.7498174980282784e-03" rms="4.7407847642898560e-01" purity="4.4803434610366821e-01" nType="-99"/>
          <Node pos="r" depth="2" NCoef="0" IVar="-1" Cut="0.0000000000000000e+00" cType="1" res="8.4042241796851158e-03" rms="4.3551576137542725e-01" purity="6.1761391162872314e-01" nType="-99"/>
        </Node>
        <Node pos="r" depth="1" NCoef="0" IVar="3" Cut="7.3754084110260010e-01" cType="1" res="1.1045663803815842e-01" rms="4.5739349722862244e-01" purity="6.4521437883377075e-01" nType="0">
          <Node pos="l" depth="2" NCoef="0" IVar="-1" Cut="0.0000000000000000e+00" cType="1" res="5.4071672260761261e-02" rms="3.3579796552658081e-01" purity="8.5329139232635498e-01" nType="-99"/>
          <Node pos="r" depth="2" NCoef="0" IVar="-1" Cut="0.0000000000000000e+00" cType="1" res="5.7823723182082176e-03" rms="4.9888676404953003e-01" purity="5.2045351266860962e-01" nType="-99"/>
        </Node>
      </Node>
    </BinaryTree>
    <BinaryTree type="DecisionTree" boostWeight="1.0000000000000000e+00" itree="28">
      <Node pos="s" depth="0" NCoef="0" IVar="1" Cut="-2.4992140009999275e-02" cType="1" res="-2.4010471999645233e-02" rms="4.5897233486175537e-01" purity="4.8561814427375793e-01" nType="0">
        <Node pos="l" depth="1" NCoef="0" IVar="7" Cut="6.2157869338989258e-01" cType="1" res="-1.3921402394771576e-01" rms="4.6519353985786438e-01" purity="3.3476510643959045e-01" nType="0">
          <Node pos="l" depth="2" NCoef="0" IVar="-1" Cut="0.0000000000000000e+00" cType="1" res="-2.1339450031518936e-03" rms="4.5944654941558838e-01" purity="4.0779268741607666e-01" nType="-99"/>
          <Node pos="r" depth="2" NCoef="0" IVar="-1" Cut="0.0000000000000000e+00" cType="1" res="-5.7155098766088486e-02" rms="4.2982119321823120e-01" purity="2.5617253780364990e-01" nType="-99"/>
        </Node>
        <Node pos="r" depth="1" NCoef="0" IVar="0" Cut="2.3382356762886047e-01" cType="1" res="-9.8056253045797348e-03" rms="4.5618906617164612e-01" purity="5.0421869754791260e-01" nType="0">
          <Node pos="l" depth="2" NCoef="0" IVar="-1" Cut="0.0000000000000000e+00" cType="1" res="-1.4356823638081551e-02" rms="4.6465012431144714e-01" purity="3.7916445732116699e-01" nType="-99"/>
          <Node pos="r" depth="2" NCoef="0" IVar="-1" Cut="0.0000000000000000e+00" cType="1" res="7.6550687663257122e-03" rms="4.4466647505760193e-01" purity="5.9951347112655640e-01" nType="-99"/>
        </Node>
      </Node>
    </BinaryTree>
    <BinaryTree type="DecisionTree" boostWeight="1.0000000000000000e+00" itree="29">
      <Node pos="s" depth="0" NCoef="0" IVar="1" Cut="-2.5271331891417503e-02" cType="1" res="-6.6075096838176250e-03" rms="4.5097965002059937e-01" purity="4.8953488469123840e-01" nType="0">
        <Node pos="l" depth="1" NCoef="0" IVar="1" Cut="-3.5335551947355270e-02" cType="1" res="-1.4211720228195190e-01" rms="4.6085360646247864e-01" purity="3.1618750095367432e-01" nType="0">
          <Node pos="l" depth="2" NCoef="0" IVar="-1" Cut="0.0000000000000000e+00" cType="1" res="3.5169841721653938e-03" rms="4.8924523591995239e-01" purity="4.7891512513160706e-01" nType="-99"/>
          <Node pos="r" depth="2" NCoef="0" IVar="-1" Cut="0.0000000000000000e+00" cType="1" res="-5.4117023944854736e-02" rms="4.0267559885978699e-01" purity="1.9987949728965759e-01" nType="-99"/>
        </Node>
        <Node pos="r" depth="1" NCoef="0" IVar="1" Cut="9.6719019114971161e-02" cType="1" res="1.3759923167526722e-02" rms="4.4593113660812378e-01" purity="5.1558935642242432e-01" nType="0">
          <Node pos="l" depth="2" NCoef="0" IVar="-1" Cut="0.0000000000000000e+00" cType="1" res="9.5032434910535812e-03" rms="4.4284522533416748e-01" purity="5.8557027578353882e-01" nType="-99"/>
          <Node pos="r" depth="2" NCoef="0" IVar="-1" Cut="0.0000000000000000e+00" cType="1" res="-1.5918288379907608e-02" rms="4.4400081038475037e-01" purity="3.1117367744445801e-01" nType="-99"/>
        </Node>
      </Node>
    </BinaryTree>
    <BinaryTree type="DecisionTree" boostWeight="1.0000000000000000e+00" itree="30">
      <Node pos="s" depth="0" NCoef="0" IVar="7" Cut="5.5399155616760254e-01" cType="1" res="-1.7693301662802696e-02" rms="4.5471706986427307e-01" purity="4.8964521288871765e-01" nType="0">
        <Node pos="l" depth="1" NCoef="0" IVar="3" Cut="8.9510613679885864e-01" cType="1" res="-8.3968646824359894e-02" rms="4.5675945281982422e-01" purity="3.5219064354896545e-01" nType="0">
          <Node pos="l" depth="2" NCoef="0" IVar="-1" Cut="0.0000000000000000e+00" cType="1" res="-1.2968529015779495e-02" rms="4.6696314215660095e-01" purity="3.8676029443740845e-01" nType="-99"/>
          <Node pos="r" depth="2" NCoef="0" IVar="-1" Cut="0.0000000000000000e+00" cType="1" res="-4.3267734348773956e-02" rms="3.8452613353729248e-01" purity="1.8554905056953430e-01" nType="-99"/>
        </Node>
        <Node pos="r" depth="1" NCoef="0" IVar="7" Cut="5.7479816675186157e-01" cType="1" res="3.4648582339286804e-02" rms="4.4619360566139221e-01" purity="5.9820193052291870e-01" nType="0">
          <Node pos="l" depth="2" NCoef="0" IVar="-1" Cut="0.0000000000000000e+00" cType="1" res="6.7217089235782623e-02" rms="3.6199223995208740e-01" purity="8.4450912475585938e-01" nType="-99"/>
          <Node pos="r" depth="2" NCoef="0" IVar="-1" Cut="0.0000000000000000e+00" cType="1" res="4.2635239660739899e-03" rms="4.4557780027389526e-01" purity="5.8390682935714722e-01" nType="-99"/>
        </Node>
      </Node>
    </BinaryTree>
    <BinaryTree type="DecisionTree" boostWeight="1.0000000000000000e+00" itree="31">
      <Node pos="s" depth="0" NCoef="0" IVar="1" Cut="2.4709179997444153e-02" cType="1" res="1.4478800818324089e-02" rms="4.5001354813575745e-01" purity="5.2024877071380615e-01" nType="0">
        <Node pos="l" depth="1" NCoef="0" IVar="6" Cut="2.1077500656247139e-02" cType="1" res="5.5275436490774155e-02" rms="4.4587016105651855e-01" purity="6.2491762638092041e-01" nType="0">
          <Node pos="l" depth="2" NCoef="0" IVar="-1" Cut="0.0000000000000000e+00" cType="1" res="4.0872801095247269e-02" rms="3.3891564607620239e-01" purity="8.4647035598754883e-01" nType="-99"/>
          <Node pos="r" depth="2" NCoef="0" IVar="-1" Cut="0.0000000000000000e+00" cType="1" res="3.3789938315749168e-03" rms="4.7222194075584412e-01" purity="5.4533243179321289e-01" nType="-99"/>
        </Node>
        <Node pos="r" depth="1" NCoef="0" IVar="4" Cut="1.8545728921890259e+00" cType="1" res="-5.5659998208284378e-02" rms="4.4845631718635559e-01" purity="3.4029901027679443e-01" nType="0">
          <Node pos="l" depth="2" NCoef="0" IVar="-1" Cut="0.0000000000000000e+00" cType="1" res="-1.8553515896201134e-02" rms="4.3744376301765442e-01" purity="3.1320151686668396e-01" nType="-99"/>
          <Node pos="r" depth="2" NCoef="0" IVar="-1" Cut="0.0000000000000000e+00" cType="1" res="2.0288258790969849e-02" rms="4.7694525122642517e-01" purity="4.8487776517868042e-01" nType="-99"/>
        </Node>
      </Node>
    </BinaryTree>
    <BinaryTree type="DecisionTree" boostWeight="1.0000000000000000e+00" itree="32">
      <Node pos="s" depth="0" NCoef="0" IVar="5" Cut="5.5775547027587891e-01" cType="1" res="1.3211459852755070e-02" rms="4.4899958372116089e-01" purity="5.2093863487243652e-01" nType="0">
        <Node pos="l" depth="1" NCoef="0" IVar="3" Cut="4.0029114484786987e-01" cType="1" res="-6.5836146473884583e-02" rms="4.5161753892898560e-01" purity="3.8790628314018250e-01" nType="0">
          <Node pos="l" depth="2" NCoef="0" IVar="-1" Cut="0.0000000000000000e+00" cType="1" res="1.0502659715712070e-02" rms="4.4540318846702576e-01" purity="6.4588868618011475e-01" nType="-99"/>
          <Node pos="r" depth="2" NCoef="0" IVar="-1" Cut="0.0000000000000000e+00" cType="1" res="-2.5162270292639732e-02" rms="4.4619882106781006e-01" purity="2.8345862030982971e-01" nType="-99"/>
        </Node>
        <Node pos="r" depth="1" NCoef="0" IVar="0" Cut="1.7537556588649750e-01" cType="1" res="5.2231699228286743e-02" rms="4.4252651929855347e-01" purity="5.8660727739334106e-01" nType="0">
          <Node pos="l" depth="2" NCoef="0" IVar="-1" Cut="0.0000000000000000e+00" cType="1" res="-6.7769084125757217e-03" rms="4.7590059041976929e-01" purity="3.9934864640235901e-01" nType="-99"/>
          <Node pos="r" depth="2" NCoef="0" IVar="-1" Cut="0.0000000000000000e+00" cType="1" res="2.5717435404658318e-02" rms="4.0571674704551697e-01" purity="7.2323125600814819e-01" nType="-99"/>
        </Node>
      </Node>
    </BinaryTree>
    <BinaryTree type="DecisionTree" boostWeight="1.0000000000000000e+00" itree="33">
      <Node pos="s" depth="0" NCoef="0" IVar="5" Cut="6.9186335802078247e-01" cType="1" res="1.6599519178271294e-02" rms="4.4465878605842590e-01" purity="5.2308923006057739e-01" nType="0">
        <Node pos="l" depth="1" NCoef="0" IVar="1" Cut="-2.5084115564823151e-02" cType="1" res="-9.4903390854597092e-03" rms="4.4467893242835999e-01" purity="4.9112337827682495e-01" nType="0">
          <Node pos="l" depth="2" NCoef="0" IVar="-1" Cut="0.0000000000000000e+00" cType="1" res="-2.6874007657170296e-02" rms="4.3304231762886047e-01" purity="2.9039207100868225e-01" nType="-99"/>
          <Node pos="r" depth="2" NCoef="0" IVar="-1" Cut="0.0000000000000000e+00" cType="1" res="1.9656843505799770e-03" rms="4.4391608238220215e-01" purity="5.2348613739013672e-01" nType="-99"/>
        </Node>
        <Node pos="r" depth="1" NCoef="0" IVar="1" Cut="2.2310180589556694e-02" cType="1" res="7.6367840170860291e-02" rms="4.3880376219749451e-01" purity="5.9631860256195068e-01" nType="0">
          <Node pos="l" depth="2" NCoef="0" IVar="-1" Cut="0.0000000000000000e+00" cType="1" res="3.2955732196569443e-02" rms="4.1987365484237671e-01" purity="7.3090845346450806e-01" nType="-99"/>
          <Node pos="r" depth="2" NCoef="0" IVar="-1" Cut="0.0000000000000000e+00" cType="1" res="-1.0883158072829247e-02" rms="4.4191184639930725e-01" purity="3.6545863747596741e-01" nType="-99"/>
        </Node>
      </Node>
    </BinaryTree>
    <BinaryTree type="DecisionTree" boostWeight="1.0000000000000000e+00" itree="34">
      <Node pos="s" depth="0" NCoef="0" IVar="6" Cut="7.3635049164295197e-02" cType="1" res="-3.1372811645269394e-02" rms="4.4270288944244385e-01" purity="4.6881434321403503e-01" nType="0">
        <Node pos="l" depth="1" NCoef="0" IVar="7" Cut="5.0311565399169922e-01" cType="1" res="3.2875838223844767e-03" rms="4.2931100726127625e-01" purity="5.4069834947586060e-01" nType="0">
          <Node pos="l" depth="2" NCoef="0" IVar="-1" Cut="0.0000000000000000e+00" cType="1" res="-2.0266635343432426e-02" rms="4.2228594422340393e-01" purity="3.1589844822883606e-01" nType="-99"/>
          <Node pos="r" depth="2" NCoef="0" IVar="-1" Cut="0.0000000000000000e+00" cType="1" res="1.1601793579757214e-02" rms="4.2513406276702881e-01" purity="6.5477550029754639e-01" nType="-99"/>
        </Node>
        <Node pos="r" depth="1" NCoef="0" IVar="1" Cut="2.9619929194450378e-01" cType="1" res="-1.0585563629865646e-01" rms="4.6146675944328308e-01" purity="3.1434035301208496e-01" nType="0">
          <Node pos="l" depth="2" NCoef="0" IVar="-1" Cut="0.0000000000000000e+00" cType="1" res="-2.9392141848802567e-02" rms="4.5046943426132202e-01" purity="2.9810342192649841e-01" nType="-99"/>
          <Node pos="r" depth="2" NCoef="0" IVar="-1" Cut="0.0000000000000000e+00" cType="1" res="1.9895737990736961e-02" rms="4.8117330670356750e-01" purity="4.1171482205390930e-01" nType="-99"/>
        </Node>
      </Node>
    </BinaryTree>
    <BinaryTree type="DecisionTree" boostWeight="1.0000000000000000e+00" itree="35">
      <Node pos="s" depth="0" NCoef="0" IVar="5" Cut="7.6136106252670288e-01" cType="1" res="-9.0643120929598808e-03" rms="4.4910824298858643e-01" purity="4.9943324923515320e-01" nType="0">
        <Node pos="l" depth="1" NCoef="0" IVar="2" Cut="4.0379163622856140e-01" cType="1" res="-2.8713172301650047e-02" rms="4.5277109742164612e-01" purity="4.7833111882209778e-01" nType="0">
          <Node pos="l" depth="2" NCoef="0" IVar="-1" Cut="0.0000000000000000e+00" cType="1" res="-2.8676880523562431e-02" rms="4.4852432608604431e-01" purity="3.1655499339103699e-01" nType="-99"/>
          <Node pos="r" depth="2" NCoef="0" IVar="-1" Cut="0.0000000000000000e+00" cType="1" res="1.2711351737380028e-03" rms="4.4907587766647339e-01" purity="5.3312778472900391e-01" nType="-99"/>
        </Node>
        <Node pos="r" depth="1" NCoef="0" IVar="1" Cut="9.4719640910625458e-02" cType="1" res="8.9810885488986969e-02" rms="4.1636016964912415e-01" purity="6.0562163591384888e-01" nType="0">
          <Node pos="l" depth="2" NCoef="0" IVar="-1" Cut="0.0000000000000000e+00" cType="1" res="3.5644724965095520e-02" rms="3.9973378181457520e-01" purity="7.2247719764709473e-01" nType="-99"/>
          <Node pos="r" depth="2" NCoef="0" IVar="-1" Cut="0.0000000000000000e+00" cType="1" res="-3.5427983850240707e-02" rms="3.7560164928436279e-01" purity="2.0389550924301147e-01" nType="-99"/>
        </Node>
      </Node>
    </BinaryTree>
    <BinaryTree type="DecisionTree" boostWeight="1.0000000000000000e+00" itree="36">
      <Node pos="s" depth="0" NCoef="0" IVar="3" Cut="4.2553114891052246e-01" cType="1" res="-1.1670395731925964e-02" rms="4.5210915803909302e-01" purity="4.9181953072547913e-01" nType="0">
        <Node pos="l" depth="1" NCoef="0" IVar="3" Cut="3.5725924372673035e-01" cType="1" res="8.9283607900142670e-02" rms="4.1199424862861633e-01" purity="7.1559119224548340e-01" nType="0">
          <Node pos="l" depth="2" NCoef="0" IVar="-1" Cut="0.0000000000000000e+00" cType="1" res="6.7396950908005238e-03" rms="4.2217084765434265e-01" purity="6.6529983282089233e-01" nType="-99"/>
          <Node pos="r" depth="2" NCoef="0" IVar="-1" Cut="0.0000000000000000e+00" cType="1" res="4.3361816555261612e-02" rms="3.7593960762023926e-01" purity="7.9482412338256836e-01" nType="-99"/>
        </Node>
        <Node pos="r" depth="1" NCoef="0" IVar="7" Cut="4.7689461708068848e-01" cType="1" res="-4.0292579680681229e-02" rms="4.5882633328437805e-01" purity="4.2837646603584290e-01" nType="0">
          <Node pos="l" depth="2" NCoef="0" IVar="-1" Cut="0.0000000000000000e+00" cType="1" res="7.0945611223578453e-03" rms="4.4905653595924377e-01" purity="3.8736337423324585e-01" nType="-99"/>
          <Node pos="r" depth="2" NCoef="0" IVar="-1" Cut="0.0000000000000000e+00" cType="1" res="-1.6475014388561249e-02" rms="4.5957705378532410e-01" purity="4.4832617044448853e-01" nType="-99"/>
        </Node>
      </Node>
    </BinaryTree>
    <BinaryTree type="DecisionTree" boostWeight="1.0000000000000000e+00" itree="37">
      <Node pos="s" depth="0" NCoef="0" IVar="3" Cut="5.6835782527923584e-01" cType="1" res="-3.1260289251804352e-02" rms="4.4577944278717041e-01" purity="4.7519335150718689e-01" nType="0">
        <Node pos="l" depth="1" NCoef="0" IVar="5" Cut="6.0199207067489624e-01" cType="1" res="1.4192092232406139e-02" rms="4.3773281574249268e-01" purity="6.1029046773910522e-01" nType="0">
          <Node pos="l" depth="2" NCoef="0" IVar="-1" Cut="0.0000000000000000e+00" cType="1" res="-1.4836767688393593e-02" rms="4.6359223127365112e-01" purity="4.9436125159263611e-01" nType="-99"/>
          <Node pos="r" depth="2" NCoef="0" IVar="-1" Cut="0.0000000000000000e+00" cType="1" res="4.3160554021596909e-02" rms="3.2245823740959167e-01" purity="8.4907209873199463e-01" nType="-99"/>
        </Node>
        <Node pos="r" depth="1" NCoef="0" IVar="0" Cut="2.0726896822452545e-01" cType="1" res="-7.0726491510868073e-02" rms="4.4893306493759155e-01" purity="3.5788887739181519e-01" nType="0">
          <Node pos="l" depth="2" NCoef="0" IVar="-1" Cut="0.0000000000000000e+00" cType="1" res="-5.5056186392903328e-03" rms="4.5019906759262085e-01" purity="3.8772419095039368e-01" nType="-99"/>
          <Node pos="r" depth="2" NCoef="0" IVar="-1" Cut="0.0000000000000000e+00" cType="1" res="-3.4852325916290283e-02" rms="4.3261137604713440e-01" purity="2.9982739686965942e-01" nType="-99"/>
        </Node>
      </Node>
    </BinaryTree>
    <BinaryTree type="DecisionTree" boostWeight="1.0000000000000000e+00" itree="38">
      <Node pos="s" depth="0" NCoef="0" IVar="1" Cut="7.4990130960941315e-02" cType="1" res="1.6952494159340858e-02" rms="4.4069814682006836e-01" purity="5.2067643404006958e-01" nType="0">
        <Node pos="l" depth="1" NCoef="0" IVar="1" Cut="-2.0686574280261993e-02" cType="1" res="4.6292297542095184e-02" rms="4.3098500370979309e-01" purity="5.9531009197235107e-01" nType="0">
          <Node pos="l" depth="2" NCoef="0" IVar="-1" Cut="0.0000000000000000e+00" cType="1" res="-2.5169776752591133e-02" rms="4.5780533552169800e-01" purity="3.2695367932319641e-01" nType="-99"/>
          <Node pos="r" depth="2" NCoef="0" IVar="-1" Cut="0.0000000000000000e+00" cType="1" res="2.1516228094696999e-02" rms="4.1099640727043152e-01" purity="6.7419940233230591e-01" nType="-99"/>
        </Node>
        <Node pos="r" depth="1" NCoef="0" IVar="6" Cut="4.2879927903413773e-02" cType="1" res="-6.4830832183361053e-02" rms="4.5686715841293335e-01" purity="3.1263849139213562e-01" nType="0">
          <Node pos="l" depth="2" NCoef="0" IVar="-1" Cut="0.0000000000000000e+00" cType="1" res="-4.3287508189678192e-02" rms="4.1252565383911133e-01" purity="2.3655992746353149e-01" nType="-99"/>
          <Node pos="r" depth="2" NCoef="0" IVar="-1" Cut="0.0000000000000000e+00" cType="1" res="5.6876782327890396e-03" rms="4.6415820717811584e-01" purity="3.6427491903305054e-01" nType="-99"/>
        </Node>
      </Node>
    </BinaryTree>
    <BinaryTree type="DecisionTree" boostWeight="1.0000000000000000e+00" itree="39">
      <Node pos="s" depth="0" NCoef="0" IVar="1" Cut="-5.2134925499558449e-04" cType="1" res="-2.4260547943413258e-03" rms="4.4797497987747192e-01" purity="5.0544518232345581e-01" nType="0">
        <Node pos="l" depth="1" NCoef="0" IVar="0" Cut="3.4071511030197144e-01" cType="1" res="8.8865906000137329e-02" rms="4.3927121162414551e-01" purity="6.2008756399154663e-01" nType="0">
          <Node pos="l" depth="2" NCoef="0" IVar="-1" Cut="0.0000000000000000e+00" cType="1" res="7.2122239507734776e-03" rms="4.6295544505119324e-01" purity="5.1164579391479492e-01" nType="-99"/>
          <Node pos="r" depth="2" NCoef="0" IVar="-1" Cut="0.0000000000000000e+00" cType="1" res="5.2850019186735153e-02" rms="3.4399074316024780e-01" purity="8.7326055765151978e-01" nType="-99"/>
        </Node>
        <Node pos="r" depth="1" NCoef="0" IVar="3" Cut="3.5152503848075867e-01" cType="1" res="-5.2670281380414963e-02" rms="4.4477000832557678e-01" purity="4.4234961271286011e-01" nType="0">
          <Node pos="l" depth="2" NCoef="0" IVar="-1" Cut="0.0000000000000000e+00" cType="1" res="-4.3540466576814651e-02" rms="4.1927343606948853e-01" purity="3.8032940030097961e-01" nType="-99"/>
          <Node pos="r" depth="2" NCoef="0" IVar="-1" Cut="0.0000000000000000e+00" cType="1" res="-6.2480983324348927e-03" rms="4.4447901844978333e-01" purity="4.5366007089614868e-01" nType="-99"/>
        </Node>
      </Node>
    </BinaryTree>
    <BinaryTree type="DecisionTree" boostWeight="1.0000000000000000e+00" itree="40">
      <Node pos="s" depth="0" NCoef="0" IVar="5" Cut="4.8338511586189270e-01" cType="1" res="2.2428812459111214e-02" rms="4.3385666608810425e-01" purity="5.3197413682937622e-01" nType="0">
        <Node pos="l" depth="1" NCoef="0" IVar="4" Cut="1.2470406293869019e+00" cType="1" res="-1.0535702109336853e-01" rms="4.0196299552917480e-01" purity="2.8105086088180542e-01" nType="0">
          <Node pos="l" depth="2" NCoef="0" IVar="-1" Cut="0.0000000000000000e+00" cType="1" res="-5.5182144045829773e-02" rms="2.8927004337310791e-01" purity="9.1635666787624359e-02" nType="-99"/>
          <Node pos="r" depth="2" NCoef="0" IVar="-1" Cut="0.0000000000000000e+00" cType="1" res="-7.4502066709101200e-03" rms="4.4282031059265137e-01" purity="3.9846518635749817e-01" nType="-99"/>
        </Node>
        <Node pos="r" depth="1" NCoef="0" IVar="6" Cut="2.1477792412042618e-02" cType="1" res="4.5790653675794601e-02" rms="4.3540099263191223e-01" purity="5.7784801721572876e-01" nType="0">
          <Node pos="l" depth="2" NCoef="0" IVar="-1" Cut="0.0000000000000000e+00" cType="1" res="3.9886012673377991e-02" rms="3.2856482267379761e-01" purity="8.2015568017959595e-01" nType="-99"/>
          <Node pos="r" depth="2" NCoef="0" IVar="-1" Cut="0.0000000000000000e+00" cType="1" res="2.8159574139863253e-03" rms="4.5828422904014587e-01" purity="5.0327599048614502e-01" nType="-99"/>
        </Node>
      </Node>
    </BinaryTree>
    <BinaryTree type="DecisionTree" boostWeight="1.0000000000000000e+00" itree="41">
      <Node pos="s" depth="0" NCoef="0" IVar="6" Cut="9.2296481132507324e-02" cType="1" res="-1.8747054040431976e-02" rms="4.3729066848754883e-01" purity="4.9151447415351868e-01" nType="0">
        <Node pos="l" depth="1" NCoef="0" IVar="7" Cut="4.5909327268600464e-01" cType="1" res="7.7026779763400555e-03" rms="4.3101263046264648e-01" purity="5.5348771810531616e-01" nType="0">
          <Node pos="l" depth="2" NCoef="0" IVar="-1" Cut="0.0000000000000000e+00" cType="1" res="-2.1673608571290970e-02" rms="4.5226874947547913e-01" purity="3.1982538104057312e-01" nType="-99"/>
          <Node pos="r" depth="2" NCoef="0" IVar="-1" Cut="0.0000000000000000e+00" cType="1" res="1.0007023811340332e-02" rms="4.1802203655242920e-01" purity="6.2990969419479370e-01" nType="-99"/>
        </Node>
        <Node pos="r" depth="1" NCoef="0" IVar="7" Cut="3.9619752764701843e-01" cType="1" res="-1.1036062985658646e-01" rms="4.4641718268394470e-01" purity="2.7685880661010742e-01" nType="0">
          <Node pos="l" depth="2" NCoef="0" IVar="-1" Cut="0.0000000000000000e+00" cType="1" res="2.3350775241851807e-02" rms="4.6342346072196960e-01" purity="3.8837292790412903e-01" nType="-99"/>
          <Node pos="r" depth="2" NCoef="0" IVar="-1" Cut="0.0000000000000000e+00" cType="1" res="-3.7116196006536484e-02" rms="4.2325183749198914e-01" purity="2.4421457946300507e-01" nType="-99"/>
        </Node>
      </Node>
    </BinaryTree>
    <BinaryTree type="DecisionTree" boostWeight="1.0000000000000000e+00" itree="42">
      <Node pos="s" depth="0" NCoef="0" IVar="7" Cut="3.0024078488349915e-01" cType="1" res="-2.9176523908972740e-02" rms="4.4817844033241272e-01" purity="4.8412743210792542e-01" nType="0">
        <Node pos="l" depth="1" NCoef="0" IVar="7" Cut="2.2238096594810486e-01" cType="1" res="-1.3999082148075104e-01" rms="3.8424167037010193e-01" purity="1.7361864447593689e-01" nType="0">
          <Node pos="l" depth="2" NCoef="0" IVar="-1" Cut="0.0000000000000000e+00" cType="1" res="-1.9092695787549019e-02" rms="4.0250003337860107e-01" purity="2.1135562658309937e-01" nType="-99"/>
          <Node pos="r" depth="2" NCoef="0" IVar="-1" Cut="0.0000000000000000e+00" cType="1" res="-4.0498398244380951e-02" rms="3.7223029136657715e-01" purity="1.5695337951183319e-01" nType="-99"/>
        </Node>
        <Node pos="r" depth="1" NCoef="0" IVar="7" Cut="3.7491101026535034e-01" cType="1" res="-1.5431345440447330e-02" rms="4.5360049605369568e-01" purity="5.2264231443405151e-01" nType="0">
          <Node pos="l" depth="2" NCoef="0" IVar="-1" Cut="0.0000000000000000e+00" cType="1" res="4.9007944762706757e-02" rms="4.2660015821456909e-01" purity="6.0869175195693970e-01" nType="-99"/>
          <Node pos="r" depth="2" NCoef="0" IVar="-1" Cut="0.0000000000000000e+00" cType="1" res="-5.6898328475654125e-03" rms="4.5215514302253723e-01" purity="5.1923877000808716e-01" nType="-99"/>
        </Node>
      </Node>
    </BinaryTree>
    <BinaryTree type="DecisionTree" boostWeight="1.0000000000000000e+00" itree="43">
      <Node pos="s" depth="0" NCoef="0" IVar="4" Cut="1.5460499525070190e+00" cType="1" res="-1.0459525510668755e-02" rms="4.5014598965644836e-01" purity="4.9914407730102539e-01" nType="0">
        <Node pos="l" depth="1" NCoef="0" IVar="6" Cut="9.1937007382512093e-03" cType="1" res="-3.5316843539476395e-02" rms="4.5070499181747437e-01" purity="4.6530625224113464e-01" nType="0">
          <Node pos="l" depth="2" NCoef="0" IVar="-1" Cut="0.0000000000000000e+00" cType="1" res="5.0155468285083771e-02" rms="3.1181517243385315e-01" purity="8.6877906322479248e-01" nType="-99"/>
          <Node pos="r" depth="2" NCoef="0" IVar="-1" Cut="0.0000000000000000e+00" cType="1" res="-1.2322675436735153e-02" rms="4.5519319176673889e-01" purity="4.3212592601776123e-01" nType="-99"/>
        </Node>
        <Node pos="r" depth="1" NCoef="0" IVar="7" Cut="6.6614395380020142e-01" cType="1" res="7.1691378951072693e-02" rms="4.3837916851043701e-01" purity="6.1097455024719238e-01" nType="0">
          <Node pos="l" depth="2" NCoef="0" IVar="-1" Cut="0.0000000000000000e+00" cType="1" res="6.3283421099185944e-02" rms="4.1435346007347107e-01" purity="6.9807499647140503e-01" nType="-99"/>
          <Node pos="r" depth="2" NCoef="0" IVar="-1" Cut="0.0000000000000000e+00" cType="1" res="8.8373459875583649e-03" rms="4.3294623494148254e-01" purity="5.9598273038864136e-01" nType="-99"/>
        </Node>
      </Node>
    </BinaryTree>
    <BinaryTree type="DecisionTree" boostWeight="1.0000000000000000e+00" itree="44">
      <Node pos="s" depth="0" NCoef="0" IVar="3" Cut="2.6841384172439575e-01" cType="1" res="-1.9873963668942451e-02" rms="4.5313182473182678e-01" purity="4.9722099304199219e-01" nType="0">
        <Node pos="l" depth="1" NCoef="0" IVar="-1" Cut="0.0000000000000000e+00" cType="1" res="-5.2270594984292984e-02" rms="4.9442067742347717e-01" purity="4.2427739500999451e-01" nType="-99"/>
        <Node pos="r" depth="1" NCoef="0" IVar="3" Cut="9.3671929836273193e-01" cType="1" res="-1.1501233093440533e-02" rms="4.4938331842422485e-01" purity="5.0024187564849854e-01" nType="0">
          <Node pos="l" depth="2" NCoef="0" IVar="-1" Cut="0.0000000000000000e+00" cType="1" res="-3.7528018583543599e-04" rms="4.4973474740982056e-01" purity="5.1829850673675537e-01" nType="-99"/>
          <Node pos="r" depth="2" NCoef="0" IVar="-1" Cut="0.0000000000000000e+00" cType="1" res="-3.8682162761688232e-02" rms="4.1179266571998596e-01" purity="2.0744529366493225e-01" nType="-99"/>
        </Node>
      </Node>
    </BinaryTree>
    <BinaryTree type="DecisionTree" boostWeight="1.0000000000000000e+00" itree="45">
      <Node pos="s" depth="0" NCoef="0" IVar="6" Cut="4.5962505042552948e-02" cType="1" res="1.7018524231389165e-03" rms="4.4832366704940796e-01" purity="5.1400399208068848e-01" nType="0">
        <Node pos="l" depth="1" NCoef="0" IVar="2" Cut="3.3592745661735535e-01" cType="1" res="-3.1335290521383286e-02" rms="4.3633911013603210e-01" purity="5.6461745500564575e-01" nType="0">
          <Node pos="l" depth="2" NCoef="0" IVar="-1" Cut="0.0000000000000000e+00" cType="1" res="-3.2976929098367691e-02" rms="4.2593884468078613e-01" purity="3.3395510911941528e-01" nType="-99"/>
          <Node pos="r" depth="2" NCoef="0" IVar="-1" Cut="0.0000000000000000e+00" cType="1" res="4.2830170132219791e-03" rms="4.3118384480476379e-01" purity="6.5826165676116943e-01" nType="-99"/>
        </Node>
        <Node pos="r" depth="1" NCoef="0" IVar="5" Cut="5.5272608995437622e-01" cType="1" res="4.3022908270359039e-02" rms="4.5954582095146179e-01" purity="4.5069941878318787e-01" nType="0">
          <Node pos="l" depth="2" NCoef="0" IVar="-1" Cut="0.0000000000000000e+00" cType="1" res="-8.1086028367280960e-03" rms="4.0769815444946289e-01" purity="2.6591488718986511e-01" nType="-99"/>
          <Node pos="r" depth="2" NCoef="0" IVar="-1" Cut="0.0000000000000000e+00" cType="1" res="1.6376882791519165e-02" rms="4.7650790214538574e-01" purity="5.2981454133987427e-01" nType="-99"/>
        </Node>
      </Node>
    </BinaryTree>
    <BinaryTree type="DecisionTree" boostWeight="1.0000000000000000e+00" itree="46">
      <Node pos="s" depth="0" NCoef="0" IVar="6" Cut="2.7614982798695564e-02" cType="1" res="-2.6910977438092232e-02" rms="4.5148217678070068e-01" purity="4.7943946719169617e-01" nType="0">
        <Node pos="l" depth="1" NCoef="0" IVar="6" Cut="2.1135527640581131e-02" cType="1" res="-8.5070438683032990e-02" rms="4.4140622019767761e-01" purity="5.2167570590972900e-01" nType="0">
          <Node pos="l" depth="2" NCoef="0" IVar="-1" Cut="0.0000000000000000e+00" cType="1" res="-1.4324657618999481e-02" rms="4.3380782008171082e-01" purity="5.6939548254013062e-01" nType="-99"/>
          <Node pos="r" depth="2" NCoef="0" IVar="-1" Cut="0.0000000000000000e+00" cType="1" res="-3.8679637014865875e-02" rms="4.5339465141296387e-01" purity="3.6669024825096130e-01" nType="-99"/>
        </Node>
        <Node pos="r" depth="1" NCoef="0" IVar="5" Cut="4.7173222899436951e-01" cType="1" res="1.8763893749564886e-03" rms="4.5363673567771912e-01" purity="4.5853364467620850e-01" nType="0">
          <Node pos="l" depth="2" NCoef="0" IVar="-1" Cut="0.0000000000000000e+00" cType="1" res="-3.0921690165996552e-02" rms="4.1494613885879517e-01" purity="2.1309779584407806e-01" nType="-99"/>
          <Node pos="r" depth="2" NCoef="0" IVar="-1" Cut="0.0000000000000000e+00" cType="1" res="4.3992581777274609e-03" rms="4.5602634549140930e-01" purity="4.9307510256767273e-01" nType="-99"/>
        </Node>
      </Node>
    </BinaryTree>
    <BinaryTree type="DecisionTree" boostWeight="1.0000000000000000e+00" itree="47">
      <Node pos="s" depth="0" NCoef="0" IVar="5" Cut="6.8961119651794434e-01" cType="1" res="-1.8747266381978989e-02" rms="4.4693437218666077e-01" purity="4.8960039019584656e-01" nType="0">
        <Node pos="l" depth="1" NCoef="0" IVar="7" Cut="6.9968146085739136e-01" cType="1" res="-4.2619634419679642e-02" rms="4.4359898567199707e-01" purity="4.6715402603149414e-01" nType="0">
          <Node pos="l" depth="2" NCoef="0" IVar="-1" Cut="0.0000000000000000e+00" cType="1" res="-1.8956314772367477e-02" rms="4.5521080493927002e-01" purity="3.7454459071159363e-01" nType="-99"/>
          <Node pos="r" depth="2" NCoef="0" IVar="-1" Cut="0.0000000000000000e+00" cType="1" res="6.4212493598461151e-03" rms="4.1420188546180725e-01" purity="6.2462460994720459e-01" nType="-99"/>
        </Node>
        <Node pos="r" depth="1" NCoef="0" IVar="4" Cut="4.4133126735687256e-01" cType="1" res="4.1076049208641052e-02" rms="4.4965189695358276e-01" purity="5.4585027694702148e-01" nType="0">
          <Node pos="l" depth="2" NCoef="0" IVar="-1" Cut="0.0000000000000000e+00" cType="1" res="-1.3233429752290249e-02" rms="4.6064609289169312e-01" purity="3.7433362007141113e-01" nType="-99"/>
          <Node pos="r" depth="2" NCoef="0" IVar="-1" Cut="0.0000000000000000e+00" cType="1" res="3.9937052875757217e-02" rms="3.9761587977409363e-01" purity="7.6823455095291138e-01" nType="-99"/>
        </Node>
      </Node>
    </BinaryTree>
    <BinaryTree type="DecisionTree" boostWeight="1.0000000000000000e+00" itree="48">
      <Node pos="s" depth="0" NCoef="0" IVar="1" Cut="-2.4992140009999275e-02" cType="1" res="-6.9132898934185505e-03" rms="4.4431880116462708e-01" purity="4.9683514237403870e-01" nType="0">
        <Node pos="l" depth="1" NCoef="0" IVar="6" Cut="7.5642302632331848e-02" cType="1" res="-1.3227489590644836e-01" rms="4.3185099959373474e-01" purity="2.9365426301956177e-01" nType="0">
          <Node pos="l" depth="2" NCoef="0" IVar="-1" Cut="0.0000000000000000e+00" cType="1" res="-4.0630482137203217e-02" rms="3.7776964902877808e-01" purity="2.2642053663730621e-01" nType="-99"/>
          <Node pos="r" depth="2" NCoef="0" IVar="-1" Cut="0.0000000000000000e+00" cType="1" res="-1.1067890562117100e-02" rms="5.0234627723693848e-01" purity="4.1009077429771423e-01" nType="-99"/>
        </Node>
        <Node pos="r" depth="1" NCoef="0" IVar="5" Cut="6.2820261716842651e-01" cType="1" res="1.4111616648733616e-02" rms="4.4291481375694275e-01" purity="5.3091138601303101e-01" nType="0">
          <Node pos="l" depth="2" NCoef="0" IVar="-1" Cut="0.0000000000000000e+00" cType="1" res="-8.6581129580736160e-03" rms="4.5673006772994995e-01" purity="4.6821367740631104e-01" nType="-99"/>
          <Node pos="r" depth="2" NCoef="0" IVar="-1" Cut="0.0000000000000000e+00" cType="1" res="1.4962790533900261e-02" rms="4.2274501919746399e-01" purity="5.9347414970397949e-01" nType="-99"/>
        </Node>
      </Node>
    </BinaryTree>
    <BinaryTree type="DecisionTree" boostWeight="1.0000000000000000e+00" itree="49">
      <Node pos="s" depth="0" NCoef="0" IVar="5" Cut="7.8786486387252808e-01" cType="1" res="4.8425715067423880e-04" rms="4.4136509299278259e-01" purity="4.9711620807647705e-01" nType="0">
        <Node pos="l" depth="1" NCoef="0" IVar="3" Cut="5.5641502141952515e-01" cType="1" res="-2.1995913237333298e-02" rms="4.4173088669776917e-01" purity="4.7399252653121948e-01" nType="0">
          <Node pos="l" depth="2" NCoef="0" IVar="-1" Cut="0.0000000000000000e+00" cType="1" res="7.9749329015612602e-03" rms="4.2152518033981323e-01" purity="6.1924219131469727e-01" nType="-99"/>
          <Node pos="r" depth="2" NCoef="0" IVar="-1" Cut="0.0000000000000000e+00" cType="1" res="-1.8874071538448334e-02" rms="4.5502811670303345e-01" purity="3.1883791089057922e-01" nType="-99"/>
        </Node>
        <Node pos="r" depth="1" NCoef="0" IVar="4" Cut="2.7428695559501648e-01" cType="1" res="1.4601157605648041e-01" rms="4.1019803285598755e-01" purity="6.4680945873260498e-01" nType="0">
          <Node pos="l" depth="2" NCoef="0" IVar="-1" Cut="0.0000000000000000e+00" cType="1" res="1.1965881101787090e-02" rms="4.4251376390457153e-01" purity="4.9400740861892700e-01" nType="-99"/>
          <Node pos="r" depth="2" NCoef="0" IVar="-1" Cut="0.0000000000000000e+00" cType="1" res="6.4321525394916534e-02" rms="3.1001034379005432e-01" purity="8.7800043821334839e-01" nType="-99"/>
        </Node>
      </Node>
    </BinaryTree>
    <BinaryTree type="DecisionTree" boostWeight="1.0000000000000000e+00" itree="50">
      <Node pos="s" depth="0" NCoef="0" IVar="6" Cut="1.9074440002441406e-01" cType="1" res="1.8293404951691628e-02" rms="4.4762936234474182e-01" purity="5.3817409276962280e-01" nType="0">
        <Node pos="l" depth="1" NCoef="0" IVar="5" Cut="8.0158799886703491e-01" cType="1" res="2.7105404064059258e-02" rms="4.4855260848999023e-01" purity="5.5323594808578491e-01" nType="0">
          <Node pos="l" depth="2" NCoef="0" IVar="-1" Cut="0.0000000000000000e+00" cType="1" res="2.4373398628085852e-03" rms="4.4966626167297363e-01" purity="5.3526270389556885e-01" nType="-99"/>
          <Node pos="r" depth="2" NCoef="0" IVar="-1" Cut="0.0000000000000000e+00" cType="1" res="3.4091953188180923e-02" rms="4.1943705081939697e-01" purity="6.8704521656036377e-01" nType="-99"/>
        </Node>
        <Node pos="r" depth="1" NCoef="0" IVar="-1" Cut="0.0000000000000000e+00" cType="1" res="-4.4661566615104675e-02" rms="3.6105701327323914e-01" purity="1.6525487601757050e-01" nType="-99"/>
      </Node>
    </BinaryTree>
    <BinaryTree type="DecisionTree" boostWeight="1.0000000000000000e+00" itree="51">
      <Node pos="s" depth="0" NCoef="0" IVar="0" Cut="4.6788047999143600e-02" cType="1" res="-1.6296603716909885e-03" rms="4.4654461741447449e-01" purity="5.0956189632415771e-01" nType="0">
        <Node pos="l" depth="1" NCoef="0" IVar="-1" Cut="0.0000000000000000e+00" cType="1" res="-4.2016427963972092e-02" rms="3.9375099539756775e-01" purity="1.8918821215629578e-01" nType="-99"/>
        <Node pos="r" depth="1" NCoef="0" IVar="5" Cut="8.5820686817169189e-01" cType="1" res="1.5964135527610779e-02" rms="4.4729515910148621e-01" purity="5.4009658098220825e-01" nType="0">
          <Node pos="l" depth="2" NCoef="0" IVar="-1" Cut="0.0000000000000000e+00" cType="1" res="8.7181496201083064e-04" rms="4.4805610179901123e-01" purity="5.2928137779235840e-01" nType="-99"/>
          <Node pos="r" depth="2" NCoef="0" IVar="-1" Cut="0.0000000000000000e+00" cType="1" res="6.9473914802074432e-02" rms="2.7531728148460388e-01" purity="8.2193255424499512e-01" nType="-99"/>
        </Node>
      </Node>
    </BinaryTree>
    <BinaryTree type="DecisionTree" boostWeight="1.0000000000000000e+00" itree="52">
      <Node pos="s" depth="0" NCoef="0" IVar="7" Cut="4.9461871385574341e-01" cType="1" res="-2.9974995180964470e-02" rms="4.5299419760704041e-01" purity="4.7859787940979004e-01" nType="0">
        <Node pos="l" depth="1" NCoef="0" IVar="7" Cut="4.5182695984840393e-01" cType="1" res="-8.0474309623241425e-02" rms="4.5318105816841125e-01" purity="3.1076085567474365e-01" nType="0">
          <Node pos="l" depth="2" NCoef="0" IVar="-1" Cut="0.0000000000000000e+00" cType="1" res="-5.4870839230716228e-03" rms="4.4482070207595825e-01" purity="3.3698964118957520e-01" nType="-99"/>
          <Node pos="r" depth="2" NCoef="0" IVar="-1" Cut="0.0000000000000000e+00" cType="1" res="-4.6644609421491623e-02" rms="4.4496107101440430e-01" purity="2.5187915563583374e-01" nType="-99"/>
        </Node>
        <Node pos="r" depth="1" NCoef="0" IVar="5" Cut="5.8783578872680664e-01" cType="1" res="-2.0436514168977737e-03" rms="4.5046579837799072e-01" purity="5.7142907381057739e-01" nType="0">
          <Node pos="l" depth="2" NCoef="0" IVar="-1" Cut="0.0000000000000000e+00" cType="1" res="-1.5290871262550354e-02" rms="4.7100827097892761e-01" purity="4.6127337217330933e-01" nType="-99"/>
          <Node pos="r" depth="2" NCoef="0" IVar="-1" Cut="0.0000000000000000e+00" cType="1" res="1.2800436466932297e-02" rms="4.2431229352951050e-01" purity="6.6641217470169067e-01" nType="-99"/>
        </Node>
      </Node>
    </BinaryTree>
    <BinaryTree type="DecisionTree" boostWeight="1.0000000000000000e+00" itree="53">
      <Node pos="s" depth="0" NCoef="0" IVar="0" Cut="3.9645764231681824e-01" cType="1" res="1.3750986196100712e-02" rms="4.4110485911369324e-01" purity="5.3246802091598511e-01" nType="0">
        <Node pos="l" depth="1" NCoef="0" IVar="5" Cut="8.2241624593734741e-01" cType="1" res="3.6869142204523087e-02" rms="4.4587826728820801e-01" purity="5.2059078216552734e-01" nType="0">
          <Node pos="l" depth="2" NCoef="0" IVar="-1" Cut="0.0000000000000000e+00" cType="1" res="1.3849320821464062e-02" rms="4.3649649620056152e-01" purity="5.3497886657714844e-01" nType="-99"/>
          <Node pos="r" depth="2" NCoef="0" IVar="-1" Cut="0.0000000000000000e+00" cType="1" res="-1.6585320234298706e-02" rms="4.7952252626419067e-01" purity="4.3910917639732361e-01" nType="-99"/>
        </Node>
        <Node pos="r" depth="1" NCoef="0" IVar="6" Cut="3.9765331894159317e-02" cType="1" res="-4.1583333164453506e-02" rms="4.2437979578971863e-01" purity="5.6089657545089722e-01" nType="0">
          <Node pos="l" depth="2" NCoef="0" IVar="-1" Cut="0.0000000000000000e+00" cType="1" res="1.4064976945519447e-02" rms="3.8654950261116028e-01" purity="7.4599343538284302e-01" nType="-99"/>
          <Node pos="r" depth="2" NCoef="0" IVar="-1" Cut="0.0000000000000000e+00" cType="1" res="-2.9322307556867599e-02" rms="4.3861678242683411e-01" purity="3.8212019205093384e-01" nType="-99"/>
        </Node>
      </Node>
    </BinaryTree>
    <BinaryTree type="DecisionTree" boostWeight="1.0000000000000000e+00" itree="54">
      <Node pos="s" depth="0" NCoef="0" IVar="7" Cut="7.4801880121231079e-01" cType="1" res="1.3803184963762760e-02" rms="4.4501146674156189e-01" purity="5.2543735504150391e-01" nType="0">
        <Node pos="l" depth="1" NCoef="0" IVar="3" Cut="3.3202329277992249e-01" cType="1" res="3.7094559520483017e-02" rms="4.4493016600608826e-01" purity="5.4023361206054688e-01" nType="0">
          <Node pos="l" depth="2" NCoef="0" IVar="-1" Cut="0.0000000000000000e+00" cType="1" res="-3.0640447512269020e-02" rms="4.4557589292526245e-01" purity="3.9165383577346802e-01" nType="-99"/>
          <Node pos="r" depth="2" NCoef="0" IVar="-1" Cut="0.0000000000000000e+00" cType="1" res="1.1308823712170124e-02" rms="4.4261607527732849e-01" purity="5.4938358068466187e-01" nType="-99"/>
        </Node>
        <Node pos="r" depth="1" NCoef="0" IVar="6" Cut="3.9379537105560303e-02" cType="1" res="-7.6653949916362762e-02" rms="4.3362066149711609e-01" purity="4.6797305345535278e-01" nType="0">
          <Node pos="l" depth="2" NCoef="0" IVar="-1" Cut="0.0000000000000000e+00" cType="1" res="6.9854347966611385e-03" rms="3.6756348609924316e-01" purity="6.5058952569961548e-01" nType="-99"/>
          <Node pos="r" depth="2" NCoef="0" IVar="-1" Cut="0.0000000000000000e+00" cType="1" res="-3.4896746277809143e-02" rms="4.6246880292892456e-01" purity="3.2988280057907104e-01" nType="-99"/>
        </Node>
      </Node>
    </BinaryTree>
    <BinaryTree type="DecisionTree" boostWeight="1.0000000000000000e+00" itree="55">
      <Node pos="s" depth="0" NCoef="0" IVar="5" Cut="7.8786486387252808e-01" cType="1" res="-4.0085390210151672e-02" rms="4.4301298260688782e-01" purity="4.6484005451202393e-01" nType="0">
        <Node pos="l" depth="1" NCoef="0" IVar="1" Cut="3.4656193852424622e-01" cType="1" res="-5.6272674351930618e-02" rms="4.4208773970603943e-01" purity="4.4125869870185852e-01" nType="0">
          <Node pos="l" depth="2" NCoef="0" IVar="-1" Cut="0.0000000000000000e+00" cType="1" res="-1.5284081920981407e-02" rms="4.3837717175483704e-01" purity="4.4462215900421143e-01" nType="-99"/>
          <Node pos="r" depth="2" NCoef="0" IVar="-1" Cut="0.0000000000000000e+00" cType="1" res="1.9710404798388481e-02" rms="4.7455543279647827e-01" purity="3.9086499810218811e-01" nType="-99"/>
        </Node>
        <Node pos="r" depth="1" NCoef="0" IVar="5" Cut="8.3168512582778931e-01" cType="1" res="7.2534024715423584e-02" rms="4.3295714259147644e-01" purity="6.2890231609344482e-01" nType="0">
          <Node pos="l" depth="2" NCoef="0" IVar="-1" Cut="0.0000000000000000e+00" cType="1" res="7.3057837784290314e-02" rms="1.7236423492431641e-01" purity="9.2829096317291260e-01" nType="-99"/>
          <Node pos="r" depth="2" NCoef="0" IVar="-1" Cut="0.0000000000000000e+00" cType="1" res="-6.4857481047511101e-03" rms="4.7585687041282654e-01" purity="4.9128079414367676e-01" nType="-99"/>
        </Node>
      </Node>
    </BinaryTree>
    <BinaryTree type="DecisionTree" boostWeight="1.0000000000000000e+00" itree="56">
      <Node pos="s" depth="0" NCoef="0" IVar="6" Cut="1.3536746799945831e-01" cType="1" res="1.0825149714946747e-02" rms="4.4784957170486450e-01" purity="5.1642113924026489e-01" nType="0">
        <Node pos="l" depth="1" NCoef="0" IVar="6" Cut="2.6739967986941338e-02" cType="1" res="3.2480098307132721e-02" rms="4.4916757941246033e-01" purity="5.5641937255859375e-01" nType="0">
          <Node pos="l" depth="2" NCoef="0" IVar="-1" Cut="0.0000000000000000e+00" cType="1" res="-1.2288317084312439e-02" rms="4.4854402542114258e-01" purity="5.6839609146118164e-01" nType="-99"/>
          <Node pos="r" depth="2" NCoef="0" IVar="-1" Cut="0.0000000000000000e+00" cType="1" res="1.8373185768723488e-02" rms="4.4297108054161072e-01" purity="5.4965198040008545e-01" nType="-99"/>
        </Node>
        <Node pos="r" depth="1" NCoef="0" IVar="5" Cut="6.6106098890304565e-01" cType="1" res="-1.4878869056701660e-01" rms="4.0363574028015137e-01" purity="2.2160351276397705e-01" nType="0">
          <Node pos="l" depth="2" NCoef="0" IVar="-1" Cut="0.0000000000000000e+00" cType="1" res="-9.9518299102783203e-03" rms="4.2020702362060547e-01" purity="2.5590261816978455e-01" nType="-99"/>
          <Node pos="r" depth="2" NCoef="0" IVar="-1" Cut="0.0000000000000000e+00" cType="1" res="-4.4101830571889877e-02" rms="3.8348755240440369e-01" purity="2.0438739657402039e-01" nType="-99"/>
        </Node>
      </Node>
    </BinaryTree>
    <BinaryTree type="DecisionTree" boostWeight="1.0000000000000000e+00" itree="57">
      <Node pos="s" depth="0" NCoef="0" IVar="3" Cut="2.6842361688613892e-01" cType="1" res="-3.7337388843297958e-02" rms="4.5236292481422424e-01" purity="4.7058576345443726e-01" nType="0">
        <Node pos="l" depth="1" NCoef="0" IVar="-1" Cut="0.0000000000000000e+00" cType="1" res="-7.3096401989459991e-02" rms="4.7846871614456177e-01" purity="3.0564612150192261e-01" nType="-99"/>
        <Node pos="r" depth="1" NCoef="0" IVar="0" Cut="1.8513157963752747e-01" cType="1" res="-2.1822426468133926e-02" rms="4.4575762748718262e-01" purity="4.7972220182418823e-01" nType="0">
          <Node pos="l" depth="2" NCoef="0" IVar="-1" Cut="0.0000000000000000e+00" cType="1" res="-1.5513517893850803e-02" rms="4.4550815224647522e-01" purity="3.4058192372322083e-01" nType="-99"/>
          <Node pos="r" depth="2" NCoef="0" IVar="-1" Cut="0.0000000000000000e+00" cType="1" res="6.9149659248068929e-04" rms="4.4396525621414185e-01" purity="5.5630469322204590e-01" nType="-99"/>
        </Node>
      </Node>
    </BinaryTree>
    <BinaryTree type="DecisionTree" boostWeight="1.0000000000000000e+00" itree="58">
      <Node pos="s" depth="0" NCoef="0" IVar="1" Cut="2.9993790388107300e-01" cType="1" res="8.5507379844784737e-03" rms="4.4667965173721313e-01" purity="5.1324290037155151e-01" nType="0">
        <Node pos="l" depth="1" NCoef="0" IVar="6" Cut="1.2837380170822144e-01" cType="1" res="-1.6693334328010678e-03" rms="4.4216275215148926e-01" purity="5.1922929286956787e-01" nType="0">
          <Node pos="l" depth="2" NCoef="0" IVar="-1" Cut="0.0000000000000000e+00" cType="1" res="2.5413963012397289e-03" rms="4.4220447540283203e-01" purity="5.4803657531738281e-01" nType="-99"/>
          <Node pos="r" depth="2" NCoef="0" IVar="-1" Cut="0.0000000000000000e+00" cType="1" res="-2.5041334331035614e-02" rms="4.2649921774864197e-01" purity="2.6596763730049133e-01" nType="-99"/>
        </Node>
        <Node pos="r" depth="1" NCoef="0" IVar="1" Cut="4.2401576042175293e-01" cType="1" res="1.1875188350677490e-01" rms="4.7910654544830322e-01" purity="4.4869315624237061e-01" nType="0">
          <Node pos="l" depth="2" NCoef="0" IVar="-1" Cut="0.0000000000000000e+00" cType="1" res="4.8523813486099243e-02" rms="4.8700395226478577e-01" purity="4.9502819776535034e-01" nType="-99"/>
          <Node pos="r" depth="2" NCoef="0" IVar="-1" Cut="0.0000000000000000e+00" cType="1" res="1.9661886617541313e-02" rms="4.7038665413856506e-01" purity="4.2337858676910400e-01" nType="-99"/>
        </Node>
      </Node>
    </BinaryTree>
    <BinaryTree type="DecisionTree" boostWeight="1.0000000000000000e+00" itree="59">
      <Node pos="s" depth="0" NCoef="0" IVar="2" Cut="5.5612057447433472e-01" cType="1" res="5.5433213710784912e-03" rms="4.4041076302528381e-01" purity="5.0784981250762939e-01" nType="0">
        <Node pos="l" depth="1" NCoef="0" IVar="2" Cut="2.2823889553546906e-01" cType="1" res="4.5674920082092285e-02" rms="4.3853276968002319e-01" purity="5.5377674102783203e-01" nType="0">
          <Node pos="l" depth="2" NCoef="0" IVar="-1" Cut="0.0000000000000000e+00" cType="1" res="-1.4503840357065201e-02" rms="4.3241664767265320e-01" purity="3.5550001263618469e-01" nType="-99"/>
          <Node pos="r" depth="2" NCoef="0" IVar="-1" Cut="0.0000000000000000e+00" cType="1" res="2.1937122568488121e-02" rms="4.3290978670120239e-01" purity="6.3782638311386108e-01" nType="-99"/>
        </Node>
        <Node pos="r" depth="1" NCoef="0" IVar="1" Cut="-4.1679191053844988e-04" cType="1" res="-4.1932679712772369e-02" rms="4.3789848685264587e-01" purity="4.5351788401603699e-01" nType="0">
          <Node pos="l" depth="2" NCoef="0" IVar="-1" Cut="0.0000000000000000e+00" cType="1" res="-2.4507334455847740e-02" rms="4.3589645624160767e-01" purity="4.1910538077354431e-01" nType="-99"/>
          <Node pos="r" depth="2" NCoef="0" IVar="-1" Cut="0.0000000000000000e+00" cType="1" res="1.4491413021460176e-03" rms="4.3337079882621765e-01" purity="4.8000735044479370e-01" nType="-99"/>
        </Node>
      </Node>
    </BinaryTree>
    <BinaryTree type="DecisionTree" boostWeight="1.0000000000000000e+00" itree="60">
      <Node pos="s" depth="0" NCoef="0" IVar="6" Cut="3.0777784995734692e-03" cType="1" res="2.2216621786355972e-02" rms="4.3506947159767151e-01" purity="5.3473556041717529e-01" nType="0">
        <Node pos="l" depth="1" NCoef="0" IVar="-1" Cut="0.0000000000000000e+00" cType="1" res="-5.2863489836454391e-02" rms="3.9965143799781799e-01" purity="3.7297597527503967e-01" nType="-99"/>
        <Node pos="r" depth="1" NCoef="0" IVar="6" Cut="3.9541233330965042e-02" cType="1" res="3.9468485862016678e-02" rms="4.3244794011116028e-01" purity="5.4643535614013672e-01" nType="0">
          <Node pos="l" depth="2" NCoef="0" IVar="-1" Cut="0.0000000000000000e+00" cType="1" res="2.4313364177942276e-02" rms="3.8109922409057617e-01" purity="6.9772434234619141e-01" nType="-99"/>
          <Node pos="r" depth="2" NCoef="0" IVar="-1" Cut="0.0000000000000000e+00" cType="1" res="-9.9202967248857021e-04" rms="4.6224585175514221e-01" purity="4.3364635109901428e-01" nType="-99"/>
        </Node>
      </Node>
    </BinaryTree>
    <BinaryTree type="DecisionTree" boostWeight="1.0000000000000000e+00" itree="61">
      <Node pos="s" depth="0" NCoef="0" IVar="3" Cut="5.5622625350952148e-01" cType="1" res="-9.8577262833714485e-03" rms="4.3805202841758728e-01" purity="4.9280366301536560e-01" nType="0">
        <Node pos="l" depth="1" NCoef="0" IVar="2" Cut="3.6706984043121338e-01" cType="1" res="4.4222190976142883e-02" rms="4.1611459851264954e-01" purity="6.3285237550735474e-01" nType="0">
          <Node pos="l" depth="2" NCoef="0" IVar="-1" Cut="0.0000000000000000e+00" cType="1" res="-2.9848366975784302e-02" rms="3.9565253257751465e-01" purity="3.5678204894065857e-01" nType="-99"/>
          <Node pos="r" depth="2" NCoef="0" IVar="-1" Cut="0.0000000000000000e+00" cType="1" res="1.8200747668743134e-02" rms="4.1227763891220093e-01" purity="6.8090504407882690e-01" nType="-99"/>
        </Node>
        <Node pos="r" depth="1" NCoef="0" IVar="7" Cut="4.8268479108810425e-01" cType="1" res="-5.3698215633630753e-02" rms="4.5031884312629700e-01" purity="3.7927162647247314e-01" nType="0">
          <Node pos="l" depth="2" NCoef="0" IVar="-1" Cut="0.0000000000000000e+00" cType="1" res="9.3691581860184669e-03" rms="4.4075173139572144e-01" purity="3.9151301980018616e-01" nType="-99"/>
          <Node pos="r" depth="2" NCoef="0" IVar="-1" Cut="0.0000000000000000e+00" cType="1" res="-2.7955027297139168e-02" rms="4.4511637091636658e-01" purity="3.7027978897094727e-01" nType="-99"/>
        </Node>
      </Node>
    </BinaryTree>
    <BinaryTree type="DecisionTree" boostWeight="1.0000000000000000e+00" itree="62">
      <Node pos="s" depth="0" NCoef="0" IVar="0" Cut="4.9932140111923218e-01" cType="1" res="-1.3758121058344841e-02" rms="4.4674992561340332e-01" purity="4.9914231896400452e-01" nType="0">
        <Node pos="l" depth="1" NCoef="0" IVar="6" Cut="8.6143478751182556e-02" cType="1" res="2.0341509953141212e-03" rms="4.4328609108924866e-01" purity="5.0213378667831421e-01" nType="0">
          <Node pos="l" depth="2" NCoef="0" IVar="-1" Cut="0.0000000000000000e+00" cType="1" res="7.0101767778396606e-03" rms="4.3677005171775818e-01" purity="5.7485556602478027e-01" nType="-99"/>
          <Node pos="r" depth="2" NCoef="0" IVar="-1" Cut="0.0000000000000000e+00" cType="1" res="-1.6788708046078682e-02" rms="4.5246562361717224e-01" purity="3.0217367410659790e-01" nType="-99"/>
        </Node>
        <Node pos="r" depth="1" NCoef="0" IVar="5" Cut="5.6945157051086426e-01" cType="1" res="-1.2491843849420547e-01" rms="4.5516365766525269e-01" purity="4.7808557748794556e-01" nType="0">
          <Node pos="l" depth="2" NCoef="0" IVar="-1" Cut="0.0000000000000000e+00" cType="1" res="1.3165140524506569e-02" rms="3.8705271482467651e-01" purity="6.4629995822906494e-01" nType="-99"/>
          <Node pos="r" depth="2" NCoef="0" IVar="-1" Cut="0.0000000000000000e+00" cType="1" res="-7.5442649424076080e-02" rms="4.3502670526504517e-01" purity="2.7477514743804932e-01" nType="-99"/>
        </Node>
      </Node>
    </BinaryTree>
    <BinaryTree type="DecisionTree" boostWeight="1.0000000000000000e+00" itree="63">
      <Node pos="s" depth="0" NCoef="0" IVar="3" Cut="2.6842361688613892e-01" cType="1" res="-2.6767125353217125e-02" rms="4.3630507588386536e-01" purity="4.7506499290466309e-01" nType="0">
        <Node pos="l" depth="1" NCoef="0" IVar="-1" Cut="0.0000000000000000e+00" cType="1" res="-3.1782727688550949e-02" rms="4.7602114081382751e-01" purity="4.0855792164802551e-01" nType="-99"/>
        <Node pos="r" depth="1" NCoef="0" IVar="3" Cut="5.5744558572769165e-01" cType="1" res="-2.1622955799102783e-02" rms="4.3374055624008179e-01" purity="4.7801789641380310e-01" nType="0">
          <Node pos="l" depth="2" NCoef="0" IVar="-1" Cut="0.0000000000000000e+00" cType="1" res="3.2414773013442755e-03" rms="4.1754600405693054e-01" purity="6.1243301630020142e-01" nType="-99"/>
          <Node pos="r" depth="2" NCoef="0" IVar="-1" Cut="0.0000000000000000e+00" cType="1" res="-1.1846882291138172e-02" rms="4.4470262527465820e-01" purity="3.6641949415206909e-01" nType="-99"/>
        </Node>
      </Node>
    </BinaryTree>
    <BinaryTree type="DecisionTree" boostWeight="1.0000000000000000e+00" itree="64">
      <Node pos="s" depth="0" NCoef="0" IVar="6" Cut="3.0621621757745743e-02" cType="1" res="1.6635848209261894e-02" rms="4.4695299863815308e-01" purity="5.2911496162414551e-01" nType="0">
        <Node pos="l" depth="1" NCoef="0" IVar="5" Cut="6.6579854488372803e-01" cType="1" res="-4.3036073446273804e-02" rms="4.2494276165962219e-01" purity="5.6140255928039551e-01" nType="0">
